{"sizes":[34,30,13],"layers":[{"0":{},"1":{},"2":{},"3":{},"4":{},"5":{},"6":{},"7":{},"8":{},"9":{},"10":{},"11":{},"12":{},"13":{},"14":{},"15":{},"16":{},"17":{},"18":{},"19":{},"20":{},"21":{},"22":{},"23":{},"24":{},"25":{},"26":{},"27":{},"28":{},"29":{},"30":{},"31":{},"32":{},"33":{}},{"0":{"bias":-0.5,"weights":{"0":-4.163259029388428,"1":0.05925590172410011,"2":-0.25,"3":1.8408259153366089,"4":0.4844329059123993,"5":0.5142083168029785,"6":-4.618756294250488,"7":-1.0663325786590576,"8":-1.0173410177230835,"9":-1.077323317527771,"10":-1.081337332725525,"11":-1.1311455965042114,"12":-0.5,"13":-0.9234178066253662,"14":-0.789802074432373,"15":-0.741072952747345,"16":-0.6826277375221252,"17":2,"18":2.5599145889282227,"19":2.611199140548706,"20":-0.541456401348114,"21":-0.9975744485855103,"22":0.4234045445919037,"23":0.5134015679359436,"24":0.7540826797485352,"25":-2.0209035873413086,"26":1,"27":0.9349167346954346,"28":-2.131861925125122,"29":-0.39653363823890686,"30":0.12221129238605499,"31":0.31050994992256165,"32":0.19961167871952057,"33":0.125}},"1":{"bias":-1.5315055847167969,"weights":{"0":-2.9721784591674805,"1":0.5,"2":2.2398910522460938,"3":0.5976582765579224,"4":0.7974086999893188,"5":0.653187096118927,"6":-4.352845191955566,"7":-0.8735987544059753,"8":-0.8587490320205688,"9":-0.937989354133606,"10":-1.194825530052185,"11":-0.10532387346029282,"12":-0.664703905582428,"13":2.744234800338745,"14":2.7974672317504883,"15":2.8610081672668457,"16":2.7467041015625,"17":3.685312509536743,"18":-1.0999250411987305,"19":-1.028605341911316,"20":3.855156898498535,"21":3.7152342796325684,"22":-0.5980647206306458,"23":-0.38882139325141907,"24":-0.5791505575180054,"25":-0.931468665599823,"26":2.115851640701294,"27":2.124579906463623,"28":0.16905342042446136,"29":-0.15978679060935974,"30":-0.5949050188064575,"31":-0.125,"32":-0.5,"33":-0.6201602220535278}},"2":{"bias":0.20219407975673676,"weights":{"0":-5.307373523712158,"1":-0.030836613848805428,"2":0.01838560588657856,"3":-2.291715621948242,"4":-0.6694416999816895,"5":-0.5595477819442749,"6":-2,"7":-0.9428497552871704,"8":-0.9106499552726746,"9":-0.9022952318191528,"10":-4.019396781921387,"11":-0.5191486477851868,"12":1.1065057516098022,"13":-1.8615007400512695,"14":-1.9044283628463745,"15":-1.8325519561767578,"16":-1.7873249053955078,"17":-0.6501776576042175,"18":-2.8581461906433105,"19":-2.8432741165161133,"20":0.8475921750068665,"21":1.0566737651824951,"22":0.5961256623268127,"23":0.6388804316520691,"24":1,"25":-2.86356520652771,"26":-1.0103720426559448,"27":-1.027732253074646,"28":0.5,"29":0.606823742389679,"30":1.2850165367126465,"31":0.3237956166267395,"32":0.8279269933700562,"33":1.2139301300048828}},"3":{"bias":-0.9475201368331909,"weights":{"0":-4.185590744018555,"1":0.38863128423690796,"2":2.572441816329956,"3":-2.19523024559021,"4":-0.3936522305011749,"5":-0.4156281054019928,"6":-4,"7":2.062736988067627,"8":2,"9":2,"10":-1.8244094848632812,"11":2.377453565597534,"12":2.915515422821045,"13":-0.991215169429779,"14":-1,"15":-0.8323923945426941,"16":-0.9391976594924927,"17":-1,"18":-0.5,"19":-0.5894482731819153,"20":-2.3969576358795166,"21":-1.7762682437896729,"22":0.20554155111312866,"23":0.1460287868976593,"24":0.21479639410972595,"25":1.9313541650772095,"26":1.1994951963424683,"27":1.1447346210479736,"28":0.27351149916648865,"29":0.18521513044834137,"30":-0.07626164704561234,"31":0.021635478362441063,"32":-0.10887791961431503,"33":-0.14805907011032104}},"4":{"bias":-1.631341814994812,"weights":{"0":-4.372526168823242,"1":0.5,"2":2,"3":-0.7901342511177063,"4":-0.2216099202632904,"5":-0.2202562540769577,"6":-3.583385944366455,"7":1.0607885122299194,"8":1.064445972442627,"9":1.010602355003357,"10":1.1883341073989868,"11":1.141459345817566,"12":1,"13":1.4225143194198608,"14":1.4058501720428467,"15":1.5136064291000366,"16":1.4940496683120728,"17":0.7316014170646667,"18":-1.5391486883163452,"19":-1.624786376953125,"20":-0.061648473143577576,"21":0.5,"22":0.4407929480075836,"23":0.5,"24":0.8972355127334595,"25":2.605778694152832,"26":-1.2007378339767456,"27":-1.4250072240829468,"28":-1.6305183172225952,"29":-0.7159757018089294,"30":-1.1388016939163208,"31":-0.11364209651947021,"32":-0.5160399675369263,"33":-1.132367491722107}},"5":{"bias":-0.7487917542457581,"weights":{"0":-5.400432586669922,"1":-0.11088718473911285,"2":-1.6043473482131958,"3":-1.209489107131958,"4":-0.48645246028900146,"5":-0.42292025685310364,"6":-4.2979865074157715,"7":-1.3639020919799805,"8":-1.3491096496582031,"9":-1.3729768991470337,"10":-2.0003674030303955,"11":-1.4272527694702148,"12":-0.8609194159507751,"13":0.9393466114997864,"14":0.7990591526031494,"15":0.8732308745384216,"16":1.0185668468475342,"17":1.592084527015686,"18":-1.1700483560562134,"19":-1.1952638626098633,"20":-1.1913939714431763,"21":-1.5452849864959717,"22":0.453635036945343,"23":0.3233506381511688,"24":0.65880286693573,"25":1.118934154510498,"26":1.0403167009353638,"27":1.2557926177978516,"28":-1.1985206604003906,"29":0.884166419506073,"30":1.821999430656433,"31":0.2068493813276291,"32":1,"33":1.75862455368042}},"6":{"bias":-3.393655776977539,"weights":{"0":-1.086746335029602,"1":-0.22182512283325195,"2":0.4550749361515045,"3":-1.4837403297424316,"4":-0.07812531292438507,"5":-0.05112070590257645,"6":-1.7307952642440796,"7":0.08700401335954666,"8":0.23144112527370453,"9":0.014002650044858456,"10":-2.1150407791137695,"11":-0.15668439865112305,"12":0.19499729573726654,"13":-0.06452222168445587,"14":0.11218060553073883,"15":0.11458668112754822,"16":0.0006226064288057387,"17":0.04896851256489754,"18":0.8027650117874146,"19":0.9192681908607483,"20":0.13547492027282715,"21":-0.20487675070762634,"22":-0.00078538031084463,"23":-0.19746752083301544,"24":-0.42860057950019836,"25":-0.02969999425113201,"26":-1.1480743885040283,"27":-1.099665880203247,"28":4,"29":0.5817506909370422,"30":-0.13328099250793457,"31":0.2223035842180252,"32":-0.3801194429397583,"33":-0.20543237030506134}},"7":{"bias":-3.0280537605285645,"weights":{"0":-2.4619531631469727,"1":-0.13945642113685608,"2":-0.2774861752986908,"3":5.934474468231201,"4":0.6697240471839905,"5":0.6220273375511169,"6":-1.4612725973129272,"7":1.1888291835784912,"8":1.1433004140853882,"9":1,"10":0.28305310010910034,"11":1.1030199527740479,"12":0.24228166043758392,"13":2.4283902645111084,"14":2.3647007942199707,"15":2.232538938522339,"16":2.444572925567627,"17":0.8536194562911987,"18":-1.3130484819412231,"19":-1.1164910793304443,"20":0.4999999701976776,"21":0.021911505609750748,"22":-0.45048952102661133,"23":-0.21212154626846313,"24":-0.8332547545433044,"25":-0.4379008412361145,"26":1.8908346891403198,"27":1.9680849313735962,"28":4,"29":0.6041258573532104,"30":-1.2317075729370117,"31":-0.32816216349601746,"32":-1.0622106790542603,"33":-1.207457423210144}},"8":{"bias":-3.0791661739349365,"weights":{"0":-3.836176872253418,"1":-0.36697065830230713,"2":-2.5441243648529053,"3":5.675660610198975,"4":0.16472047567367554,"5":0.02337455563247204,"6":1.815651297569275,"7":0.7294443249702454,"8":0.5944037437438965,"9":0.6156703233718872,"10":-1.0452008247375488,"11":1,"12":-0.15132993459701538,"13":1.5690765380859375,"14":1.6564995050430298,"15":1.5926589965820312,"16":1.6130602359771729,"17":0.8951901793479919,"18":0.32089775800704956,"19":0.2488768845796585,"20":-1.7169148921966553,"21":-1.8586416244506836,"22":-0.1963866651058197,"23":-0.16522039473056793,"24":-0.2479686439037323,"25":0.5131374597549438,"26":-0.3829837143421173,"27":-0.4124737083911896,"28":2.7832791805267334,"29":0.81797856092453,"30":1.7526929378509521,"31":0.20258066058158875,"32":0.9906640648841858,"33":1.7962796688079834}},"9":{"bias":0.1481180489063263,"weights":{"0":-5.26151704788208,"1":-0.125,"2":-2.5681753158569336,"3":4.408358573913574,"4":0.3749673664569855,"5":0.4290170967578888,"6":-4.6284990310668945,"7":-0.008379722945392132,"8":0.007466068025678396,"9":0.005082194227725267,"10":-2.5282223224639893,"11":0.04865625500679016,"12":2.2125582695007324,"13":-2.6806294918060303,"14":-2.6541364192962646,"15":-2.6114706993103027,"16":-2.6367807388305664,"17":-1.1803358793258667,"18":-2.1582512855529785,"19":-2.1867592334747314,"20":1.2405962944030762,"21":1.323875904083252,"22":0.7801433205604553,"23":0.849896252155304,"24":1.2549139261245728,"25":0.44075408577919006,"26":-1.665533185005188,"27":-1.643140196800232,"28":1.1890007257461548,"29":-0.5,"30":-1.7386542558670044,"31":-0.039006657898426056,"32":-0.9601194262504578,"33":-1.6391329765319824}},"10":{"bias":-1.5801146030426025,"weights":{"0":-4.824722766876221,"1":1.0435943603515625,"2":4,"3":0.2650757133960724,"4":0.031820133328437805,"5":0.04873590171337128,"6":-5.1660284996032715,"7":-1.6384340524673462,"8":-1.5676802396774292,"9":-1.5938913822174072,"10":-0.8473861217498779,"11":-0.7992313504219055,"12":-1.3104649782180786,"13":2,"14":2,"15":2,"16":2,"17":3.0869851112365723,"18":-1.152888536453247,"19":-1.1323175430297852,"20":2,"21":0.7818458676338196,"22":0.17908887565135956,"23":0.2933706045150757,"24":0.25,"25":-0.6441676616668701,"26":0.01855452172458172,"27":-0.08410165458917618,"28":2.411189079284668,"29":0.9321063756942749,"30":1.195582389831543,"31":0.0716048926115036,"32":0.5,"33":1.046648621559143}},"11":{"bias":-1.4349780082702637,"weights":{"0":-5.576509952545166,"1":-0.33508357405662537,"2":-1.98549222946167,"3":-1.1906849145889282,"4":-0.815527081489563,"5":-0.6913814544677734,"6":-2.1820783615112305,"7":0.19159041345119476,"8":0.2704346477985382,"9":0.1377139687538147,"10":1.5956906080245972,"11":0.5629356503486633,"12":-1.7181737422943115,"13":0.2648712396621704,"14":0.3354562819004059,"15":0.15477877855300903,"16":0.13777248561382294,"17":-1.3358896970748901,"18":0.6634345054626465,"19":0.4682289659976959,"20":-1.3449265956878662,"21":-1.4179980754852295,"22":0.6347184777259827,"23":0.5243674516677856,"24":0.884074866771698,"25":-0.17201252281665802,"26":-0.17143355309963226,"27":-0.552922248840332,"28":-0.4693276286125183,"29":-0.8043411374092102,"30":-2.2585670948028564,"31":-0.5671923756599426,"32":-1.3830664157867432,"33":-2.2393248081207275}},"12":{"bias":0.030422961339354515,"weights":{"0":-5.099484920501709,"1":0.1300446093082428,"2":-0.4291641116142273,"3":-1.4537817239761353,"4":-0.3255423605442047,"5":-0.4975268244743347,"6":0.8007324934005737,"7":-0.639372706413269,"8":-0.7884126305580139,"9":-0.6538186073303223,"10":-5.831848621368408,"11":-0.8671571016311646,"12":0.4917708933353424,"13":-1.094274640083313,"14":-0.9199532270431519,"15":-1.1519325971603394,"16":-1,"17":-0.4228292405605316,"18":0.17993035912513733,"19":0.3611551821231842,"20":0.5116720199584961,"21":-0.04439062625169754,"22":0.3146478533744812,"23":0.3313024044036865,"24":0.5761705636978149,"25":1.289402723312378,"26":0.10413952171802521,"27":0.24621377885341644,"28":-2.456105947494507,"29":-0.8592756986618042,"30":-1.068843960762024,"31":-0.28410688042640686,"32":-0.33628395199775696,"33":-1.1528791189193726}},"13":{"bias":-1.523573398590088,"weights":{"0":-4.131930828094482,"1":-0.044340867549180984,"2":-1.1749542951583862,"3":-0.7720685601234436,"4":-0.14472416043281555,"5":0.0625,"6":-2.514293670654297,"7":1.720347285270691,"8":1.6183291673660278,"9":1.7413140535354614,"10":-0.23209470510482788,"11":1.6305370330810547,"12":1.0689536333084106,"13":0.30024421215057373,"14":0.3719274401664734,"15":0.3766178488731384,"16":0.28491026163101196,"17":-0.17177776992321014,"18":3.0309133529663086,"19":2.9556312561035156,"20":3.509791135787964,"21":3.1532936096191406,"22":-0.9317930340766907,"23":-0.9056479930877686,"24":-1.5838520526885986,"25":2.276853322982788,"26":2,"27":1.9954403638839722,"28":1.7927911281585693,"29":1.6243934631347656,"30":2.9432246685028076,"31":0.5403907895088196,"32":1.4675025939941406,"33":2.9683971405029297}},"14":{"bias":-3.011500120162964,"weights":{"0":-3.360508441925049,"1":0.16209891438484192,"2":1.448169231414795,"3":2.4878084659576416,"4":0.5023102164268494,"5":0.45738375186920166,"6":3.253333330154419,"7":2.7237279415130615,"8":2.7421743869781494,"9":2.720860004425049,"10":-3.715635299682617,"11":2.7772884368896484,"12":2.4755828380584717,"13":-0.8683825135231018,"14":-0.6461707949638367,"15":-0.7651816010475159,"16":-0.6160817742347717,"17":-1.098479986190796,"18":-1.150871753692627,"19":-1.0891695022583008,"20":-1.3561768531799316,"21":-0.26355063915252686,"22":-0.5035447478294373,"23":-0.6500141620635986,"24":-0.8952118754386902,"25":-1.4726033210754395,"26":2,"27":2,"28":-0.5809370279312134,"29":1.3368990421295166,"30":2.582144021987915,"31":0.4212580919265747,"32":1.620226502418518,"33":2.4898841381073}},"15":{"bias":-2.8327877521514893,"weights":{"0":-2.2511043548583984,"1":-0.16474105417728424,"2":-1.048799753189087,"3":-0.17672331631183624,"4":-0.15268605947494507,"5":-0.24113036692142487,"6":-1.4677109718322754,"7":-0.5222768783569336,"8":-0.5745953917503357,"9":-0.6857280731201172,"10":-2.005767822265625,"11":-0.4945716857910156,"12":-0.4235663414001465,"13":0.5016337037086487,"14":0.6276299953460693,"15":0.5948842763900757,"16":0.8039909601211548,"17":1,"18":0.2777879536151886,"19":0.2933092713356018,"20":0.35798075795173645,"21":-0.4064900875091553,"22":0.492014616727829,"23":0.8369417190551758,"24":0.9459237456321716,"25":-1.0836021900177002,"26":-0.508064866065979,"27":-0.27511948347091675,"28":-0.7882941365242004,"29":-0.8124541640281677,"30":-1.8027783632278442,"31":-0.5670739412307739,"32":-1.1454321146011353,"33":-1.9623801708221436}},"16":{"bias":-2.411729335784912,"weights":{"0":-4.01068639755249,"1":1,"2":4.021731853485107,"3":-1.272542953491211,"4":-0.29560062289237976,"5":-0.29933395981788635,"6":3.7970173358917236,"7":-0.9053699970245361,"8":-0.7729629874229431,"9":-0.8015474677085876,"10":-6.770636081695557,"11":0.17733491957187653,"12":-0.18483002483844757,"13":-0.014499204233288765,"14":-0.1771119236946106,"15":-0.0784028172492981,"16":-0.06721746921539307,"17":0.37720924615859985,"18":0.8064002394676208,"19":0.9149491786956787,"20":1.795780062675476,"21":1.5244526863098145,"22":0.01203854288905859,"23":0.07696743309497833,"24":-0.14699378609657288,"25":0.21542870998382568,"26":-0.07980897277593613,"27":-0.28222227096557617,"28":-1.12880539894104,"29":-0.273685097694397,"30":0.07722277194261551,"31":-0.09435596317052841,"32":-0.010279719717800617,"33":0.09881873428821564}},"17":{"bias":-2.998765230178833,"weights":{"0":-1.0959880352020264,"1":0.5,"2":2.9656386375427246,"3":0.3466513454914093,"4":0.707136869430542,"5":0.7249453067779541,"6":-2.4704511165618896,"7":-0.36604124307632446,"8":-0.41189342737197876,"9":-0.47397759556770325,"10":-2.3294692039489746,"11":-0.8299938440322876,"12":0.5057348608970642,"13":-0.9040303230285645,"14":-0.8593855500221252,"15":-0.87310391664505,"16":-0.7119983434677124,"17":0.2696598172187805,"18":3.014145612716675,"19":2.969776153564453,"20":-0.6903595328330994,"21":-1.0309556722640991,"22":-0.22148844599723816,"23":-0.2575545012950897,"24":-0.41728082299232483,"25":3.2563889026641846,"26":-0.9128900766372681,"27":-1.0411369800567627,"28":3.0898897647857666,"29":0.6359586715698242,"30":1.2800877094268799,"31":0.25,"32":0.5263912677764893,"33":1}},"18":{"bias":-1.0238925218582153,"weights":{"0":-4.036296367645264,"1":0.42593270540237427,"2":-0.5105339884757996,"3":6.307395935058594,"4":0.4233000576496124,"5":0.34819260239601135,"6":-4.539630889892578,"7":2.7564103603363037,"8":2.809081554412842,"9":2.688735246658325,"10":-1.5518320798873901,"11":2.8152198791503906,"12":3.54902982711792,"13":-1.4325788021087646,"14":-1.3519806861877441,"15":-1.247948408126831,"16":-1.3521846532821655,"17":-1.4026883840560913,"18":2.2643210887908936,"19":2.2891781330108643,"20":2.3772687911987305,"21":2.5169639587402344,"22":-0.4918348789215088,"23":-0.5,"24":-0.7634726762771606,"25":0.46473801136016846,"26":-0.44169291853904724,"27":-0.36424124240875244,"28":-1.4402931928634644,"29":1,"30":2.075147867202759,"31":0.3597487509250641,"32":1.4082131385803223,"33":2.089729070663452}},"19":{"bias":-2.460019826889038,"weights":{"0":-2.4714975357055664,"1":-0.02073080465197563,"2":0.5,"3":1,"4":0.5,"5":0.4325235188007355,"6":-2.2690773010253906,"7":0.007307283114641905,"8":0.1929430216550827,"9":-0.12734907865524292,"10":-1.7627407312393188,"11":0.3345872163772583,"12":-0.4306204319000244,"13":2.1730880737304688,"14":2.202258348464966,"15":2,"16":2.0764591693878174,"17":2.0636913776397705,"18":0.32473596930503845,"19":0.11604972183704376,"20":0.9820411801338196,"21":0.37503111362457275,"22":-0.3888755142688751,"23":-0.5193713903427124,"24":-0.8961692452430725,"25":-1.3651361465454102,"26":-1.1556453704833984,"27":-1.0273696184158325,"28":-1.482094407081604,"29":1.9157480001449585,"30":4,"31":0.4906403720378876,"32":2.2169766426086426,"33":4}},"20":{"bias":-0.4999997913837433,"weights":{"0":-5.655512809753418,"1":0.29775428771972656,"2":0.09791930764913559,"3":-0.9440737366676331,"4":-0.2542227804660797,"5":-0.4133906662464142,"6":-2.690707206726074,"7":-0.7800726890563965,"8":-0.5742917060852051,"9":-0.7480543255805969,"10":-0.5257442593574524,"11":-0.8629589676856995,"12":-1,"13":0.010620671324431896,"14":0.13056305050849915,"15":0.16160498559474945,"16":-0.017594927921891212,"17":0.38411498069763184,"18":2.0389747619628906,"19":2.123722791671753,"20":-0.6783843636512756,"21":-1.5652002096176147,"22":-0.07396484911441803,"23":0.0439123772084713,"24":-0.04942347854375839,"25":1.946663498878479,"26":1.213361144065857,"27":1.399685025215149,"28":1.5958164930343628,"29":0.2028283327817917,"30":0.26946523785591125,"31":0.07148285955190659,"32":0.06076867878437042,"33":0.5346043705940247}},"21":{"bias":-3.368312120437622,"weights":{"0":-1.1790436506271362,"1":-0.2871868312358856,"2":-0.026010563597083092,"3":4,"4":0.794041097164154,"5":0.9089533090591431,"6":-2.9759018421173096,"7":-0.17628918588161469,"8":0.2099856585264206,"9":0.22062890231609344,"10":-1,"11":0.7702374458312988,"12":0.9367055296897888,"13":-0.2574504017829895,"14":-0.2572508156299591,"15":-0.4688861072063446,"16":-0.35882988572120667,"17":0.03125,"18":-0.7788662314414978,"19":-0.8632048964500427,"20":2.096482038497925,"21":1.8875877857208252,"22":-0.057783450931310654,"23":-0.05866929888725281,"24":-0.19467352330684662,"25":4.1717400550842285,"26":2.0783140659332275,"27":2.169464349746704,"28":-0.4005497395992279,"29":-0.47751355171203613,"30":-0.9747458696365356,"31":-0.16080692410469055,"32":-0.4639563262462616,"33":-0.903654932975769}},"22":{"bias":0.4196268618106842,"weights":{"0":-5.43080472946167,"1":0.013570490293204784,"2":-1.6288087368011475,"3":5.328718662261963,"4":0.34998220205307007,"5":0.3816351294517517,"6":-1.9997379779815674,"7":-2.45469331741333,"8":-2.5035252571105957,"9":-2.4822285175323486,"10":-4.261037349700928,"11":-2.498361587524414,"12":-0.9020430445671082,"13":-0.17280283570289612,"14":-0.24270401895046234,"15":-0.16706253588199615,"16":-0.2517377734184265,"17":2,"18":-0.5133009552955627,"19":-0.6188077330589294,"20":-1.1479517221450806,"21":-2,"22":0.9261255860328674,"23":0.8572716116905212,"24":1.516250491142273,"25":-2.6873466968536377,"26":0.9052102565765381,"27":1,"28":-2.5416972637176514,"29":-0.9831952452659607,"30":-1.8042248487472534,"31":-0.15442171692848206,"32":-0.7414036393165588,"33":-1.874015212059021}},"23":{"bias":-3.375282049179077,"weights":{"0":-0.5559748411178589,"1":0.4071956276893616,"2":2.7873077392578125,"3":-0.8335291743278503,"4":0.2733426094055176,"5":0.23953324556350708,"6":-1.7272958755493164,"7":-0.7535837292671204,"8":-0.8481528162956238,"9":-0.8365707397460938,"10":-2.911566972732544,"11":-0.9251545667648315,"12":0.39392155408859253,"13":-0.9570566415786743,"14":-0.9013773202896118,"15":-1.0709877014160156,"16":-1.0093021392822266,"17":-0.11133193969726562,"18":0.906765878200531,"19":0.9273759126663208,"20":-0.513031005859375,"21":-0.7372570633888245,"22":0.04349374771118164,"23":0.2321767508983612,"24":0.2149938941001892,"25":-0.8840318322181702,"26":-0.36833956837654114,"27":-0.0776180699467659,"28":-0.8148239850997925,"29":0.22657370567321777,"30":0.307690292596817,"31":0.125,"32":0.44699525833129883,"33":0.4262818992137909}},"24":{"bias":-3.1776909828186035,"weights":{"0":-4.163390159606934,"1":0.45940160751342773,"2":2.886878252029419,"3":-1.2096004486083984,"4":-0.35406386852264404,"5":-0.23496384918689728,"6":-1.678174376487732,"7":0.8827636241912842,"8":0.9059554934501648,"9":1.1631122827529907,"10":2.3327178955078125,"11":1.9430031776428223,"12":-0.41468608379364014,"13":2.3944191932678223,"14":2.3521981239318848,"15":2.4594526290893555,"16":2.4402146339416504,"17":-0.12732018530368805,"18":-1.0308496952056885,"19":-1,"20":-1.5666650533676147,"21":-0.9706088304519653,"22":-0.2670537233352661,"23":-0.07495724409818649,"24":-0.2004096657037735,"25":-1.8249911069869995,"26":-1.084341287612915,"27":-1.2045972347259521,"28":0.22626426815986633,"29":-0.125,"30":-0.5522518754005432,"31":-0.1439749300479889,"32":-0.35807332396507263,"33":-0.5108104348182678}},"25":{"bias":-1.679464340209961,"weights":{"0":-3.353182792663574,"1":0.5466312766075134,"2":1,"3":3.7164812088012695,"4":0.3103007376194,"5":0.42061471939086914,"6":3.0589137077331543,"7":0.40320509672164917,"8":0.3906962275505066,"9":0.44680628180503845,"10":-6.793510913848877,"11":0.6637270450592041,"12":0.2383272796869278,"13":0.000038981681427685544,"14":0.23589643836021423,"15":0.059341222047805786,"16":0.29094672203063965,"17":-0.08200811594724655,"18":3.140212059020996,"19":3.0845744609832764,"20":3.224583148956299,"21":2.767674684524536,"22":-0.3866918981075287,"23":-0.2725234031677246,"24":-0.42480719089508057,"25":-0.9440997838973999,"26":-0.11463551223278046,"27":0.03628161922097206,"28":3.4411263465881348,"29":0.037912335246801376,"30":-1.6572844982147217,"31":-0.5680306553840637,"32":-1.262721061706543,"33":-1.597194790840149}},"26":{"bias":-3.068465232849121,"weights":{"0":-4.063296794891357,"1":-0.09396110475063324,"2":-1.116767168045044,"3":0.10930977761745453,"4":-0.47549962997436523,"5":-0.4057946801185608,"6":-1.000015139579773,"7":2.354644298553467,"8":2.2917253971099854,"9":2.377488136291504,"10":1.9260575771331787,"11":1.4132109880447388,"12":-0.15138651430606842,"13":0.7150927782058716,"14":0.6996645331382751,"15":0.8424482345581055,"16":1,"17":-1.001156210899353,"18":0.5222196578979492,"19":0.7270628213882446,"20":1.1015572547912598,"21":2,"22":-0.04355777055025101,"23":-0.38265106081962585,"24":-0.39255642890930176,"25":-1.009710669517517,"26":-1.0956422090530396,"27":-0.8848035335540771,"28":-1.175152063369751,"29":-0.5439881086349487,"30":-0.42583829164505005,"31":0.027822919189929962,"32":-0.43139055371284485,"33":-0.7617537379264832}},"27":{"bias":-2.515608310699463,"weights":{"0":-2.8832478523254395,"1":0.4432165324687958,"2":1.5660077333450317,"3":1.0551255941390991,"4":0.4847467839717865,"5":0.5,"6":-1.9684090614318848,"7":0.21459592878818512,"8":0.3840503394603729,"9":0.49369922280311584,"10":-1.0558485984802246,"11":0.6412264108657837,"12":-0.1157405897974968,"13":2.159757614135742,"14":1.9576748609542847,"15":2.121633291244507,"16":2.16485857963562,"17":1.1779292821884155,"18":0.25,"19":0.25,"20":3.4636037349700928,"21":2.413647174835205,"22":-0.5275623202323914,"23":-0.636377215385437,"24":-1.0662661790847778,"25":2.842097759246826,"26":-0.9934377670288086,"27":-0.8398438692092896,"28":-0.9085015654563904,"29":0.10600791126489639,"30":0.45239725708961487,"31":-0.0025879517197608948,"32":0.1524495780467987,"33":0.24518439173698425}},"28":{"bias":-0.42572179436683655,"weights":{"0":-3.9066243171691895,"1":0.2932650148868561,"2":1.7971606254577637,"3":0.25667667388916016,"4":0.258798211812973,"5":0.37736231088638306,"6":-5.454701900482178,"7":1.6903630495071411,"8":1.6797699928283691,"9":1.7984296083450317,"10":-1.3443539142608643,"11":1.7910155057907104,"12":3.646519184112549,"13":-1.9857243299484253,"14":-1.9004052877426147,"15":-1.9097460508346558,"16":-1.8073676824569702,"17":-1.1808290481567383,"18":1,"19":1,"20":-1.8303945064544678,"21":-1.4764724969863892,"22":0.5153692364692688,"23":0.4856429696083069,"24":0.8586927652359009,"25":-1.9864038228988647,"26":-0.217377707362175,"27":-0.15817101299762726,"28":1,"29":0.3333437740802765,"30":-0.5586632490158081,"31":0.38024401664733887,"32":-0.4265594184398651,"33":-0.7170801162719727}},"29":{"bias":-0.6526243686676025,"weights":{"0":-4.29917573928833,"1":-0.28938719630241394,"2":-1.4514316320419312,"3":6.430988788604736,"4":0.4554850459098816,"5":0.48079395294189453,"6":-4.1594719886779785,"7":-1.3650659322738647,"8":-1.392227053642273,"9":-1.3092244863510132,"10":-1.762629747390747,"11":-1.3265397548675537,"12":-0.755043089389801,"13":1.3007961511611938,"14":1.4690535068511963,"15":1.4910169839859009,"16":1.4577502012252808,"17":3.5399169921875,"18":-1.1036008596420288,"19":-1.0646321773529053,"20":-0.18481792509555817,"21":-0.9509880542755127,"22":0.3296396732330322,"23":0.12373961508274078,"24":0.2581693232059479,"25":2.585397481918335,"26":-0.18049122393131256,"27":0.2516266107559204,"28":-0.940345823764801,"29":0.8963203430175781,"30":1.9646979570388794,"31":0.3077431619167328,"32":1.0720298290252686,"33":1.9555448293685913}}},{"0":{"bias":-0.6973820328712463,"weights":{"0":1.1978809833526611,"1":3.3986763954162598,"2":-0.5351698398590088,"3":1.85012686252594,"4":-2.5595991611480713,"5":-0.8213616013526917,"6":3.985452651977539,"7":-2.2025935649871826,"8":-10.421956062316895,"9":-2.0012292861938477,"10":-5.151980876922607,"11":-16,"12":-1.9228345155715942,"13":-3.099817991256714,"14":-3.982161521911621,"15":1.0114057064056396,"16":-4.159847259521484,"17":5.472893238067627,"18":-2.0550124645233154,"19":1.6180471181869507,"20":-4.097585678100586,"21":2.0728378295898438,"22":-1.671839714050293,"23":6.665693759918213,"24":-8.000021934509277,"25":-1.9376599788665771,"26":-12.681297302246094,"27":-0.6396953463554382,"28":4.175020694732666,"29":-1.3025546073913574}},"1":{"bias":0.18278831243515015,"weights":{"0":1.3120168447494507,"1":3.6066901683807373,"2":-0.28421515226364136,"3":2.5076723098754883,"4":-1.2755285501480103,"5":-1,"6":4.04182767868042,"7":-2.001054286956787,"8":-14.253348350524902,"9":-2.1094858646392822,"10":1.8030593395233154,"11":-17.84904670715332,"12":-1.686104655265808,"13":-3.615729808807373,"14":-4.10620641708374,"15":1.0262689590454102,"16":2.0001561641693115,"17":5.531761169433594,"18":-1.9993947744369507,"19":1.654239535331726,"20":-3.9720683097839355,"21":2.004176616668701,"22":-1.6393840312957764,"23":6.662634372711182,"24":-8.003754615783691,"25":-1.8021270036697388,"26":-14.283296585083008,"27":-0.42184704542160034,"28":4.369570255279541,"29":-1.2735182046890259}},"2":{"bias":-6.953488826751709,"weights":{"0":-0.1374816745519638,"1":-1.9054635763168335,"2":-3.6071977615356445,"3":-3.564922571182251,"4":-2,"5":-2.129002094268799,"6":-2.537099838256836,"7":2.9027249813079834,"8":2.1457648277282715,"9":3.7918195724487305,"10":-1.449288010597229,"11":-1.9593226909637451,"12":-2.363755702972412,"13":-2.216674327850342,"14":-0.08622223138809204,"15":-1.117785930633545,"16":-2.3334715366363525,"17":-1.3832191228866577,"18":4.720798015594482,"19":-0.7874608039855957,"20":-2.082717180252075,"21":3.096254825592041,"22":4,"23":-1.8159562349319458,"24":-2.808976173400879,"25":0.1249999850988388,"26":-0.6185522079467773,"27":-0.4635219871997833,"28":-1,"29":4.424646854400635}},"3":{"bias":-6.863087177276611,"weights":{"0":-2.8583498001098633,"1":-2.341991662979126,"2":1.6575605869293213,"3":-0.9880603551864624,"4":-3.4813060760498047,"5":-1.0243622064590454,"6":-0.6440152525901794,"7":-1.9656193256378174,"8":4.197312355041504,"9":-1.0265049934387207,"10":-2.387749671936035,"11":-2.508817195892334,"12":4,"13":-2.4078872203826904,"14":1.6454615592956543,"15":-0.16082939505577087,"16":6.673310279846191,"17":-1.769159197807312,"18":-2.539809226989746,"19":-0.9035584330558777,"20":-1.9409922361373901,"21":-2.449794054031372,"22":2.563197374343872,"23":-0.9003093242645264,"24":-4.284085750579834,"25":5.1842756271362305,"26":-2.301223039627075,"27":-1.2059414386749268,"28":-3.098013401031494,"29":-1.0474555492401123}},"4":{"bias":-6.085299968719482,"weights":{"0":-3.57785701751709,"1":-5.918879985809326,"2":-1.3583661317825317,"3":2.507051944732666,"4":3.156282424926758,"5":-2.3764431476593018,"6":-2.291433095932007,"7":1.675543189048767,"8":13.43743896484375,"9":-0.2730286717414856,"10":-4.664764404296875,"11":15.995125770568848,"12":-1.9412264823913574,"13":-0.23183882236480713,"14":3.956393003463745,"15":-1.1557320356369019,"16":-2.6947057247161865,"17":-5.267423629760742,"18":3.585737705230713,"19":-1.9043562412261963,"20":2.537546396255493,"21":-3.196155548095703,"22":-3.979276657104492,"23":-5.31106424331665,"24":14.120157241821289,"25":-3.61177921295166,"26":16.797216415405273,"27":-0.6603817343711853,"28":-0.6561475396156311,"29":-4.092390537261963}},"5":{"bias":-6.055086135864258,"weights":{"0":-2.8232390880584717,"1":1.0186680555343628,"2":-1.9984506368637085,"3":-2.5393543243408203,"4":3.155015468597412,"5":1.8445278406143188,"6":-2.116156816482544,"7":1.7410565614700317,"8":13.447521209716797,"9":-4.616971492767334,"10":3.7029826641082764,"11":16.00004768371582,"12":-2,"13":-0.30278727412223816,"14":3.9543542861938477,"15":-0.7923851609230042,"16":-2.8867015838623047,"17":-5.155195236206055,"18":-4.745258331298828,"19":-0.24993637204170227,"20":2.541548252105713,"21":-3.2099084854125977,"22":-1.8217612504959106,"23":-5.270809173583984,"24":14.106849670410156,"25":-3.758484363555908,"26":16.800609588623047,"27":-0.12345272302627563,"28":-6.890984058380127,"29":0.5086190104484558}},"6":{"bias":-7.655389785766602,"weights":{"0":4,"1":-3.033978223800659,"2":-4.088508605957031,"3":-1.2074410915374756,"4":-3.6175310611724854,"5":-1,"6":-0.461333692073822,"7":-3.515517234802246,"8":-1.2548587322235107,"9":-2.211378812789917,"10":-1.0426039695739746,"11":1.4075394868850708,"12":1.3117278814315796,"13":3.0930514335632324,"14":-4.699685573577881,"15":0.0015983424382284284,"16":-0.07681868970394135,"17":2,"18":2.489551067352295,"19":-1.487916350364685,"20":3.7031776905059814,"21":-2.759120225906372,"22":1.174877405166626,"23":0.01946413144469261,"24":-2.3194947242736816,"25":2.855645179748535,"26":-0.5,"27":-1.5922350883483887,"28":2,"29":-1.7924443483352661}},"7":{"bias":-7.536109447479248,"weights":{"0":-1.7346378564834595,"1":4,"2":2.632047653198242,"3":-3.476803779602051,"4":-0.38333389163017273,"5":-1.8705496788024902,"6":-1.2275969982147217,"7":-1.5129320621490479,"8":-4.497699737548828,"9":3.3709137439727783,"10":2.1316075325012207,"11":-1.740738034248352,"12":0.38342055678367615,"13":3.1463935375213623,"14":-3.0559425354003906,"15":-0.9343948364257812,"16":1,"17":-3.2610960006713867,"18":2.746044874191284,"19":-1,"20":-2.300288438796997,"21":1,"22":-1.785445213317871,"23":-2.4428019523620605,"24":-2.1211419105529785,"25":2.3653199672698975,"26":1,"27":1.9580532312393188,"28":-2.9073259830474854,"29":-1.275641679763794}},"8":{"bias":-6.939672470092773,"weights":{"0":3.2894394397735596,"1":-3.8462166786193848,"2":7.590489864349365,"3":-0.6835161447525024,"4":-0.7167291045188904,"5":4,"6":-1.859076738357544,"7":-4.365059852600098,"8":-2.443464517593384,"9":8,"10":-0.17816728353500366,"11":4,"12":4.924012660980225,"13":-6.302590847015381,"14":-5.3026604652404785,"15":1.093003273010254,"16":-1,"17":-3.3594343662261963,"18":-3.252263069152832,"19":-4.122075080871582,"20":-0.49663448333740234,"21":-2.550326347351074,"22":8,"23":-0.9657824635505676,"24":-1.7290841341018677,"25":-3.0465986728668213,"26":-2.092906951904297,"27":-4.666958808898926,"28":0.9222795367240906,"29":-0.5}},"9":{"bias":-6.9133195877075195,"weights":{"0":-2.9992592334747314,"1":-2.4002108573913574,"2":-2.389866590499878,"3":1.90080726146698,"4":2.110983371734619,"5":2,"6":-1.0457042455673218,"7":-2.3064565658569336,"8":-0.25,"9":2,"10":-0.47980448603630066,"11":-0.24328595399856567,"12":2.234358072280884,"13":2,"14":-3.598398447036743,"15":-1.8613061904907227,"16":0.4032173156738281,"17":2,"18":-1,"19":-2.8384575843811035,"20":2.2629222869873047,"21":3.173013210296631,"22":-2.904787540435791,"23":-2.375087022781372,"24":-2.701632261276245,"25":-1.9101518392562866,"26":-1.4847928285598755,"27":1.575984239578247,"28":-3.0678040981292725,"29":2.185457229614258}},"10":{"bias":-6.899285793304443,"weights":{"0":0.21600916981697083,"1":2.9542529582977295,"2":-1.0119367837905884,"3":2,"4":-3.486783266067505,"5":2.1505110263824463,"6":-3.0668869018554688,"7":1.9027650356292725,"8":-1.4660195112228394,"9":-2.850637197494507,"10":-0.5201135873794556,"11":-1.0651389360427856,"12":-0.49999991059303284,"13":2.6708638668060303,"14":1.6778724193572998,"15":-1.1767774820327759,"16":-0.660849392414093,"17":-3.235614538192749,"18":-1.8657466173171997,"19":-3.271820545196533,"20":2,"21":2.29198956489563,"22":2,"23":-1.3684124946594238,"24":-3.0246400833129883,"25":-1.1015363931655884,"26":-2.2776663303375244,"27":-2.9032208919525146,"28":-0.4999999403953552,"29":-1.1907353401184082}},"11":{"bias":-6.952083110809326,"weights":{"0":-3.168790102005005,"1":-1.5445057153701782,"2":2,"3":-0.2223101705312729,"4":-2.7737972736358643,"5":-0.6655254364013672,"6":2.8861777782440186,"7":2.8551182746887207,"8":1.6684623956680298,"9":2.4244961738586426,"10":3.589897394180298,"11":-0.5,"12":-2.8113932609558105,"13":0.7545815706253052,"14":-2.6123318672180176,"15":-1.6107655763626099,"16":-1.5361509323120117,"17":1.7161859273910522,"18":-2.098236560821533,"19":-2.6854918003082275,"20":2,"21":-1.7524279356002808,"22":-2.1977524757385254,"23":-2.16402006149292,"24":-0.6574890613555908,"25":3.1466805934906006,"26":-2.072547674179077,"27":-2.4065585136413574,"28":0.9573224782943726,"29":-1.0413384437561035}},"12":{"bias":-6.883657455444336,"weights":{"0":-0.19108203053474426,"1":-2.354490280151367,"2":3.4429337978363037,"3":-0.8757146000862122,"4":-2.856260061264038,"5":3.4401211738586426,"6":-1.5858591794967651,"7":-3.9945573806762695,"8":1.6454589366912842,"9":-1.126054286956787,"10":2.2464425563812256,"11":-3.532684326171875,"12":-1.1102579832077026,"13":3.292343854904175,"14":1.3523658514022827,"15":-4.296548366546631,"16":-0.5,"17":-0.7133934497833252,"18":2.529897451400757,"19":4.470321178436279,"20":-0.24999988079071045,"21":-3.209777593612671,"22":-1.800437331199646,"23":-0.7323192358016968,"24":-1.5891658067703247,"25":-4.465545177459717,"26":-1.5604828596115112,"27":-1.4259861707687378,"28":-1.7023899555206299,"29":2.3546953201293945}}}],"outputLookup":false,"inputLookup":false,"activation":"sigmoid","trainOpts":{"iterations":10000000,"errorThresh":0.005,"log":false,"logPeriod":10,"learningRate":0.3,"momentum":0.1,"callbackPeriod":100000,"beta1":0.9,"beta2":0.999,"epsilon":1e-8}}