{"sizes":[35,30,14],"layers":[{"0":{},"1":{},"2":{},"3":{},"4":{},"5":{},"6":{},"7":{},"8":{},"9":{},"10":{},"11":{},"12":{},"13":{},"14":{},"15":{},"16":{},"17":{},"18":{},"19":{},"20":{},"21":{},"22":{},"23":{},"24":{},"25":{},"26":{},"27":{},"28":{},"29":{},"30":{},"31":{},"32":{},"33":{},"34":{}},{"0":{"bias":-2.2910549640655518,"weights":{"0":-0.9404755234718323,"1":0.1393028199672699,"2":2.4230403900146484,"3":-1.822191834449768,"4":0.04591383785009384,"5":-0.21189521253108978,"6":-3.0311992168426514,"7":-1.2885326147079468,"8":-1.3081114292144775,"9":-1.3229044675827026,"10":-0.6246612071990967,"11":-0.728304922580719,"12":-1.015310287475586,"13":1.931887149810791,"14":2.018252372741699,"15":2.0417187213897705,"16":2.027325391769409,"17":2.53637433052063,"18":-1.6976215839385986,"19":-1.6129671335220337,"20":2.4557573795318604,"21":1.3636538982391357,"22":-0.002539342036470771,"23":-0.16934184730052948,"24":-0.13121291995048523,"25":-0.7398061752319336,"26":-0.06272121518850327,"27":-0.27742263674736023,"28":3.527717351913452,"29":1.3891710042953491,"30":1.7412458658218384,"31":0.27264833450317383,"32":0.789559006690979,"33":1.7167307138442993,"34":0.18809007108211517}},"1":{"bias":-1.6316803693771362,"weights":{"0":-3.1368050575256348,"1":0.6712064146995544,"2":2.2651965618133545,"3":-1.3967565298080444,"4":-0.4085608720779419,"5":-0.5772321820259094,"6":-1.2765260934829712,"7":2.2204806804656982,"8":2.0870516300201416,"9":2.138397693634033,"10":-0.8334131240844727,"11":2.1429085731506348,"12":0.994046151638031,"13":1.168237328529358,"14":0.9691019654273987,"15":1.2621628046035767,"16":1.124445915222168,"17":-0.27842485904693604,"18":1.9736979007720947,"19":1.884531021118164,"20":-1.2281582355499268,"21":-0.04186492785811424,"22":-0.7637314796447754,"23":-0.8896300792694092,"24":-1.4684501886367798,"25":-1.1411468982696533,"26":-0.7453463077545166,"27":-0.6342426538467407,"28":0.07061664760112762,"29":1.1628270149230957,"30":2.01570987701416,"31":0.33587226271629333,"32":1.0172767639160156,"33":2.174024820327759,"34":0.45614394545555115}},"2":{"bias":0.3392879068851471,"weights":{"0":-4.776913642883301,"1":0.015903417021036148,"2":-2.17474102973938,"3":-0.3756822645664215,"4":-0.3186052739620209,"5":-0.3996560573577881,"6":-3.366349935531616,"7":-0.5741648077964783,"8":-0.7278295755386353,"9":-0.6184939742088318,"10":-0.8410864472389221,"11":-0.5111028552055359,"12":0.14333394169807434,"13":-1.2583980560302734,"14":-1.2949663400650024,"15":-1.1652661561965942,"16":-1.1414778232574463,"17":-0.40003737807273865,"18":-0.362959623336792,"19":-0.523948073387146,"20":0.08749853074550629,"21":-0.31941747665405273,"22":0.5711140632629395,"23":0.5626064538955688,"24":1.1203804016113281,"25":-1.300157070159912,"26":1.5321110486984253,"27":1.6116808652877808,"28":0.721859872341156,"29":0.5321630835533142,"30":0.5465205907821655,"31":0.35962972044944763,"32":0.5800126791000366,"33":0.49364733695983887,"34":-2.364672899246216}},"3":{"bias":0.9903477430343628,"weights":{"0":-5.702551364898682,"1":0.09523420035839081,"2":-1.4241276979446411,"3":-1.638978123664856,"4":-0.7266248464584351,"5":-0.7256033420562744,"6":-1.046583652496338,"7":-0.04610053077340126,"8":0.050099607557058334,"9":0.20005542039871216,"10":-3.39497971534729,"11":0.2427520453929901,"12":-0.31928491592407227,"13":0.4672711491584778,"14":0.6736751198768616,"15":0.5059784054756165,"16":0.7409848570823669,"17":0.22535036504268646,"18":-2.2174837589263916,"19":-2.218595266342163,"20":-0.8440332412719727,"21":-0.2397308051586151,"22":0.4872088134288788,"23":0.5457370281219482,"24":0.8165010213851929,"25":1.335990071296692,"26":-1.7172467708587646,"27":-1.6456849575042725,"28":0.9418639540672302,"29":-0.598358154296875,"30":-2.0542209148406982,"31":-0.43438172340393066,"32":-1.3280326128005981,"33":-2.0900821685791016,"34":0.5126334428787231}},"4":{"bias":-2.4962806701660156,"weights":{"0":-1.0594630241394043,"1":0.24268655478954315,"2":1.886775016784668,"3":1.435531735420227,"4":0.18571850657463074,"5":0.1950007677078247,"6":-1.4448894262313843,"7":0.4370810091495514,"8":0.31755709648132324,"9":0.66496741771698,"10":-0.6098873615264893,"11":0.49320337176322937,"12":0.2786855101585388,"13":-0.006933483295142651,"14":0.2127775400876999,"15":0.13035187125205994,"16":0.28780049085617065,"17":-0.1991995871067047,"18":-1.5823516845703125,"19":-1.5687731504440308,"20":-1.503846526145935,"21":-1.352745771408081,"22":0.04962660372257233,"23":0.03681458532810211,"24":-0.013082551769912243,"25":-0.8702637553215027,"26":1.0744624137878418,"27":1.2628066539764404,"28":-0.5381341576576233,"29":-0.46314990520477295,"30":-0.8834516406059265,"31":0.04251734912395477,"32":-0.4816741645336151,"33":-0.9486474990844727,"34":3.749390125274658}},"5":{"bias":-1.4363582134246826,"weights":{"0":-2.138627767562866,"1":0.6654316782951355,"2":2.4724416732788086,"3":-1.57125723361969,"4":-0.3068653643131256,"5":-0.10469357669353485,"6":3.0753262042999268,"7":-0.5254864692687988,"8":-0.4007367789745331,"9":-0.48175615072250366,"10":-5.6502556800842285,"11":-0.8564508557319641,"12":0.28260135650634766,"13":-1.48755943775177,"14":-1.4511702060699463,"15":-1.5235108137130737,"16":-1.5169744491577148,"17":-0.4754983186721802,"18":0.8089191913604736,"19":0.9223753213882446,"20":-0.8513606786727905,"21":-1.3632324934005737,"22":0.27083656191825867,"23":0.04987756535410881,"24":0.17099541425704956,"25":-2.0224316120147705,"26":1.0988563299179077,"27":1.3103985786437988,"28":-0.6508378982543945,"29":0.36490219831466675,"30":0.46511220932006836,"31":0.1702529489994049,"32":0.17162713408470154,"33":0.38538095355033875,"34":-0.5545442700386047}},"6":{"bias":-2.028691530227661,"weights":{"0":-1.6587685346603394,"1":0.07899690419435501,"2":-0.01931218057870865,"3":-1.52615487575531,"4":-0.5122630596160889,"5":-0.4052875339984894,"6":-2.277095317840576,"7":1.9190616607666016,"8":2.0043413639068604,"9":2.074124574661255,"10":0.7604425549507141,"11":1.8537750244140625,"12":0.5128939151763916,"13":1.9627830982208252,"14":2.1139566898345947,"15":1.8946226835250854,"16":2.1850080490112305,"17":0.5042335987091064,"18":2.2310688495635986,"19":2.318510055541992,"20":-0.45868948101997375,"21":-0.09511859714984894,"22":-0.6176037788391113,"23":-0.5391764044761658,"24":-0.9872495532035828,"25":1.3121778964996338,"26":1.726425290107727,"27":1.7801462411880493,"28":-0.9737492799758911,"29":-0.7935986518859863,"30":-0.6171928644180298,"31":-0.2455233484506607,"32":-0.3251604437828064,"33":-0.7667142152786255,"34":-1.3964310884475708}},"7":{"bias":-0.6342946887016296,"weights":{"0":-3.372462272644043,"1":-0.014842012897133827,"2":-1.4342365264892578,"3":3.3741018772125244,"4":0.06784156709909439,"5":0.2738021910190582,"6":0.6929357051849365,"7":0.5690944194793701,"8":0.3660549223423004,"9":0.4978841543197632,"10":-3.6123504638671875,"11":0.7089844942092896,"12":0.15606102347373962,"13":0.37810757756233215,"14":0.361043781042099,"15":0.4737749397754669,"16":0.6526145339012146,"17":0.3490925133228302,"18":1.5790715217590332,"19":1.6384629011154175,"20":0.16738083958625793,"21":0.2512372136116028,"22":-0.05834004282951355,"23":0.02076425962150097,"24":-0.18630945682525635,"25":-1.7474608421325684,"26":-1.46444571018219,"27":-1.3887845277786255,"28":-0.8322104811668396,"29":0.4834258258342743,"30":1.7527052164077759,"31":0.38415563106536865,"32":1.2482492923736572,"33":1.5806726217269897,"34":-1.6785764694213867}},"8":{"bias":-1.5196752548217773,"weights":{"0":-2.315197706222534,"1":-0.38572925329208374,"2":-1.815462350845337,"3":5.0060248374938965,"4":0.5933493971824646,"5":0.38758501410484314,"6":1.045177936553955,"7":-0.2423071414232254,"8":-0.12230566889047623,"9":-0.20958863198757172,"10":-3.2123217582702637,"11":-0.5222912430763245,"12":-0.13565681874752045,"13":1.0591391324996948,"14":0.9828011393547058,"15":0.8698004484176636,"16":1.1818873882293701,"17":0.5812243819236755,"18":1.4789998531341553,"19":1.355910301208496,"20":0.1813969612121582,"21":-0.23942436277866364,"22":-0.38658303022384644,"23":-0.5792943239212036,"24":-0.7976727485656738,"25":1.7594596147537231,"26":1.8329250812530518,"27":1.7087599039077759,"28":2.3886919021606445,"29":1.4654362201690674,"30":2.7514960765838623,"31":0.42082059383392334,"32":1.4222086668014526,"33":2.643991470336914,"34":0.3877731263637543}},"9":{"bias":-0.09531454741954803,"weights":{"0":-3.346153974533081,"1":0.5860104560852051,"2":2.1970174312591553,"3":-2.6638333797454834,"4":-0.39715132117271423,"5":-0.4364205002784729,"6":-3.4599523544311523,"7":-0.8976022601127625,"8":-0.9622399210929871,"9":-1.0398343801498413,"10":-1.8464218378067017,"11":-1.3111045360565186,"12":0.6668664813041687,"13":-2.2154836654663086,"14":-2.219444751739502,"15":-2.2454428672790527,"16":-2.171102523803711,"17":-1.141627550125122,"18":1.7286840677261353,"19":1.6269359588623047,"20":-1.8323757648468018,"21":-2.0781919956207275,"22":0.47890573740005493,"23":0.8033592104911804,"24":1.06708562374115,"25":-1.0583935976028442,"26":-1.3354746103286743,"27":-1.4835467338562012,"28":-2.0559732913970947,"29":-0.3512423038482666,"30":-0.07587210088968277,"31":0.11749891936779022,"32":0.2491442859172821,"33":-0.15380047261714935,"34":-2.691004514694214}},"10":{"bias":-1.0653785467147827,"weights":{"0":-2.70937180519104,"1":-0.19792978465557098,"2":-1.0330005884170532,"3":0.813079833984375,"4":0.13268788158893585,"5":0.17978017032146454,"6":3.941216230392456,"7":-1.842106819152832,"8":-1.7663689851760864,"9":-1.817698359489441,"10":1.7566558122634888,"11":-1.6756421327590942,"12":-2.5439839363098145,"13":2.2836670875549316,"14":2.2979776859283447,"15":2.2755212783813477,"16":2.3797688484191895,"17":2.0405540466308594,"18":1.7127900123596191,"19":1.7106670141220093,"20":1.212275505065918,"21":-0.0401703305542469,"22":0.21700775623321533,"23":0.3587638735771179,"24":0.5430692434310913,"25":-0.10933024436235428,"26":0.3656274974346161,"27":0.16227403283119202,"28":-1.5497833490371704,"29":-1.1510200500488281,"30":-2.2105553150177,"31":-0.49612459540367126,"32":-1.267016887664795,"33":-2.2214505672454834,"34":-1.3737939596176147}},"11":{"bias":-1.6303023099899292,"weights":{"0":-2.5064585208892822,"1":-0.27060532569885254,"2":-1.5714763402938843,"3":0.9218847155570984,"4":0.35968491435050964,"5":0.10177832096815109,"6":-3.1755263805389404,"7":1.1200909614562988,"8":1.080102801322937,"9":0.9190700054168701,"10":1.2726519107818604,"11":1.1101142168045044,"12":0.26622557640075684,"13":0.8128067255020142,"14":0.7196844816207886,"15":0.7930726408958435,"16":0.6297388672828674,"17":0.40932419896125793,"18":-0.8395967483520508,"19":-0.8888852000236511,"20":-1.0525636672973633,"21":-0.635002613067627,"22":0.306321918964386,"23":0.04794717952609062,"24":0.338402658700943,"25":2.1372475624084473,"26":-1.1821503639221191,"27":-1.2109750509262085,"28":0.5538763403892517,"29":0.02979721873998642,"30":-0.2310521900653839,"31":0.09793990850448608,"32":-0.09572292119264603,"33":-0.13339351117610931,"34":-1.1025633811950684}},"12":{"bias":-0.4324462413787842,"weights":{"0":-3.5452890396118164,"1":-0.1692476123571396,"2":-0.487099289894104,"3":-0.6328219175338745,"4":-0.02964843437075615,"5":-0.2863323986530304,"6":-0.18560369312763214,"7":-0.29178759455680847,"8":-0.361392080783844,"9":-0.30987390875816345,"10":-3.583629608154297,"11":-0.2112182378768921,"12":0.5813930630683899,"13":-1.6542704105377197,"14":-1.568569302558899,"15":-1.5351183414459229,"16":-1.6596360206604004,"17":-0.3567574918270111,"18":-0.41436585783958435,"19":-0.6076571941375732,"20":1.6611415147781372,"21":1.3653820753097534,"22":0.4145916700363159,"23":0.36575087904930115,"24":0.4600701630115509,"25":0.9956120252609253,"26":1.2915740013122559,"27":1.2581260204315186,"28":-1.8120979070663452,"29":0.20271101593971252,"30":1.1735074520111084,"31":0.3065679371356964,"32":0.8879898190498352,"33":1.2358617782592773,"34":-0.42824429273605347}},"13":{"bias":-0.5627356171607971,"weights":{"0":-2.8798022270202637,"1":-0.4224790334701538,"2":-1.5954259634017944,"3":3.2186784744262695,"4":0.5388235449790955,"5":0.41201505064964294,"6":-3.489954948425293,"7":-1.248348355293274,"8":-1.0981543064117432,"9":-1.2007019519805908,"10":-0.613943874835968,"11":-0.9495214819908142,"12":0.04624631255865097,"13":-1.595300316810608,"14":-1.675868034362793,"15":-1.527919054031372,"16":-1.540920615196228,"17":-0.7796487808227539,"18":0.8853853344917297,"19":0.7148521542549133,"20":1.0543423891067505,"21":0.33942338824272156,"22":0.9732967019081116,"23":0.7441811561584473,"24":1.3037205934524536,"25":-0.39393287897109985,"26":-0.809257447719574,"27":-0.7076491713523865,"28":-0.6147005558013916,"29":-0.8183854818344116,"30":-1.8095946311950684,"31":-0.17127001285552979,"32":-1.0479124784469604,"33":-1.8475372791290283,"34":-0.27614423632621765}},"14":{"bias":-1.4128046035766602,"weights":{"0":-2.4423491954803467,"1":-0.04981493204832077,"2":-1.0410420894622803,"3":2.618750810623169,"4":0.5001681447029114,"5":0.3726774752140045,"6":3.837393045425415,"7":2.9439659118652344,"8":2.8936870098114014,"9":2.972903251647949,"10":2.0626602172851562,"11":2.835078716278076,"12":2.0385918617248535,"13":-1.0446161031723022,"14":-1.0323371887207031,"15":-0.9259830713272095,"16":-1.1329975128173828,"17":-2.179978847503662,"18":-1.2706419229507446,"19":-1.3207638263702393,"20":-0.9600598216056824,"21":0.49489277601242065,"22":0.13071247935295105,"23":0.19406647980213165,"24":0.07183810323476791,"25":-2.2038612365722656,"26":-0.44145044684410095,"27":-0.43239691853523254,"28":0.7409931421279907,"29":0.01954290270805359,"30":-0.5385551452636719,"31":-0.05533944442868233,"32":-0.43719545006752014,"33":-0.5824153423309326,"34":-1.5292775630950928}},"15":{"bias":-2.230038642883301,"weights":{"0":-1.170041561126709,"1":0.4124316871166229,"2":2.25763201713562,"3":0.7735973000526428,"4":0.1419745236635208,"5":0.43849292397499084,"6":-1.3815357685089111,"7":0.36146774888038635,"8":0.21471768617630005,"9":0.2877896726131439,"10":-1.0702182054519653,"11":0.3139236271381378,"12":0.12023729085922241,"13":0.2987639904022217,"14":0.2915132939815521,"15":0.3370043635368347,"16":0.37386417388916016,"17":0.14683200418949127,"18":-1.7851179838180542,"19":-1.7115117311477661,"20":-1.010596513748169,"21":-0.8205515146255493,"22":0.33850935101509094,"23":0.5832780599594116,"24":0.7038687467575073,"25":-0.8447125554084778,"26":-1.2744253873825073,"27":-1.19883394241333,"28":0.2137574851512909,"29":-0.46777185797691345,"30":-1.2864041328430176,"31":-0.168308824300766,"32":-0.7602999210357666,"33":-1.4865041971206665,"34":-2.307478904724121}},"16":{"bias":-2.3458523750305176,"weights":{"0":-1.3241710662841797,"1":0.06038675457239151,"2":0.47423413395881653,"3":-0.06574001908302307,"4":0.17888551950454712,"5":0.22037333250045776,"6":-1.3494470119476318,"7":0.06627099961042404,"8":0.20636990666389465,"9":0.1390831172466278,"10":-0.5208735466003418,"11":0.002739894902333617,"12":0.29842039942741394,"13":0.33172607421875,"14":0.2823995351791382,"15":0.19192741811275482,"16":0.1855103075504303,"17":0.43159690499305725,"18":1.3773020505905151,"19":1.2748745679855347,"20":-0.06448467075824738,"21":-0.3710184395313263,"22":-0.37392011284828186,"23":-0.5573139190673828,"24":-1.0211894512176514,"25":3.687263011932373,"26":-1.1156927347183228,"27":-1.1724680662155151,"28":-1.7470585107803345,"29":1.1144942045211792,"30":2.8699533939361572,"31":0.4459451138973236,"32":1.648794412612915,"33":2.887054204940796,"34":2.861482858657837}},"17":{"bias":-1.58804190158844,"weights":{"0":-2.606752872467041,"1":-0.17247509956359863,"2":-0.9706001877784729,"3":-1.2064529657363892,"4":-0.5368881225585938,"5":-0.42382195591926575,"6":-2.7311487197875977,"7":0.04843246191740036,"8":-0.0723748579621315,"9":0.07565682381391525,"10":0.5893222093582153,"11":0.3731640875339508,"12":-0.18278028070926666,"13":0.49695470929145813,"14":0.31159865856170654,"15":0.4818577766418457,"16":0.34433361887931824,"17":0.5638219714164734,"18":0.04428986832499504,"19":-0.016091778874397278,"20":2.231630563735962,"21":2.2028119564056396,"22":0.2087637335062027,"23":0.13551168143749237,"24":-0.012125308625400066,"25":-1.538100242614746,"26":-0.40217798948287964,"27":-0.4931865632534027,"28":3.2774221897125244,"29":0.44962748885154724,"30":-0.32194238901138306,"31":-0.024285929277539253,"32":-0.5387812852859497,"33":-0.40673115849494934,"34":1.571149230003357}},"18":{"bias":-2.2031302452087402,"weights":{"0":-3.0749399662017822,"1":0.7738202214241028,"2":4.298035144805908,"3":-0.17576287686824799,"4":0.2682884931564331,"5":0.2167331576347351,"6":-1.095068097114563,"7":0.05043986067175865,"8":0.025191091001033783,"9":0.117140993475914,"10":-1.9660835266113281,"11":-0.40197083353996277,"12":1.0097330808639526,"13":-1.2978277206420898,"14":-1.3127888441085815,"15":-1.4108818769454956,"16":-1.4368656873703003,"17":-0.5908953547477722,"18":3.3790457248687744,"19":3.3229424953460693,"20":-0.040612202137708664,"21":-0.382536381483078,"22":-0.013631952926516533,"23":-0.27238887548446655,"24":-0.2776358723640442,"25":-0.3323040008544922,"26":-0.4632255733013153,"27":-0.19930940866470337,"28":3.96480131149292,"29":0.5015246272087097,"30":-0.8675356507301331,"31":-0.0644257590174675,"32":-0.799538254737854,"33":-0.7766128182411194,"34":2.3956143856048584}},"19":{"bias":0.15114758908748627,"weights":{"0":-5.330387115478516,"1":0.6641828417778015,"2":1.4746930599212646,"3":-1.6137936115264893,"4":-0.6292754411697388,"5":-0.5275479555130005,"6":-4.092311382293701,"7":0.4452988803386688,"8":0.5110102295875549,"9":0.3639926314353943,"10":0.4676230847835541,"11":0.42470118403434753,"12":-0.03231162205338478,"13":0.9169727563858032,"14":0.6224399209022522,"15":0.8298373222351074,"16":0.8763060569763184,"17":0.4922918677330017,"18":-1.531304121017456,"19":-1.4794820547103882,"20":-2.619429588317871,"21":-2.4366791248321533,"22":0.2894982695579529,"23":0.6051384806632996,"24":0.5750585794448853,"25":-0.7997457981109619,"26":1.0906966924667358,"27":1.1536591053009033,"28":-1.096914291381836,"29":-0.8600269556045532,"30":-1.3179930448532104,"31":0.003143997397273779,"32":-0.7113166451454163,"33":-1.379135251045227,"34":1.2737866640090942}},"20":{"bias":0.23771601915359497,"weights":{"0":-4.085735321044922,"1":-0.42520952224731445,"2":-2.618896961212158,"3":5.351614475250244,"4":0.4978497326374054,"5":0.3028680086135864,"6":-3.399474859237671,"7":-1.0116019248962402,"8":-1.0154545307159424,"9":-1.0823299884796143,"10":-0.9229778051376343,"11":-1.4018465280532837,"12":-0.6880332231521606,"13":0.38526710867881775,"14":0.34087350964546204,"15":0.15707683563232422,"16":0.33176854252815247,"17":0.9435176849365234,"18":0.7416056990623474,"19":0.9477474689483643,"20":-2.0648677349090576,"21":-2.524343252182007,"22":0.507671058177948,"23":0.6444146037101746,"24":0.7969889044761658,"25":-1.0586823225021362,"26":-0.7679213881492615,"27":-1.10283362865448,"28":0.23252397775650024,"29":0.34892380237579346,"30":0.5672152638435364,"31":0.246122807264328,"32":0.5408286452293396,"33":0.6290932297706604,"34":-0.3236249089241028}},"21":{"bias":-2.5785744190216064,"weights":{"0":-1.0417821407318115,"1":0.7265397906303406,"2":1.707659125328064,"3":0.28472214937210083,"4":0.05345563590526581,"5":0.203049898147583,"6":-2.5417582988739014,"7":2.0376760959625244,"8":2.0954930782318115,"9":1.9823023080825806,"10":1.3378268480300903,"11":1.8146404027938843,"12":0.9930417537689209,"13":0.3989819586277008,"14":0.6141381859779358,"15":0.5591649413108826,"16":0.4627239406108856,"17":-0.30774858593940735,"18":-1.155879259109497,"19":-1.1351720094680786,"20":-0.42891615629196167,"21":-0.03650040552020073,"22":-0.5912289023399353,"23":-0.656248152256012,"24":-0.914057731628418,"25":0.7220887541770935,"26":0.9303680062294006,"27":1.1171320676803589,"28":-0.2550501823425293,"29":0.9237596988677979,"30":2.151536703109741,"31":0.42370641231536865,"32":1.2917739152908325,"33":1.8577845096588135,"34":-0.7726998329162598}},"22":{"bias":-1.4312992095947266,"weights":{"0":-3.0788419246673584,"1":-0.19336086511611938,"2":-1.7238763570785522,"3":1.8882049322128296,"4":0.1165158599615097,"5":0.019425678998231888,"6":-2.083081007003784,"7":-0.803543746471405,"8":-0.9929037690162659,"9":-0.9751110076904297,"10":-1.6742783784866333,"11":-0.46882790327072144,"12":-0.8362630605697632,"13":1.4284168481826782,"14":1.5206913948059082,"15":1.5092759132385254,"16":1.5727038383483887,"17":1.9356284141540527,"18":1.1268436908721924,"19":1.1757941246032715,"20":3.0273356437683105,"21":2.374268054962158,"22":-0.19519183039665222,"23":-0.012091695331037045,"24":-0.3528033196926117,"25":-0.013031566515564919,"26":0.5110203623771667,"27":0.4058959186077118,"28":-0.018186284229159355,"29":-0.01609172113239765,"30":-0.2119063436985016,"31":0.16272567212581635,"32":-0.07511956989765167,"33":-0.13145218789577484,"34":3.6535356044769287}},"23":{"bias":0.3783957064151764,"weights":{"0":-5.551163673400879,"1":0.6189593076705933,"2":1.2310048341751099,"3":-0.788477897644043,"4":-0.2882252633571625,"5":-0.2129523903131485,"6":-2.8416941165924072,"7":-1.9038487672805786,"8":-1.9100043773651123,"9":-1.9590203762054443,"10":-2.7484285831451416,"11":-1.6594116687774658,"12":-1.0538862943649292,"13":0.4030042886734009,"14":0.5457680225372314,"15":0.5574495792388916,"16":0.7940183877944946,"17":1.2358909845352173,"18":-2.484799861907959,"19":-2.4794859886169434,"20":0.8694259524345398,"21":0.08760056644678116,"22":0.45826491713523865,"23":0.694577157497406,"24":0.9384864568710327,"25":-1.842532992362976,"26":-0.690450131893158,"27":-0.48819684982299805,"28":-2.9351813793182373,"29":0.11628052592277527,"30":1.2903817892074585,"31":0.39151227474212646,"32":0.957640528678894,"33":1.1797913312911987,"34":-1.0094794034957886}},"24":{"bias":-2.4385499954223633,"weights":{"0":-0.7726758122444153,"1":0.024817049503326416,"2":1.7410577535629272,"3":-1.750107765197754,"4":-0.34806349873542786,"5":-0.20506729185581207,"6":-3.02911114692688,"7":-0.785519003868103,"8":-0.7342097759246826,"9":-0.6134918332099915,"10":-0.25149819254875183,"11":-0.06574057042598724,"12":-0.9538666605949402,"13":2.9204039573669434,"14":2.81229829788208,"15":2.854271173477173,"16":2.965034246444702,"17":2.5390493869781494,"18":-0.23487183451652527,"19":-0.2733549177646637,"20":2.8507771492004395,"21":2.4686460494995117,"22":-0.2673003375530243,"23":-0.6604927182197571,"24":-0.7993971109390259,"25":-0.969555675983429,"26":-0.6020603179931641,"27":-0.3988143503665924,"28":-0.6533421874046326,"29":0.8296888470649719,"30":1.8057152032852173,"31":0.46340125799179077,"32":1.1473413705825806,"33":1.916210651397705,"34":-1.0780367851257324}},"25":{"bias":-1.8901903629302979,"weights":{"0":-1.9873778820037842,"1":0.7406207323074341,"2":2.903658390045166,"3":1.979415774345398,"4":0.48309093713760376,"5":0.6145439147949219,"6":2.9267008304595947,"7":-0.4191584587097168,"8":-0.49918824434280396,"9":-0.4085543751716614,"10":-4.793938636779785,"11":-0.09052396565675735,"12":0.01427258551120758,"13":-0.33522143959999084,"14":-0.4965957999229431,"15":-0.2330363243818283,"16":-0.29495617747306824,"17":-0.0670076310634613,"18":-0.6864268183708191,"19":-0.6768410205841064,"20":2.5377376079559326,"21":1.750324010848999,"22":-0.2805429697036743,"23":-0.1788720190525055,"24":-0.6196590662002563,"25":3.677304744720459,"26":0.9912586808204651,"27":1.1572530269622803,"28":0.54291170835495,"29":0.34235697984695435,"30":0.8133853673934937,"31":0.19344811141490936,"32":0.4575394093990326,"33":0.7386745810508728,"34":-0.34608861804008484}},"26":{"bias":-2.4431283473968506,"weights":{"0":-1.005275011062622,"1":0.18788307905197144,"2":0.2029830515384674,"3":3.410344362258911,"4":0.4610072672367096,"5":0.5034899115562439,"6":-1.530687689781189,"7":0.3132166266441345,"8":0.27981695532798767,"9":0.3463486433029175,"10":-1.0961761474609375,"11":0.8255034685134888,"12":0.910369873046875,"13":-0.6298654079437256,"14":-0.7517021298408508,"15":-0.7290593981742859,"16":-0.6943822503089905,"17":-0.5056257843971252,"18":-0.0028066488448530436,"19":0.11696390807628632,"20":3.3054420948028564,"21":3.5273444652557373,"22":0.06812451034784317,"23":0.06593203544616699,"24":0.15778443217277527,"25":-0.4868929982185364,"26":-0.29710909724235535,"27":-0.20291320979595184,"28":-0.9991786479949951,"29":-0.649427592754364,"30":-0.9501962661743164,"31":-0.3492942452430725,"32":-0.699403703212738,"33":-0.9687208533287048,"34":-0.5299574732780457}},"27":{"bias":-2.75539231300354,"weights":{"0":-0.6779542565345764,"1":0.19825479388237,"2":-0.40037861466407776,"3":3.2413711547851562,"4":0.44131705164909363,"5":0.5561126470565796,"6":-1.9591200351715088,"7":0.5164018869400024,"8":0.28062939643859863,"9":0.1490449756383896,"10":0.544870913028717,"11":0.1360875517129898,"12":0.29065579175949097,"13":0.7842859625816345,"14":0.627696692943573,"15":0.6971800923347473,"16":1.0202423334121704,"17":0.28126707673072815,"18":0.19795221090316772,"19":-0.006833278574049473,"20":-1.0425926446914673,"21":-1.224015235900879,"22":-0.08703143894672394,"23":-0.05164976790547371,"24":-0.310137003660202,"25":3.0942959785461426,"26":1.1387078762054443,"27":1.005738377571106,"28":2.7624950408935547,"29":0.3075692057609558,"30":-0.9940236210823059,"31":-0.27100229263305664,"32":-0.6903103590011597,"33":-0.9617086052894592,"34":-1.3704872131347656}},"28":{"bias":-1.8905115127563477,"weights":{"0":-1.8271169662475586,"1":0.8663967847824097,"2":2.2504892349243164,"3":2.98689341545105,"4":0.37995442748069763,"5":0.4424351155757904,"6":-2.7160215377807617,"7":1.9579777717590332,"8":1.9092644453048706,"9":1.780850887298584,"10":0.8596341609954834,"11":1.9091421365737915,"12":0.9818784594535828,"13":0.4650718569755554,"14":0.6362389326095581,"15":0.6242715716362,"16":0.8932405710220337,"17":-0.21259456872940063,"18":1.8800849914550781,"19":1.862488865852356,"20":0.0756293535232544,"21":0.8549872040748596,"22":-0.459683895111084,"23":-0.5037962198257446,"24":-0.9082809090614319,"25":-1.9194689989089966,"26":0.4775571823120117,"27":0.4323365390300751,"28":-1.2316793203353882,"29":-0.14541776478290558,"30":0.3135179281234741,"31":0.15800878405570984,"32":0.03416984900832176,"33":0.23256894946098328,"34":2.7051215171813965}},"29":{"bias":-0.8525508046150208,"weights":{"0":-3.297440528869629,"1":0.1427522748708725,"2":-0.5986000895500183,"3":-0.9410520195960999,"4":-0.26798152923583984,"5":-0.3050553500652313,"6":-3.6147258281707764,"7":1.9270422458648682,"8":2.023529291152954,"9":1.9150874614715576,"10":-1.4210973978042603,"11":2.3105454444885254,"12":2.8210744857788086,"13":-1.3576171398162842,"14":-1.3597252368927002,"15":-1.341533899307251,"16":-1.3054239749908447,"17":-1.018439531326294,"18":1.6288069486618042,"19":1.6541446447372437,"20":1.2953910827636719,"21":1.8171998262405396,"22":-0.1665787696838379,"23":-0.2952057719230652,"24":-0.2120695412158966,"25":2.8833374977111816,"26":-0.11673123389482498,"27":-0.28766316175460815,"28":0.8365023732185364,"29":0.006375967059284449,"30":0.1303439438343048,"31":0.09447820484638214,"32":0.11019840091466904,"33":-0.08110658824443817,"34":0.17529281973838806}}},{"0":{"bias":-0.23741929233074188,"weights":{"0":2.0967142581939697,"1":-2.147369384765625,"2":-2.263944387435913,"3":-2.943997859954834,"4":0.9369567036628723,"5":1.2543286085128784,"6":-0.6596476435661316,"7":-2.6967592239379883,"8":-2.700544595718384,"9":2.022610902786255,"10":-2.5930705070495605,"11":-1.2104099988937378,"12":-0.6522722244262695,"13":0.10572577267885208,"14":-3.1257989406585693,"15":1.812709927558899,"16":-0.10212761163711548,"17":-1.3607828617095947,"18":-1.1400784254074097,"19":-3.2859878540039062,"20":-2.762310266494751,"21":-0.2516382336616516,"22":-2.069438934326172,"23":-2.64119029045105,"24":1.7811901569366455,"25":-0.1504897028207779,"26":-0.01784684881567955,"27":-0.15794134140014648,"28":-1.4385253190994263,"29":-1.006277322769165}},"1":{"bias":0.5994274020195007,"weights":{"0":2.2057626247406006,"1":-0.14573997259140015,"2":-2.673245429992676,"3":-2.390181064605713,"4":1.0389318466186523,"5":1.525881290435791,"6":-0.6797752380371094,"7":-2.759939193725586,"8":-2.9311110973358154,"9":2.2922146320343018,"10":-2.8998658657073975,"11":-1.447872281074524,"12":-0.5885888934135437,"13":0.05363525077700615,"14":-3.4820075035095215,"15":1.9748761653900146,"16":-0.13347946107387543,"17":-1.6516705751419067,"18":3.0166330337524414,"19":-0.28986164927482605,"20":-3.068086624145508,"21":-0.1409146636724472,"22":-2.9766108989715576,"23":0.5379577875137329,"24":1.8302165269851685,"25":0.4139760434627533,"26":-0.01024769339710474,"27":-0.1824684739112854,"28":-1.1194700002670288,"29":-1.014988660812378}},"2":{"bias":-5.837965488433838,"weights":{"0":-2.9257144927978516,"1":-3.034484386444092,"2":-1.0577846765518188,"3":-2.8374407291412354,"4":0.5401201844215393,"5":-2.8078391551971436,"6":-3.2728912830352783,"7":1.9287751913070679,"8":3.7560033798217773,"9":-3.907047986984253,"10":-1.430113434791565,"11":0.1319490224123001,"12":-1.295871615409851,"13":2.681558847427368,"14":0.3345180153846741,"15":0.09125467389822006,"16":-0.9724913239479065,"17":-2.4827892780303955,"18":-0.5131176114082336,"19":-2.8552730083465576,"20":4.910187721252441,"21":-0.9150789380073547,"22":0.7404718399047852,"23":-1.2510879039764404,"24":-2.9188005924224854,"25":0.8440964221954346,"26":2.433919906616211,"27":2.17921781539917,"28":1.7213389873504639,"29":-1.535042643547058}},"3":{"bias":-5.526889324188232,"weights":{"0":-2.5855867862701416,"1":-0.5991544723510742,"2":-1.5320113897323608,"3":2.970306634902954,"4":-1.3725988864898682,"5":5.721586227416992,"6":-3.044755458831787,"7":3.038367986679077,"8":1.8137253522872925,"9":-1.6381561756134033,"10":-0.07897379994392395,"11":-3.8542582988739014,"12":1.7798795700073242,"13":-3.173656463623047,"14":-0.23744454979896545,"15":-0.8469516038894653,"16":-1.7527518272399902,"17":-2.8770041465759277,"18":-0.0853520929813385,"19":-3.0970606803894043,"20":-1.2841391563415527,"21":-4.386607646942139,"22":-0.0106456708163023,"23":0.829952597618103,"24":-2.5487825870513916,"25":4.032996654510498,"26":-0.8510093092918396,"27":-3.050309896469116,"28":-3.4103190898895264,"29":-1.1309092044830322}},"4":{"bias":-5.352510452270508,"weights":{"0":-5.05040979385376,"1":2.535374879837036,"2":-0.449124813079834,"3":2.20619535446167,"4":-0.6463955044746399,"5":-3.7341017723083496,"6":2.399845600128174,"7":0.5440025925636292,"8":-1.3695932626724243,"9":-2.003352165222168,"10":-1.9777942895889282,"11":2.0239787101745605,"12":-2.316535234451294,"13":-3.070451498031616,"14":7.290109157562256,"15":-0.3170090615749359,"16":-1.776534080505371,"17":0.09293384850025177,"18":-2.009387493133545,"19":3.1724419593811035,"20":-0.3469143807888031,"21":0.9828234314918518,"22":-2.2361018657684326,"23":-1.5030264854431152,"24":-3.137500047683716,"25":-3.3708302974700928,"26":-1.4577711820602417,"27":-0.8949478268623352,"28":0.9659003019332886,"29":2.8343474864959717}},"5":{"bias":-5.821147441864014,"weights":{"0":1.0491559505462646,"1":2.1405537128448486,"2":-0.7538400888442993,"3":2.0942203998565674,"4":-1.0509048700332642,"5":-4.012430667877197,"6":2.2867767810821533,"7":0.4304738938808441,"8":-1.2177590131759644,"9":-4.578010082244873,"10":6.53697395324707,"11":1.9512585401535034,"12":-3.300020217895508,"13":-3.564952850341797,"14":-0.6058918237686157,"15":-0.4795539081096649,"16":-1.7229573726654053,"17":0.16321630775928497,"18":-4.219840049743652,"19":3.083347797393799,"20":0.4999998211860657,"21":0.6770557165145874,"22":1.0936864614486694,"23":1.8219454288482666,"24":2.4954311847686768,"25":-3.261455535888672,"26":-2.7535781860351562,"27":-0.7892314195632935,"28":0.5956637859344482,"29":-4.683189868927002}},"6":{"bias":-5.773869037628174,"weights":{"0":-4.4253621101379395,"1":1.8747532367706299,"2":0.25130560994148254,"3":-1.9990977048873901,"4":-3.9126200675964355,"5":0.6539181470870972,"6":1.8001930713653564,"7":2.0558712482452393,"8":0.11709792166948318,"9":3.3082292079925537,"10":1.3303682804107666,"11":-1.6240531206130981,"12":-0.6797827482223511,"13":0.9888944029808044,"14":-3.364802122116089,"15":-3.8687405586242676,"16":0.17571529746055603,"17":-0.3530680537223816,"18":4.302274703979492,"19":-1.2973237037658691,"20":1.387945532798767,"21":-3.276264190673828,"22":0.8444518446922302,"23":-2.9258005619049072,"24":-2.1438276767730713,"25":-2.43217134475708,"26":-1.1139127016067505,"27":-1.6865825653076172,"28":1.122833251953125,"29":2.0939934253692627}},"7":{"bias":-5.873322010040283,"weights":{"0":0.015519455075263977,"1":-0.9903781414031982,"2":0.9609518647193909,"3":1.0190092325210571,"4":-3.491088628768921,"5":-2.82089900970459,"6":-1.3125829696655273,"7":0.2619251608848572,"8":-1.5582445859909058,"9":-2.798969268798828,"10":-0.9988234639167786,"11":-1.1188502311706543,"12":2.2561967372894287,"13":0.7034761905670166,"14":-0.6011421084403992,"15":-2.2814278602600098,"16":-2.0215659141540527,"17":3.0252647399902344,"18":-1.3286412954330444,"19":-2.8949670791625977,"20":-3.4882214069366455,"21":-1.424525260925293,"22":3.2648003101348877,"23":1.7847589254379272,"24":1.2400312423706055,"25":1.269595742225647,"26":4.579775333404541,"27":-3.4113736152648926,"28":-0.2287246733903885,"29":2.355447769165039}},"8":{"bias":-5.373869895935059,"weights":{"0":-4.330835819244385,"1":-4.4544243812561035,"2":4.8695197105407715,"3":4.63740873336792,"4":-1.2457706928253174,"5":0.11711535602807999,"6":-4.357011795043945,"7":-0.7098187804222107,"8":-4.185718536376953,"9":5.413134574890137,"10":-1.334382176399231,"11":-0.20694254338741302,"12":1.5487734079360962,"13":3.817689895629883,"14":-1.3939456939697266,"15":0.44374313950538635,"16":-4.226555824279785,"17":-0.9625793695449829,"18":-2.21047306060791,"19":3.6051828861236572,"20":3.386700391769409,"21":-4.077005863189697,"22":-2.212665319442749,"23":4.9860429763793945,"24":-5.40611457824707,"25":-3.185481071472168,"26":-1.237808108329773,"27":-2.4718806743621826,"28":-3.999999523162842,"29":-1.397658109664917}},"9":{"bias":-5.653441429138184,"weights":{"0":-2.7093327045440674,"1":-1.407441258430481,"2":-0.694464921951294,"3":2.959200382232666,"4":-2.174206018447876,"5":-3.4521660804748535,"6":0.3222588300704956,"7":-1.8172987699508667,"8":0.813507616519928,"9":-1.0218058824539185,"10":-1.1203582286834717,"11":2.0814781188964844,"12":0.9834988713264465,"13":-0.794779896736145,"14":-3.317967176437378,"15":-1.9434212446212769,"16":3.1326448917388916,"17":-2,"18":-1.0356155633926392,"19":-0.03316233307123184,"20":-0.7258479595184326,"21":-0.42766666412353516,"22":-0.4286779761314392,"23":-1.0570367574691772,"24":-2.7904679775238037,"25":3.3690271377563477,"26":-1.369497537612915,"27":1.7489324808120728,"28":-3.1428987979888916,"29":3.5034801959991455}},"10":{"bias":-5.735651016235352,"weights":{"0":-1.5130841732025146,"1":-1.4710359573364258,"2":3.900162935256958,"3":-2.2560033798217773,"4":0.8163512349128723,"5":1.2352489233016968,"6":1.978330373764038,"7":-2.8941452503204346,"8":2.44167160987854,"9":-2.6667749881744385,"10":-0.71733158826828,"11":-2.6073832511901855,"12":2.2909748554229736,"13":-1.569305419921875,"14":-1.8627101182937622,"15":-3.389885902404785,"16":-3.184354782104492,"17":-1.0365424156188965,"18":-0.9735077023506165,"19":2.5060794353485107,"20":-1.2960076332092285,"21":0.4863971173763275,"22":0.34583979845046997,"23":-0.17078547179698944,"24":-2.1592745780944824,"25":1.0107530355453491,"26":-1.1571005582809448,"27":0.42813706398010254,"28":-0.21274879574775696,"29":-0.30412212014198303}},"11":{"bias":-5.726303577423096,"weights":{"0":2.5243048667907715,"1":-0.28571781516075134,"2":1.7296408414840698,"3":2.2591681480407715,"4":-1.8610390424728394,"5":-1.3821643590927124,"6":-2.3924400806427,"7":-0.8778729438781738,"8":1.5850921869277954,"9":-2.167407751083374,"10":-2.959310531616211,"11":0.32197123765945435,"12":-1.966997742652893,"13":-1.012965202331543,"14":-0.08321686089038849,"15":-0.9243791103363037,"16":-3.286402702331543,"17":3.7825887203216553,"18":4.0079345703125,"19":-0.41721582412719727,"20":0.6436949372291565,"21":-1.4298292398452759,"22":-0.5488055348396301,"23":-2.6215977668762207,"24":-2.4535515308380127,"25":-0.4589964747428894,"26":-2.1871016025543213,"27":1.2456120252609253,"28":-2.6459500789642334,"29":0.7035760283470154}},"12":{"bias":-5.77216911315918,"weights":{"0":0.3301670253276825,"1":2.203984260559082,"2":1.9407302141189575,"3":-2.198517322540283,"4":-2.8347396850585938,"5":-0.007407777011394501,"6":-2.8332343101501465,"7":2.832929849624634,"8":2.917330503463745,"9":0.5113077759742737,"10":-5.236167907714844,"11":-0.7119990587234497,"12":2.0520200729370117,"13":-3.423081874847412,"14":-1.7668663263320923,"15":-3.5531888008117676,"16":2.8951380252838135,"17":-1.181864857673645,"18":-2.576784372329712,"19":-1.4862674474716187,"20":1.5919142961502075,"21":1.2026281356811523,"22":-0.9622086882591248,"23":3.4549436569213867,"24":0.5328356623649597,"25":-0.31863051652908325,"26":-2.811453342437744,"27":-3.4319047927856445,"28":-1.1982566118240356,"29":-0.546363890171051}},"13":{"bias":-5.437263488769531,"weights":{"0":-1.4605847597122192,"1":0.0729399025440216,"2":-1.953501582145691,"3":1.9930055141448975,"4":3.346754550933838,"5":-1.1978813409805298,"6":-2.7347726821899414,"7":-1.8993109464645386,"8":-0.8586133122444153,"9":-2.8413891792297363,"10":-2.200366973876953,"11":-1.2182118892669678,"12":-0.44214802980422974,"13":-0.2923562824726105,"14":-2.275521993637085,"15":-3.795762777328491,"16":1.4693764448165894,"17":1.2621396780014038,"18":1.8782330751419067,"19":2.664285182952881,"20":0.029970968142151833,"21":-2.0349812507629395,"22":3.8735456466674805,"23":0.09259281307458878,"24":-3.0246098041534424,"25":-1.411226749420166,"26":-1.442112922668457,"27":-3.002514362335205,"28":1.756125807762146,"29":-0.07521774619817734}}}],"outputLookup":false,"inputLookup":false,"activation":"sigmoid","trainOpts":{"iterations":200000,"errorThresh":0.005,"log":true,"logPeriod":2000,"learningRate":0.3,"momentum":0.1,"callbackPeriod":2000,"beta1":0.9,"beta2":0.999,"epsilon":1e-8}}