{"sizes":[38,30,15],"layers":[{"0":{},"1":{},"2":{},"3":{},"4":{},"5":{},"6":{},"7":{},"8":{},"9":{},"10":{},"11":{},"12":{},"13":{},"14":{},"15":{},"16":{},"17":{},"18":{},"19":{},"20":{},"21":{},"22":{},"23":{},"24":{},"25":{},"26":{},"27":{},"28":{},"29":{},"30":{},"31":{},"32":{},"33":{},"34":{},"35":{},"36":{},"37":{}},{"0":{"bias":-2.193007469177246,"weights":{"0":-0.4595685601234436,"1":0.5273550748825073,"2":2.4367446899414062,"3":1.2736167907714844,"4":0.6096725463867188,"5":0.44176003336906433,"6":-3.018087863922119,"7":-0.8282270431518555,"8":-1.039193868637085,"9":-0.8169353008270264,"10":-0.477004736661911,"11":-0.8931010961532593,"12":-0.7590794563293457,"13":1.3788999319076538,"14":1.435706615447998,"15":1.5369246006011963,"16":1.6662590503692627,"17":2.3908987045288086,"18":-1.7980135679244995,"19":-1.84174644947052,"20":0.3919045031070709,"21":-0.20719100534915924,"22":0.3103691637516022,"23":-0.027507204562425613,"24":0.21382848918437958,"25":-0.43210870027542114,"26":1.2426701784133911,"27":1.3003263473510742,"28":-1.7784008979797363,"29":0.24007780849933624,"30":0.842215895652771,"31":0.09061681479215622,"32":0.6157997846603394,"33":0.40165767073631287,"34":-0.03838065266609192,"35":-0.5312196016311646,"36":-0.41684550046920776,"37":-0.27002453804016113}},"1":{"bias":-2.097397804260254,"weights":{"0":-2.8221657276153564,"1":-0.4765213429927826,"2":-1.8755916357040405,"3":0.9510950446128845,"4":-0.0021080924198031425,"5":0.2966445982456207,"6":-2.507218599319458,"7":2.283712148666382,"8":2.1626663208007812,"9":2.12579607963562,"10":-0.4949858784675598,"11":2.1788628101348877,"12":1.90835440158844,"13":-0.4815079867839813,"14":-0.24164268374443054,"15":-0.4463772177696228,"16":-0.3757120370864868,"17":-0.6849370002746582,"18":-0.19610503315925598,"19":0.110505111515522,"20":-1.072527527809143,"21":-0.30685263872146606,"22":-0.09997725486755371,"23":0.1773288995027542,"24":-0.13024146854877472,"25":-0.3494706451892853,"26":1.8270529508590698,"27":1.719197154045105,"28":-0.30017340183258057,"29":-0.11221644282341003,"30":0.1684093475341797,"31":-0.03891404718160629,"32":-0.06726105511188507,"33":-0.017360303550958633,"34":-1.5689438581466675,"35":1.261462688446045,"36":1.5009312629699707,"37":1.3834259510040283}},"2":{"bias":-3.189453125,"weights":{"0":1.1373180150985718,"1":0.35380324721336365,"2":3.545267343521118,"3":-1.8872870206832886,"4":0.04626647010445595,"5":-0.034681662917137146,"6":-1.319381833076477,"7":-0.955999493598938,"8":-1.0461548566818237,"9":-0.9602656364440918,"10":-1.7375476360321045,"11":-0.6427494883537292,"12":0.005882243625819683,"13":-0.8927085399627686,"14":-0.8559538722038269,"15":-0.9282718896865845,"16":-0.7791566252708435,"17":0.12145810574293137,"18":0.23695909976959229,"19":0.43974724411964417,"20":1.6482861042022705,"21":0.6156176328659058,"22":-0.0007303081802092493,"23":0.15911884605884552,"24":0.18960969150066376,"25":1.6718376874923706,"26":0.17726731300354004,"27":0.020099887624382973,"28":-0.08480896055698395,"29":-0.1742326319217682,"30":-0.09525895863771439,"31":0.22439303994178772,"32":-0.13069885969161987,"33":-0.30446767807006836,"34":-0.9406939148902893,"35":-0.15593621134757996,"36":0.21629023551940918,"37":0.1057867631316185}},"3":{"bias":0.18592894077301025,"weights":{"0":-4.514655590057373,"1":-0.07210420817136765,"2":-2.01945424079895,"3":-0.4830513000488281,"4":-0.39848142862319946,"5":-0.4549499452114105,"6":0.5766985416412354,"7":-0.271765798330307,"8":-0.34419822692871094,"9":-0.3333888649940491,"10":-4.353124618530273,"11":-0.19823603332042694,"12":0.797252893447876,"13":-1.771889090538025,"14":-1.6754472255706787,"15":-1.7609055042266846,"16":-1.7275865077972412,"17":-0.46918603777885437,"18":1.6176549196243286,"19":1.6772063970565796,"20":1.419891119003296,"21":1.2329902648925781,"22":0.5485073328018188,"23":0.2648211121559143,"24":0.7208741307258606,"25":-0.1789420247077942,"26":1.127624273300171,"27":1.2475920915603638,"28":-1.3922886848449707,"29":-0.8170457482337952,"30":-1.320143222808838,"31":-0.41543594002723694,"32":-0.6400387287139893,"33":-1.2784976959228516,"34":-1.166313648223877,"35":-0.7485811710357666,"36":-0.8513834476470947,"37":-0.5015031099319458}},"4":{"bias":-2.6007471084594727,"weights":{"0":-1.948897123336792,"1":-0.3848932683467865,"2":-1.3723797798156738,"3":5.72520112991333,"4":0.5588794350624084,"5":0.641535758972168,"6":-0.7771350741386414,"7":1.4099677801132202,"8":1.5456377267837524,"9":1.516640305519104,"10":1.8898950815200806,"11":1.6599787473678589,"12":0.41222190856933594,"13":2.2516212463378906,"14":2.3336100578308105,"15":2.1373348236083984,"16":2.452604293823242,"17":0.5715178847312927,"18":-0.21756526827812195,"19":-0.16833816468715668,"20":0.2203884869813919,"21":0.5697007179260254,"22":-0.7163920998573303,"23":-0.7336277365684509,"24":-1.1600136756896973,"25":2.4612464904785156,"26":2.033296585083008,"27":2.0904383659362793,"28":-0.8766852617263794,"29":-0.5268282294273376,"30":-0.38240569829940796,"31":0.06855937093496323,"32":-0.4188813269138336,"33":-0.5443641543388367,"34":-0.628963053226471,"35":-0.03784651681780815,"36":-0.11637427657842636,"37":0.11176980286836624}},"5":{"bias":-0.06213564798235893,"weights":{"0":-4.577136993408203,"1":0.5881730914115906,"2":2.095242738723755,"3":-1.6514946222305298,"4":-0.4817233979701996,"5":-0.5830352306365967,"6":-0.36129996180534363,"7":-1.6912423372268677,"8":-1.733359932899475,"9":-1.7208434343338013,"10":-4.229356288909912,"11":-1.2302523851394653,"12":-0.6574519276618958,"13":-0.05175165832042694,"14":-0.24811358749866486,"15":-0.12137679010629654,"16":0.09676425904035568,"17":0.7356906533241272,"18":-0.010314344428479671,"19":-0.09969428926706314,"20":2.0976927280426025,"21":1.1683138608932495,"22":0.31973597407341003,"23":0.6549766659736633,"24":0.6960006952285767,"25":-2.3097355365753174,"26":0.014965741895139217,"27":-0.1052573099732399,"28":0.15840929746627808,"29":-0.05046966299414635,"30":0.06543829292058945,"31":0.03509091958403587,"32":0.03587254136800766,"33":-0.07294609397649765,"34":-2.5546727180480957,"35":-0.28957220911979675,"36":-0.08838828653097153,"37":-0.23634208738803864}},"6":{"bias":-1.661371111869812,"weights":{"0":-2.71401047706604,"1":0.3661268651485443,"2":1.5812289714813232,"3":-1.0813122987747192,"4":-0.2840208113193512,"5":-0.30406326055526733,"6":2.2867581844329834,"7":2.1211636066436768,"8":2.16872501373291,"9":2.1800272464752197,"10":-3.1161949634552,"11":2.282336711883545,"12":1.301163673400879,"13":0.04003078117966652,"14":0.18089459836483002,"15":0.22494153678417206,"16":0.34959694743156433,"17":-0.5820094347000122,"18":-1.8806178569793701,"19":-1.7254852056503296,"20":1.419856071472168,"21":1.9642640352249146,"22":-0.43697407841682434,"23":-0.6768428683280945,"24":-0.7395586967468262,"25":-1.6046667098999023,"26":-0.2793448567390442,"27":-0.3615143597126007,"28":-0.757295548915863,"29":0.8702366948127747,"30":2.0606513023376465,"31":0.5138744711875916,"32":1.1948034763336182,"33":2.070014238357544,"34":1.5078667402267456,"35":0.9971415400505066,"36":0.8393753170967102,"37":1.0916980504989624}},"7":{"bias":-1.7106354236602783,"weights":{"0":-1.8252084255218506,"1":0.3318871557712555,"2":0.0897485539317131,"3":1.439471960067749,"4":0.11551070213317871,"5":0.12743674218654633,"6":2.4839086532592773,"7":-1.3509949445724487,"8":-1.3332387208938599,"9":-1.3314613103866577,"10":-4.442629337310791,"11":-1.631822943687439,"12":-0.8138112425804138,"13":1.088301658630371,"14":0.9814803004264832,"15":1.0349414348602295,"16":1.091127872467041,"17":1.8457564115524292,"18":2.2831122875213623,"19":2.304795980453491,"20":-1.6432982683181763,"21":-2.157090902328491,"22":0.08310597389936447,"23":-0.061831433326005936,"24":-0.03362259641289711,"25":0.7449769377708435,"26":-0.012626159936189651,"27":-0.22520001232624054,"28":-1.2335679531097412,"29":-0.06644520908594131,"30":0.1813250482082367,"31":0.21335655450820923,"32":-0.07149484008550644,"33":0.07889952510595322,"34":1.9992029666900635,"35":-0.495452344417572,"36":-0.21158358454704285,"37":-0.5558639764785767}},"8":{"bias":-1.6942787170410156,"weights":{"0":-3.5697832107543945,"1":0.7520642280578613,"2":3.4103899002075195,"3":-0.218743696808815,"4":-0.11808325350284576,"5":0.16830652952194214,"6":-0.5724973678588867,"7":-0.21984857320785522,"8":-0.340927392244339,"9":-0.3322027027606964,"10":-2.7061479091644287,"11":-0.4290291666984558,"12":0.6928516030311584,"13":-1.0900824069976807,"14":-1.1398999691009521,"15":-0.9810266494750977,"16":-1.117787480354309,"17":-0.23306876420974731,"18":-1.3707499504089355,"19":-1.3824312686920166,"20":0.06523855030536652,"21":0.148939847946167,"22":0.10458724945783615,"23":0.41879910230636597,"24":0.284297376871109,"25":3.246629476547241,"26":-0.06131245568394661,"27":0.04833870381116867,"28":-0.7989304065704346,"29":-0.3211899995803833,"30":-0.9122001528739929,"31":-0.26920416951179504,"32":-0.49884480237960815,"33":-0.7250772714614868,"34":-0.6063552498817444,"35":1.2350560426712036,"36":1.2686394453048706,"37":1.1283622980117798}},"9":{"bias":-2.1065673828125,"weights":{"0":-1.199653148651123,"1":0.5251861810684204,"2":2.496061325073242,"3":-2.5088770389556885,"4":-0.543619692325592,"5":-0.36755576729774475,"6":-2.725468158721924,"7":1.0377966165542603,"8":1.0655138492584229,"9":1.1082663536071777,"10":0.7478375434875488,"11":0.9966242909431458,"12":0.17991527915000916,"13":0.7536544799804688,"14":0.5484916567802429,"15":0.7672547698020935,"16":0.7493305802345276,"17":0.03123888373374939,"18":1.9560810327529907,"19":1.85246741771698,"20":-1.7752141952514648,"21":-1.1847803592681885,"22":-0.007976917549967766,"23":-0.22207467257976532,"24":0.04028106853365898,"25":-1.5839824676513672,"26":0.3549189567565918,"27":0.3107866942882538,"28":1.044203281402588,"29":-0.11370687931776047,"30":-1.2621630430221558,"31":-0.32736310362815857,"32":-0.8401292562484741,"33":-1.1859670877456665,"34":-1.5244227647781372,"35":0.8254978060722351,"36":0.5639064311981201,"37":0.6931730508804321}},"10":{"bias":-2.1721184253692627,"weights":{"0":-3.5721802711486816,"1":0.07949972152709961,"2":-1.7733783721923828,"3":2.7209768295288086,"4":0.16916348040103912,"5":0.3161469101905823,"6":2.288771152496338,"7":2.110426425933838,"8":2.0226316452026367,"9":2.015986919403076,"10":-1.0138416290283203,"11":2.0105528831481934,"12":-0.07729058712720871,"13":2.3120031356811523,"14":2.239490509033203,"15":2.3375210762023926,"16":2.325197458267212,"17":0.5831457376480103,"18":1.236167311668396,"19":1.2006012201309204,"20":0.15325911343097687,"21":0.49206429719924927,"22":-0.4444485902786255,"23":-0.45012956857681274,"24":-0.8056504130363464,"25":-1.2339682579040527,"26":-0.3481367826461792,"27":-0.4379383325576782,"28":-1.5444415807724,"29":-0.04906625300645828,"30":0.16311542689800262,"31":0.08265974372625351,"32":0.12330352514982224,"33":-0.0000553968820895534,"34":-1.236928939819336,"35":-0.12375050783157349,"36":-0.03088235855102539,"37":-0.16914089024066925}},"11":{"bias":0.2687830626964569,"weights":{"0":-4.478747844696045,"1":-0.2822529077529907,"2":-1.768751621246338,"3":-0.21958231925964355,"4":-0.22854113578796387,"5":-0.2576306164264679,"6":-4.251583099365234,"7":0.4125405251979828,"8":0.5043019652366638,"9":0.4915423095226288,"10":-1.5994133949279785,"11":0.9378368854522705,"12":1.7261178493499756,"13":-1.8834781646728516,"14":-1.8987497091293335,"15":-1.8682571649551392,"16":-1.8391469717025757,"17":-1.229014277458191,"18":-1.5254714488983154,"19":-1.6327893733978271,"20":1.4556560516357422,"21":1.8421047925949097,"22":0.3680691421031952,"23":0.542620837688446,"24":0.8234212398529053,"25":-1.3546736240386963,"26":0.8656436204910278,"27":0.9437246918678284,"28":-1.759319543838501,"29":-0.7739127278327942,"30":-1.1582459211349487,"31":0.07643012702465057,"32":-0.37164106965065,"33":-1.09250807762146,"34":1.876537561416626,"35":-1.0098662376403809,"36":-1.043049693107605,"37":-1.0158765316009521}},"12":{"bias":-1.9142048358917236,"weights":{"0":-2.765260934829712,"1":0.628400981426239,"2":1.2243385314941406,"3":-0.978806734085083,"4":-0.37684592604637146,"5":-0.4272668957710266,"6":-2.78629994392395,"7":-0.2502467632293701,"8":-0.35265228152275085,"9":-0.20540748536586761,"10":-0.7949472069740295,"11":-0.2520895004272461,"12":-0.9596785306930542,"13":2.7741501331329346,"14":2.7750155925750732,"15":2.7434840202331543,"16":2.8691816329956055,"17":2.3888046741485596,"18":0.020447462797164917,"19":0.10304718464612961,"20":-0.1706550419330597,"21":-0.6137773990631104,"22":-0.37675896286964417,"23":-0.44850584864616394,"24":-0.7352077960968018,"25":2.779634714126587,"26":1.0555187463760376,"27":0.8048409819602966,"28":2.853785753250122,"29":0.59702467918396,"30":0.25031280517578125,"31":0.1891777664422989,"32":-0.13335897028446198,"33":0.4173573851585388,"34":-0.3428651988506317,"35":0.4768521785736084,"36":0.6257558465003967,"37":0.6158734560012817}},"13":{"bias":-2.3614554405212402,"weights":{"0":-1.3773298263549805,"1":0.11304577440023422,"2":1.8672221899032593,"3":-0.4791050851345062,"4":0.13959309458732605,"5":0.2741430699825287,"6":-1.3835581541061401,"7":1.1501890420913696,"8":1.010719895362854,"9":1.1056662797927856,"10":0.1524626463651657,"11":1.4213898181915283,"12":0.8692097663879395,"13":1.5120437145233154,"14":1.398485779762268,"15":1.5055346488952637,"16":1.5633320808410645,"17":0.794603705406189,"18":-0.9174444675445557,"19":-0.6449083089828491,"20":1.5162708759307861,"21":1.4544068574905396,"22":-0.5826787352561951,"23":-0.5479636788368225,"24":-0.9835574626922607,"25":-0.9896918535232544,"26":-0.031102197244763374,"27":0.17604152858257294,"28":1.9296971559524536,"29":0.3846227824687958,"30":-0.01087943371385336,"31":-0.10520612448453903,"32":-0.24329298734664917,"33":0.03964168205857277,"34":4.007896423339844,"35":-0.8726136684417725,"36":-0.6742891073226929,"37":-0.6998689770698547}},"14":{"bias":-3.1328933238983154,"weights":{"0":0.7473908066749573,"1":0.017601873725652695,"2":2.595956802368164,"3":1.1032179594039917,"4":0.7096483707427979,"5":0.7641392946243286,"6":-1.0937739610671997,"7":1.2727919816970825,"8":1.4510085582733154,"9":1.2653692960739136,"10":-1.0306049585342407,"11":1.1927149295806885,"12":2.7811341285705566,"13":-0.6315174698829651,"14":-0.6321946382522583,"15":-0.8535500168800354,"16":-0.7365186810493469,"17":-0.17922243475914001,"18":0.5705487132072449,"19":0.2920975983142853,"20":1.6310398578643799,"21":1.4378736019134521,"22":-0.5994134545326233,"23":-0.655563473701477,"24":-1.2289470434188843,"25":-1.2704613208770752,"26":1.410368800163269,"27":1.6274818181991577,"28":2.857372283935547,"29":1.148364782333374,"30":1.1569701433181763,"31":0.4256238639354706,"32":0.5133803486824036,"33":1.3146848678588867,"34":-0.4927266836166382,"35":-0.32392585277557373,"36":-0.2633652091026306,"37":-0.24741610884666443}},"15":{"bias":-1.0549814701080322,"weights":{"0":-3.3273916244506836,"1":0.044721819460392,"2":-0.6358082294464111,"3":-0.24201682209968567,"4":-0.40206342935562134,"5":-0.41821637749671936,"6":-2.9859488010406494,"7":0.30919262766838074,"8":0.4905761182308197,"9":0.5768394470214844,"10":-0.8765448331832886,"11":0.15717540681362152,"12":1.5595289468765259,"13":-0.8413049578666687,"14":-1.0063446760177612,"15":-0.8951044082641602,"16":-0.9732873439788818,"17":-0.574958324432373,"18":1.403508186340332,"19":1.3038911819458008,"20":-1.145592212677002,"21":-1.1263513565063477,"22":-0.11683090031147003,"23":0.06776757538318634,"24":-0.21382997930049896,"25":1.2824792861938477,"26":1.5879075527191162,"27":1.3384636640548706,"28":-1.7451225519180298,"29":0.9265602231025696,"30":2.789689302444458,"31":0.6757647395133972,"32":1.8832719326019287,"33":2.7955596446990967,"34":2.5458805561065674,"35":0.9538721442222595,"36":1.2307705879211426,"37":1.1617993116378784}},"16":{"bias":-1.3149176836013794,"weights":{"0":-2.618314504623413,"1":0.11957719922065735,"2":-0.19585493206977844,"3":1.8099926710128784,"4":0.3860495388507843,"5":0.13089759647846222,"6":-0.004207895137369633,"7":1.1503573656082153,"8":1.2388039827346802,"9":1.2766131162643433,"10":-3.5765457153320312,"11":1.0107111930847168,"12":1.2986454963684082,"13":-1.041282296180725,"14":-1.0287303924560547,"15":-1.0223066806793213,"16":-0.7851981520652771,"17":-0.636102557182312,"18":-1.5711569786071777,"19":-1.6694079637527466,"20":-1.4174913167953491,"21":-1.0303634405136108,"22":0.2928149998188019,"23":0.09495195001363754,"24":0.45497387647628784,"25":2.8848392963409424,"26":-1.1769227981567383,"27":-1.1890828609466553,"28":0.6357292532920837,"29":-0.19448451697826385,"30":-0.6267193555831909,"31":-0.2414522022008896,"32":-0.331025630235672,"33":-0.6338199973106384,"34":-0.7709766030311584,"35":0.05128665640950203,"36":-0.07500150054693222,"37":-0.17522014677524567}},"17":{"bias":-1.257017731666565,"weights":{"0":-2.7851762771606445,"1":0.46983909606933594,"2":0.2126268893480301,"3":-0.5343767404556274,"4":-0.38415542244911194,"5":-0.2833571434020996,"6":-2.644824981689453,"7":-1.6501798629760742,"8":-1.6686069965362549,"9":-1.646354079246521,"10":-2.052536725997925,"11":-1.0299571752548218,"12":-0.8943641185760498,"13":2.2139053344726562,"14":2.1512622833251953,"15":2.0477960109710693,"16":2.2208757400512695,"17":4.031172752380371,"18":1.6655415296554565,"19":1.7037872076034546,"20":4.308069229125977,"21":3.347834348678589,"22":-0.5921055674552917,"23":-0.6063741445541382,"24":-0.9203222393989563,"25":2.7299211025238037,"26":-0.9958260655403137,"27":-0.8484249711036682,"28":-0.28862273693084717,"29":0.9866085648536682,"30":2.175239086151123,"31":0.2964725196361542,"32":1.1785314083099365,"33":2.1021084785461426,"34":-0.8401908278465271,"35":0.8893923759460449,"36":0.8086450099945068,"37":0.7875291705131531}},"18":{"bias":-0.8183674216270447,"weights":{"0":-3.6395225524902344,"1":0.6812680959701538,"2":0.4839056432247162,"3":2.4245784282684326,"4":0.23525255918502808,"5":0.15126670897006989,"6":-2.4314730167388916,"7":0.30686473846435547,"8":0.05940037593245506,"9":0.13833346962928772,"10":0.1993730366230011,"11":0.36036214232444763,"12":0.3199189007282257,"13":-0.5577213168144226,"14":-0.6165454387664795,"15":-0.6368883848190308,"16":-0.7041401863098145,"17":-0.7803515195846558,"18":-0.14699114859104156,"19":0.02580711804330349,"20":-0.6436996459960938,"21":-0.36558589339256287,"22":0.5672118067741394,"23":0.4752650558948517,"24":0.560481071472168,"25":-1.3489927053451538,"26":-1.1792387962341309,"27":-1.195864200592041,"28":2.4160561561584473,"29":0.0704641118645668,"30":-0.9932131767272949,"31":0.00967935286462307,"32":-0.8378000855445862,"33":-0.8962078094482422,"34":-1.6639407873153687,"35":-0.667333722114563,"36":-0.49028831720352173,"37":-0.5997868180274963}},"19":{"bias":0.5733770132064819,"weights":{"0":-5.824563026428223,"1":0.5146546363830566,"2":0.41547995805740356,"3":-1.6067090034484863,"4":-0.7562605738639832,"5":-0.634327232837677,"6":-4.197017192840576,"7":0.6048907041549683,"8":0.6749128699302673,"9":0.7485889196395874,"10":2.3170576095581055,"11":0.48904964327812195,"12":-0.1399809718132019,"13":0.7786464691162109,"14":0.625974178314209,"15":0.6709141731262207,"16":0.8256925940513611,"17":0.059072211384773254,"18":-1.0477256774902344,"19":-1.0054558515548706,"20":-3.1018600463867188,"21":-2.5313704013824463,"22":0.4483966529369354,"23":0.4879971146583557,"24":0.8034461140632629,"25":-2.0571460723876953,"26":-1.9306201934814453,"27":-1.859058141708374,"28":-1.8164780139923096,"29":0.2873346209526062,"30":1.230053424835205,"31":0.4506596326828003,"32":0.9160952568054199,"33":1.244576096534729,"34":-1.0977402925491333,"35":-0.6634163856506348,"36":-0.6929568648338318,"37":-0.8894264101982117}},"20":{"bias":0.1710098683834076,"weights":{"0":-3.7769935131073,"1":-0.030935227870941162,"2":-0.4713728427886963,"3":0.4225778877735138,"4":-0.10666266083717346,"5":0.08589214831590652,"6":-2.692582130432129,"7":-1.4362624883651733,"8":-1.4934874773025513,"9":-1.429080605506897,"10":-2.2133841514587402,"11":-1.4218984842300415,"12":-0.6912153959274292,"13":-0.3633973300457001,"14":-0.4261854887008667,"15":-0.43340107798576355,"16":-0.17410601675510406,"17":0.4157389998435974,"18":0.09273397922515869,"19":0.17163726687431335,"20":-2.335418462753296,"21":-2.5368881225585938,"22":0.8505567312240601,"23":0.6820897459983826,"24":1.1957226991653442,"25":-1.2767603397369385,"26":-0.37453797459602356,"27":-0.1654745489358902,"28":-1.6080065965652466,"29":-0.6303814053535461,"30":-1.3192298412322998,"31":-0.131483793258667,"32":-0.5380622148513794,"33":-1.341572880744934,"34":-0.7393544912338257,"35":-0.9976560473442078,"36":-0.8572416305541992,"37":-1.1027153730392456}},"21":{"bias":-1.335664987564087,"weights":{"0":-2.071150779724121,"1":0.6607723832130432,"2":2.9384765625,"3":-1.5184763669967651,"4":-0.5156180262565613,"5":-0.4054175913333893,"6":-3.782709836959839,"7":2.1475987434387207,"8":2.1306676864624023,"9":2.156736135482788,"10":-1.0178934335708618,"11":2.198235034942627,"12":3.1846096515655518,"13":-1.468350887298584,"14":-1.4372295141220093,"15":-1.5216020345687866,"16":-1.5255484580993652,"17":-1.1653317213058472,"18":3.0667788982391357,"19":3.061765432357788,"20":-0.2132979780435562,"21":0.6177823543548584,"22":0.021042944863438606,"23":-0.1961335390806198,"24":-0.3155561089515686,"25":2.0545876026153564,"26":-0.5707411766052246,"27":-0.5993663668632507,"28":-1.5715590715408325,"29":-0.5648646950721741,"30":-0.5359588861465454,"31":-0.09199531376361847,"32":-0.28406304121017456,"33":-0.7356544733047485,"34":-1.209623098373413,"35":-0.41825994849205017,"36":-0.4751151502132416,"37":-0.7055381536483765}},"22":{"bias":-0.0025254180654883385,"weights":{"0":-2.7952327728271484,"1":-0.5611499547958374,"2":-2.201986074447632,"3":2.9981698989868164,"4":0.3005751073360443,"5":0.4294750690460205,"6":0.37670978903770447,"7":-1.244806170463562,"8":-1.3192734718322754,"9":-1.4157781600952148,"10":-4.918477535247803,"11":-1.4382954835891724,"12":0.1772771030664444,"13":-1.6690822839736938,"14":-1.5944311618804932,"15":-1.713559865951538,"16":-1.749550700187683,"17":-0.33271709084510803,"18":-0.6985815763473511,"19":-0.7510431408882141,"20":-1.0376719236373901,"21":-1.2139759063720703,"22":0.7213289737701416,"23":0.7582904696464539,"24":1.3697524070739746,"25":-1.892509937286377,"26":-1.5382721424102783,"27":-1.3704406023025513,"28":-1.7576885223388672,"29":0.0888795554637909,"30":0.5034224987030029,"31":0.21819283068180084,"32":0.2903285026550293,"33":0.29824307560920715,"34":-2.0603060722351074,"35":0.6410673260688782,"36":0.4562382698059082,"37":0.5878906846046448}},"23":{"bias":-1.494362235069275,"weights":{"0":-2.271152973175049,"1":0.2940865159034729,"2":-0.59464031457901,"3":5.440565586090088,"4":0.34835246205329895,"5":0.4708116352558136,"6":-2.9798667430877686,"7":1.6604300737380981,"8":1.468690037727356,"9":1.6288020610809326,"10":-1.0677809715270996,"11":1.6659002304077148,"12":3.020482301712036,"13":-1.30952787399292,"14":-1.3066837787628174,"15":-1.376380205154419,"16":-1.1595262289047241,"17":-0.7718146443367004,"18":3.1882004737854004,"19":3.182058811187744,"20":1.7697018384933472,"21":1.5411876440048218,"22":-0.6571921110153198,"23":-0.6246708035469055,"24":-0.8334336876869202,"25":1.5269469022750854,"26":-0.7045106887817383,"27":-0.8747664093971252,"28":2.7519683837890625,"29":1.4556244611740112,"30":2.2805893421173096,"31":0.5294625163078308,"32":0.9777901768684387,"33":2.272437334060669,"34":0.7990020513534546,"35":-0.41330602765083313,"36":-0.7521142363548279,"37":-0.5800250172615051}},"24":{"bias":-1.1005690097808838,"weights":{"0":-3.3534536361694336,"1":0.5776264667510986,"2":1.880604863166809,"3":-1.267443299293518,"4":-0.2601725459098816,"5":-0.4493494927883148,"6":-1.1800105571746826,"7":-1.1982555389404297,"8":-1.1674586534500122,"9":-1.039858341217041,"10":-2.5112361907958984,"11":-1.1868739128112793,"12":-0.46126216650009155,"13":-0.29847800731658936,"14":-0.17297877371311188,"15":-0.2929816246032715,"16":-0.3606375455856323,"17":0.5012058615684509,"18":-0.9476407170295715,"19":-0.9737139344215393,"20":0.007423695642501116,"21":-0.7115464210510254,"22":0.17934654653072357,"23":0.26686468720436096,"24":0.31139880418777466,"25":-0.4265975058078766,"26":1.314620018005371,"27":1.378807544708252,"28":2.4332315921783447,"29":1.0585507154464722,"30":1.6319917440414429,"31":0.24111729860305786,"32":0.7223585844039917,"33":1.614979863166809,"34":0.27962422370910645,"35":-0.36096909642219543,"36":-0.2952822148799896,"37":-0.3498409390449524}},"25":{"bias":-1.3247928619384766,"weights":{"0":-2.8091585636138916,"1":-0.0496683306992054,"2":0.34721702337265015,"3":-1.2988749742507935,"4":-0.33486923575401306,"5":-0.2892442047595978,"6":-3.150815963745117,"7":0.654297947883606,"8":0.4899514317512512,"9":0.4340529441833496,"10":1.8941380977630615,"11":0.9187020063400269,"12":0.021656429395079613,"13":0.8815783858299255,"14":1.0953013896942139,"15":0.9315989017486572,"16":1.0259867906570435,"17":0.10613573342561722,"18":-1.9446401596069336,"19":-2.0063955783843994,"20":1.0321993827819824,"21":1.194062352180481,"22":0.4052356481552124,"23":0.34985384345054626,"24":0.46698305010795593,"25":1.1030858755111694,"26":-1.308841347694397,"27":-1.3175920248031616,"28":-2.0986287593841553,"29":-0.5951880812644958,"30":-0.7075507044792175,"31":0.06877656280994415,"32":-0.3489355444908142,"33":-0.8849309086799622,"34":-1.9407384395599365,"35":-0.8896846175193787,"36":-1.048064112663269,"37":-0.7481183409690857}},"26":{"bias":-0.5006274580955505,"weights":{"0":-3.7185144424438477,"1":0.7520248889923096,"2":2.4591782093048096,"3":4.466720104217529,"4":0.4035721719264984,"5":0.514039933681488,"6":-4.444517135620117,"7":-1.7730834484100342,"8":-1.77327561378479,"9":-1.6858657598495483,"10":-0.8954918384552002,"11":-1.250036597251892,"12":-1.3907580375671387,"13":1.0078167915344238,"14":1.121443510055542,"15":1.1206411123275757,"16":1.2337415218353271,"17":2.5514450073242188,"18":1.0102615356445312,"19":1.1170241832733154,"20":2.7802846431732178,"21":1.5227370262145996,"22":0.3223966360092163,"23":0.14207680523395538,"24":0.4935179650783539,"25":-2.2198081016540527,"26":-1.0607545375823975,"27":-0.7302515506744385,"28":-0.8568260073661804,"29":-0.5917870998382568,"30":-1.0341562032699585,"31":-0.16973139345645905,"32":-0.565177857875824,"33":-1.0811859369277954,"34":2.107978582382202,"35":0.7996777296066284,"36":0.938421905040741,"37":0.9814730286598206}},"27":{"bias":-2.1528255939483643,"weights":{"0":-2.0521461963653564,"1":-0.08886506408452988,"2":-0.8847165703773499,"3":1.9169355630874634,"4":0.3138461112976074,"5":0.3404766619205475,"6":-1.684715747833252,"7":0.17149241268634796,"8":0.20933379232883453,"9":0.12828315794467926,"10":0.3320564031600952,"11":0.09853819012641907,"12":0.6897304654121399,"13":0.17537879943847656,"14":0.16521373391151428,"15":-0.041378069669008255,"16":0.27225974202156067,"17":0.8475376963615417,"18":1.8015999794006348,"19":1.7857797145843506,"20":1.036439299583435,"21":0.28937309980392456,"22":-0.24745140969753265,"23":-0.16927820444107056,"24":-0.49869418144226074,"25":-0.24241343140602112,"26":0.38164377212524414,"27":0.43331676721572876,"28":2.3520843982696533,"29":0.0581187978386879,"30":-1.0457996129989624,"31":-0.30217111110687256,"32":-0.928428590297699,"33":-1.117240309715271,"34":3.411179542541504,"35":1.5574077367782593,"36":1.5473442077636719,"37":1.5142492055892944}},"28":{"bias":0.2572599947452545,"weights":{"0":-5.147154808044434,"1":-0.4891766607761383,"2":-2.398448944091797,"3":0.017934827134013176,"4":-0.307795912027359,"5":-0.1340879201889038,"6":-0.9758592247962952,"7":-0.9520311951637268,"8":-0.8669849038124084,"9":-0.7923764586448669,"10":-1.852249026298523,"11":-0.8673527836799622,"12":-0.5400096774101257,"13":0.5170129537582397,"14":0.5892156362533569,"15":0.4269337058067322,"16":0.5926996469497681,"17":0.5059393048286438,"18":-1.4283090829849243,"19":-1.5114154815673828,"20":-0.6881606578826904,"21":-0.7811417579650879,"22":0.5596561431884766,"23":0.6116065382957458,"24":0.8358394503593445,"25":0.8524824380874634,"26":-0.21190546452999115,"27":-0.158440962433815,"28":2.4811649322509766,"29":-0.5929315090179443,"30":-2.5151844024658203,"31":-0.6908182501792908,"32":-1.8443212509155273,"33":-2.5204451084136963,"34":-0.15052340924739838,"35":-0.23900379240512848,"36":-0.21474647521972656,"37":0.01567765139043331}},"29":{"bias":-1.0105074644088745,"weights":{"0":-2.9571354389190674,"1":-0.2976706922054291,"2":-1.9691287279129028,"3":3.4785475730895996,"4":0.28039345145225525,"5":0.3801907002925873,"6":-2.7405998706817627,"7":-0.9215530157089233,"8":-1.0048060417175293,"9":-0.9775354862213135,"10":0.16039688885211945,"11":-1.0572218894958496,"12":-0.7248439192771912,"13":0.41035038232803345,"14":0.5121784210205078,"15":0.47962266206741333,"16":0.5932983160018921,"17":1.1580796241760254,"18":-0.9052383303642273,"19":-0.774405300617218,"20":0.6324170827865601,"21":-0.4387633204460144,"22":0.34782254695892334,"23":0.38457179069519043,"24":0.5192244648933411,"25":1.085768699645996,"26":1.292541742324829,"27":1.1615231037139893,"28":1.4230718612670898,"29":1.1073359251022339,"30":2.0759782791137695,"31":0.43212270736694336,"32":1.237370491027832,"33":2.026219606399536,"34":-1.7443492412567139,"35":-0.44519707560539246,"36":-0.47052374482154846,"37":-0.2821901738643646}}},{"0":{"bias":-1.1068496704101562,"weights":{"0":2.882488489151001,"1":-1.1398638486862183,"2":4.943559646606445,"3":-2.1863250732421875,"4":-3.9763972759246826,"5":-1.2483124732971191,"6":-2.0027291774749756,"7":-1.3552411794662476,"8":-1.7638635635375977,"9":1.5514512062072754,"10":-5.345860958099365,"11":-1.1230684518814087,"12":-1.2049551010131836,"13":0.3267272412776947,"14":3.048297643661499,"15":-1.854754090309143,"16":-0.4229252338409424,"17":-1.4071847200393677,"18":-2.2452995777130127,"19":-4.678697109222412,"20":0.0737757757306099,"21":1.302085518836975,"22":0.39527690410614014,"23":-2.240008592605591,"24":-0.8447750210762024,"25":-0.7804093956947327,"26":-1.5967715978622437,"27":-1.6534074544906616,"28":-2.003194570541382,"29":-2.2644646167755127}},"1":{"bias":-0.3355051875114441,"weights":{"0":2.9628169536590576,"1":-2.0208168029785156,"2":4.988269805908203,"3":-2.3200571537017822,"4":-4.972743034362793,"5":1.2588863372802734,"6":-1.5371370315551758,"7":-1.2723182439804077,"8":2.421281576156616,"9":1.7628318071365356,"10":-7.961819171905518,"11":-0.9740703105926514,"12":-0.15079228579998016,"13":0.5585889220237732,"14":3.0866072177886963,"15":-1.6248862743377686,"16":-0.2576563358306885,"17":-1.0683679580688477,"18":-1.451249361038208,"19":-3.259780168533325,"20":0.33252227306365967,"21":1.7374060153961182,"22":0.3934846520423889,"23":-2.311166286468506,"24":0.884894073009491,"25":-0.6593115329742432,"26":0.18945865333080292,"27":-1.9699338674545288,"28":-2.848224401473999,"29":-2.4735107421875}},"2":{"bias":-5.89709997177124,"weights":{"0":0.6609786748886108,"1":0.04709554463624954,"2":-2.720891237258911,"3":-1.3521027565002441,"4":4.1934943199157715,"5":-2.7689218521118164,"6":-2.8502368927001953,"7":0.10971280187368393,"8":-0.7233172655105591,"9":-4.433910369873047,"10":-0.012406108900904655,"11":-0.7185149788856506,"12":-2.134387493133545,"13":-1.5439881086349487,"14":0.3492412269115448,"15":-1.346805453300476,"16":0.8897255659103394,"17":-1.638058066368103,"18":1.2503536939620972,"19":-3.170550584793091,"20":0.0443936288356781,"21":-2.5075786113739014,"22":2.340258836746216,"23":5.023306846618652,"24":-2.2111268043518066,"25":-2.8296236991882324,"26":3.4073164463043213,"27":0.686518669128418,"28":-0.6743472814559937,"29":1.7631853818893433}},"3":{"bias":-5.346673011779785,"weights":{"0":-2.48132061958313,"1":-1.1481289863586426,"2":-2.336494207382202,"3":3.671529769897461,"4":-3.275749683380127,"5":2.377749443054199,"6":2.8115506172180176,"7":3.3266828060150146,"8":0.9961462616920471,"9":-3.909191846847534,"10":2.7008285522460938,"11":-1.264306902885437,"12":-1.1321923732757568,"13":-1.8692924976348877,"14":-2.5784995555877686,"15":-1.3803584575653076,"16":2.1569058895111084,"17":-0.16240526735782623,"18":-1.8919198513031006,"19":-4.805478096008301,"20":0.198616623878479,"21":-1.659444808959961,"22":2.504103422164917,"23":-1.2419397830963135,"24":0.4698660969734192,"25":-5.0664849281311035,"26":-2.520085096359253,"27":-1.6803396940231323,"28":1.9859544038772583,"29":-2.1695940494537354}},"4":{"bias":-3.7304751873016357,"weights":{"0":-4.309715747833252,"1":2.9994571208953857,"2":-5.689852237701416,"3":-1.9584170579910278,"4":3.802593946456909,"5":-2.883068084716797,"6":1.2692431211471558,"7":-2.2879462242126465,"8":-1.4608535766601562,"9":0.3464881479740143,"10":6.280426025390625,"11":1.8399685621261597,"12":-1.4106794595718384,"13":0.464751660823822,"14":-3.470052480697632,"15":-0.20713822543621063,"16":0.6390864253044128,"17":-6.067101001739502,"18":0.4007604122161865,"19":5.516881942749023,"20":-1.7282676696777344,"21":3.0296061038970947,"22":-4.089030742645264,"23":0.3712535798549652,"24":-2.2511916160583496,"25":2.000357151031494,"26":-5.0528244972229,"27":-0.9803304076194763,"28":0.9150880575180054,"29":-1.2085198163986206}},"5":{"bias":-3.6752099990844727,"weights":{"0":-0.2481045126914978,"1":-0.6641138195991516,"2":-5.765573501586914,"3":-2.1507954597473145,"4":3.8126213550567627,"5":-1.353803038597107,"6":1.2411377429962158,"7":-2.158730983734131,"8":-2.2012624740600586,"9":0.24014770984649658,"10":6.2925543785095215,"11":-3.3846633434295654,"12":3.7368273735046387,"13":0.5065460205078125,"14":-4.309723377227783,"15":-2.4579899311065674,"16":-1.7452293634414673,"17":1.9937349557876587,"18":0.3438843786716461,"19":5.522336483001709,"20":-0.5855606198310852,"21":-5.224659442901611,"22":-4.393248081207275,"23":-4.6434526443481445,"24":-1.521507740020752,"25":2.0046584606170654,"26":1.4464411735534668,"27":-0.9787778258323669,"28":0.9500348567962646,"29":-0.8411031365394592}},"6":{"bias":-5.705041885375977,"weights":{"0":-4.5388102531433105,"1":-0.6536129117012024,"2":-1.5200742483139038,"3":3.201551914215088,"4":-2.4844539165496826,"5":0.3485596776008606,"6":-4.520137310028076,"7":2.0041303634643555,"8":-2.4372782707214355,"9":1.3930686712265015,"10":0.2037631869316101,"11":-1.5797743797302246,"12":-0.7137547135353088,"13":-3.0249273777008057,"14":-2.6717722415924072,"15":1.5037108659744263,"16":-3.033503293991089,"17":1.4946891069412231,"18":-0.05272287130355835,"19":-0.6361554265022278,"20":0.9832504987716675,"21":4.383646011352539,"22":-0.9560732841491699,"23":3.568391799926758,"24":-1.4763970375061035,"25":-3.966696262359619,"26":1.2441564798355103,"27":1.138797402381897,"28":-1.3354495763778687,"29":-1.7256848812103271}},"7":{"bias":-5.668295860290527,"weights":{"0":-1.866865634918213,"1":-1.0361881256103516,"2":-0.9731802344322205,"3":2.6486706733703613,"4":-1.117698311805725,"5":2.5315940380096436,"6":0.8958625793457031,"7":-4.7292256355285645,"8":-0.29166290163993835,"9":-3.3763580322265625,"10":-0.5696268677711487,"11":3.8518025875091553,"12":-1.7822014093399048,"13":0.23552583158016205,"14":-1.0315980911254883,"15":-2.533611536026001,"16":-2.0280511379241943,"17":5.047945022583008,"18":-0.32272428274154663,"19":-3.2777798175811768,"20":-3.6976819038391113,"21":0.014580580405890942,"22":-1.7659327983856201,"23":0.7382521629333496,"24":-0.9874729514122009,"25":1.181970477104187,"26":2.465869665145874,"27":-0.5952024459838867,"28":-0.4264790713787079,"29":-0.8951118588447571}},"8":{"bias":-5.325830459594727,"weights":{"0":-1.7933565378189087,"1":-1.101044774055481,"2":-2.1207919120788574,"3":2.4779341220855713,"4":-5.171983242034912,"5":2.4304707050323486,"6":-5.158395290374756,"7":-2.657884359359741,"8":1.010972023010254,"9":-1.6194796562194824,"10":-4.759396076202393,"11":4.273701190948486,"12":-3.063124656677246,"13":-4.681190013885498,"14":-6.472193717956543,"15":-1.1971805095672607,"16":0.6333847641944885,"17":-4.0794477462768555,"18":2.5357508659362793,"19":4.478890419006348,"20":5.869769096374512,"21":-1.713082194328308,"22":4.236875534057617,"23":-4.590003967285156,"24":0.47722911834716797,"25":0.7561333179473877,"26":0.49612727761268616,"27":-2.5390076637268066,"28":4.264692783355713,"29":0.06230063736438751}},"9":{"bias":-5.577986240386963,"weights":{"0":-1.9441306591033936,"1":-0.7273520827293396,"2":-0.16502070426940918,"3":0.4514327049255371,"4":0.9204172492027283,"5":-2.316473960876465,"6":-2.6972620487213135,"7":-0.3094901442527771,"8":3.735515594482422,"9":-3.0156264305114746,"10":-2.2223079204559326,"11":-0.5444989204406738,"12":2.2739717960357666,"13":-2.286543130874634,"14":-3.987233877182007,"15":1.0061060190200806,"16":3.290015935897827,"17":2.7281923294067383,"18":-1.2626545429229736,"19":-1.6442583799362183,"20":-0.9990159273147583,"21":1.8136738538742065,"22":-2.272503614425659,"23":0.7927117347717285,"24":-0.4976067841053009,"25":0.6809708476066589,"26":-2.7207040786743164,"27":-1.0083187818527222,"28":1.6314871311187744,"29":0.7678295373916626}},"10":{"bias":-5.649056911468506,"weights":{"0":0.3836134970188141,"1":2.5078036785125732,"2":-1.9566904306411743,"3":2.6002941131591797,"4":1.9137914180755615,"5":0.279911071062088,"6":-1.4373705387115479,"7":-1.2593377828598022,"8":-0.11582533270120621,"9":-0.8599025011062622,"10":-1.4791511297225952,"11":2.1304359436035156,"12":0.6441252827644348,"13":-1.3692619800567627,"14":-0.5599334836006165,"15":2.476321220397949,"16":-2.556283950805664,"17":-1.9532921314239502,"18":-2.067749261856079,"19":-3.1354236602783203,"20":0.024703720584511757,"21":-1.4996691942214966,"22":-3.2278733253479004,"23":-2.0256197452545166,"24":2.2847506999969482,"25":-3.0730669498443604,"26":-1.7847626209259033,"27":-0.42531102895736694,"28":0.27366358041763306,"29":1.9422475099563599}},"11":{"bias":-5.5340704917907715,"weights":{"0":-3.8276798725128174,"1":-0.6925691366195679,"2":-2.216827630996704,"3":-1.0579931735992432,"4":-2.3373730182647705,"5":0.531493067741394,"6":-1.4743967056274414,"7":-2.294177770614624,"8":-0.9877355694770813,"9":-0.11863839626312256,"10":-2.4374852180480957,"11":-1.3435262441635132,"12":2.5292978286743164,"13":0.6685273051261902,"14":0.5324918031692505,"15":-2,"16":0.27193617820739746,"17":-0.5737828612327576,"18":3.0992040634155273,"19":-0.9972556829452515,"20":-1.4099209308624268,"21":-2.283101797103882,"22":-2.250091314315796,"23":2.282238483428955,"24":2.858963966369629,"25":-3.0166056156158447,"26":-0.9483469724655151,"27":1.4025977849960327,"28":3.73598051071167,"29":1.2771673202514648}},"12":{"bias":-5.7200446128845215,"weights":{"0":-0.5119612216949463,"1":-0.6567019820213318,"2":-2.344850540161133,"3":-1.496907353401184,"4":-3.2076945304870605,"5":0.6139522194862366,"6":1.6600234508514404,"7":-1.3488719463348389,"8":-1.5444221496582031,"9":-3.629779100418091,"10":-1.4781006574630737,"11":-0.5851776003837585,"12":-0.5855546593666077,"13":-1.9840158224105835,"14":-1.6161324977874756,"15":4.934145927429199,"16":-1.267162799835205,"17":2.616196870803833,"18":-1.3086377382278442,"19":3.205528736114502,"20":-1.1029510498046875,"21":-1.7057178020477295,"22":1.0462677478790283,"23":2.091026544570923,"24":2.4906859397888184,"25":-1.7360029220581055,"26":-1.8211498260498047,"27":-3.3649590015411377,"28":-4.178853511810303,"29":3.230832815170288}},"13":{"bias":-5.320614814758301,"weights":{"0":-1.2673288583755493,"1":-2.203535556793213,"2":-2.861531972885132,"3":-0.42025959491729736,"4":-2.330209732055664,"5":-2.6422617435455322,"6":0.09688420593738556,"7":0.5988219380378723,"8":-0.7686562538146973,"9":-2.8674628734588623,"10":-2.587327003479004,"11":3.560980796813965,"12":-0.8998477458953857,"13":3.470914840698242,"14":-3.156146764755249,"15":2.7432963848114014,"16":-0.963451623916626,"17":-1.5122010707855225,"18":-1.4904638528823853,"19":-0.35782381892204285,"20":-0.14447936415672302,"21":-1.5807453393936157,"22":-2.354785442352295,"23":0.06080370768904686,"24":0.3381236493587494,"25":-2.702554941177368,"26":2.518458366394043,"27":2.8777801990509033,"28":0.725726306438446,"29":-2.089695692062378}},"14":{"bias":-5.524124622344971,"weights":{"0":-1.887333631515503,"1":2.209346055984497,"2":-1.3785690069198608,"3":-1.475028157234192,"4":-1.3467495441436768,"5":-0.14783258736133575,"6":1.1799862384796143,"7":-2,"8":2.5778849124908447,"9":0.32228562235832214,"10":-1.3852192163467407,"11":-2.0587098598480225,"12":0.783297598361969,"13":-2.750988006591797,"14":-2.5817248821258545,"15":2.142556667327881,"16":-0.6140428781509399,"17":1.5336110591888428,"18":-1.381325364112854,"19":-1.3468444347381592,"20":-2.3715217113494873,"21":-1.5071399211883545,"22":0.34404584765434265,"23":-1.9213483333587646,"24":-0.6550831198692322,"25":-2.6957311630249023,"26":2.138068675994873,"27":3.02207612991333,"28":-0.29637497663497925,"29":-1.291526198387146}}}],"outputLookup":false,"inputLookup":false,"activation":"sigmoid","trainOpts":{"iterations":200000,"errorThresh":0.005,"log":true,"logPeriod":2000,"learningRate":0.3,"momentum":0.1,"callbackPeriod":2000,"beta1":0.9,"beta2":0.999,"epsilon":1e-8}}