{"sizes":[38,30,15],"layers":[{"0":{},"1":{},"2":{},"3":{},"4":{},"5":{},"6":{},"7":{},"8":{},"9":{},"10":{},"11":{},"12":{},"13":{},"14":{},"15":{},"16":{},"17":{},"18":{},"19":{},"20":{},"21":{},"22":{},"23":{},"24":{},"25":{},"26":{},"27":{},"28":{},"29":{},"30":{},"31":{},"32":{},"33":{},"34":{},"35":{},"36":{},"37":{}},{"0":{"bias":-2.839885950088501,"weights":{"0":-1.2999162673950195,"1":0.5610726475715637,"2":2.534135341644287,"3":-1.6581194400787354,"4":-0.07837551832199097,"5":0.06454785168170929,"6":-2.909579038619995,"7":2.3944814205169678,"8":2.2249975204467773,"9":2.1736316680908203,"10":-1.0000170469284058,"11":2,"12":1,"13":2,"14":2,"15":1.987968921661377,"16":2,"17":0.5,"18":1.2394449710845947,"19":1,"20":-0.6194772720336914,"21":-0.14180579781532288,"22":-0.8835136890411377,"23":-0.8165764212608337,"24":-1.3739219903945923,"25":0.040177494287490845,"26":-1.0256789922714233,"27":-0.8989611268043518,"28":0.5751879811286926,"29":1.606088399887085,"30":3.0261025428771973,"31":0.4700194299221039,"32":1.828914999961853,"33":3.0141220092773438,"34":-1.0475537776947021,"35":-0.3869357407093048,"36":-1.442804217338562,"37":-0.2151212841272354}},"1":{"bias":-1.2319912910461426,"weights":{"0":-4.15766716003418,"1":-0.281730979681015,"2":-1.8875689506530762,"3":0.5,"4":-0.09824498742818832,"5":-0.12874530255794525,"6":3.0649054050445557,"7":-0.753058671951294,"8":-0.819179892539978,"9":-0.7021738290786743,"10":-6.417722702026367,"11":-0.9516153335571289,"12":-0.1963936984539032,"13":-0.14673425257205963,"14":-0.3454413414001465,"15":-0.3418043255805969,"16":-0.39351436495780945,"17":0.4259743392467499,"18":1.6743961572647095,"19":1.7635704278945923,"20":-0.05808185413479805,"21":-0.8906367421150208,"22":-0.016592971980571747,"23":-0.3007236421108246,"24":-0.15359912812709808,"25":2.8887622356414795,"26":1.317995548248291,"27":1.3044979572296143,"28":-1,"29":1.0922977924346924,"30":2.7579987049102783,"31":0.3815232813358307,"32":1.7365275621414185,"33":2.852619171142578,"34":-1.24771249294281,"35":0.5385945439338684,"36":2.487644910812378,"37":0.38651594519615173}},"2":{"bias":0.6027241349220276,"weights":{"0":-6.075423717498779,"1":0.11753946542739868,"2":-1.5832805633544922,"3":-0.6413445472717285,"4":-0.2845637798309326,"5":-0.2769733667373657,"6":-5.590919017791748,"7":-3.116919755935669,"8":-3.0995490550994873,"9":-3.1490416526794434,"10":-2.5725772380828857,"11":-3.2817981243133545,"12":-1.903192400932312,"13":0.920521080493927,"14":0.9149851202964783,"15":0.9315095543861389,"16":1.1726032495498657,"17":2.4324758052825928,"18":0.8693066239356995,"19":1.072672963142395,"20":-2,"21":-2.221104860305786,"22":0.8730817437171936,"23":0.9825401306152344,"24":1.6210237741470337,"25":-2.379629135131836,"26":-1.4840048551559448,"27":-1.5416280031204224,"28":-0.7275515198707581,"29":-1.1600713729858398,"30":-2.9840240478515625,"31":-0.3081139624118805,"32":-1.7423545122146606,"33":-2.977398157119751,"34":0.03973469138145447,"35":-0.032583724707365036,"36":-0.5,"37":-0.015521102584898472}},"3":{"bias":-1.1907153129577637,"weights":{"0":-4.694755554199219,"1":0.7477265000343323,"2":2.959080934524536,"3":-2.1335203647613525,"4":-0.29806405305862427,"5":-0.36586716771125793,"6":2.0873725414276123,"7":0.5254850387573242,"8":0.39678022265434265,"9":0.41835924983024597,"10":-6.400662899017334,"11":0.5,"12":0.42014017701148987,"13":0.9849382638931274,"14":0.8324598670005798,"15":1,"16":1,"17":0.13526414334774017,"18":-1.7714992761611938,"19":-1.6921104192733765,"20":3.256124973297119,"21":3.2809555530548096,"22":-0.5101816654205322,"23":-0.42296433448791504,"24":-0.8397126197814941,"25":0.28031209111213684,"26":1.2450255155563354,"27":1.2224704027175903,"28":2.445936679840088,"29":0.6142923831939697,"30":0.6274735927581787,"31":0.125,"32":0.04781126230955124,"33":0.5824799537658691,"34":0.41571423411369324,"35":-0.01551232673227787,"36":-0.6583267450332642,"37":-0.14849261939525604}},"4":{"bias":-0.25434410572052,"weights":{"0":-6.36348295211792,"1":0.8342167735099792,"2":2,"3":-1.5505001544952393,"4":-0.6011514067649841,"5":-0.681198239326477,"6":0.2987440824508667,"7":0.08350808173418045,"8":-0.12597715854644775,"9":-0.07195263355970383,"10":-3.4511654376983643,"11":-0.11312004178762436,"12":0.7708408236503601,"13":-1.7417768239974976,"14":-1.6339060068130493,"15":-1.7052043676376343,"16":-1.6791199445724487,"17":-0.679674506187439,"18":0.06031298264861107,"19":-0.17003537714481354,"20":-2.139252185821533,"21":-1.4024065732955933,"22":0.2335195690393448,"23":0.33868950605392456,"24":0.5073397159576416,"25":-2.2431159019470215,"26":0.43174755573272705,"27":0.26795417070388794,"28":-0.6370359063148499,"29":-0.5,"30":-1,"31":-0.14903858304023743,"32":-0.3492884635925293,"33":-1,"34":0.23971952497959137,"35":-0.14795807003974915,"36":-2.2222185134887695,"37":-0.22258101403713226}},"5":{"bias":-3.0136897563934326,"weights":{"0":-1.8987597227096558,"1":-0.2513941526412964,"2":-0.9240790009498596,"3":5.503695487976074,"4":0.5760945677757263,"5":0.7656674385070801,"6":-2.917569398880005,"7":-0.4143010079860687,"8":-0.5850757956504822,"9":-0.5344716906547546,"10":-1.1841782331466675,"11":0.5674041509628296,"12":0.06957705318927765,"13":0.31716227531433105,"14":0.25,"15":0.5,"16":0.5,"17":1,"18":3.232497215270996,"19":3.1672921180725098,"20":1.85343599319458,"21":0.0934404507279396,"22":-0.1836886703968048,"23":-0.09173755347728729,"24":-0.562954306602478,"25":-0.6399003863334656,"26":-0.3251173198223114,"27":-0.13237622380256653,"28":3.012824296951294,"29":1.108222246170044,"30":1.60575532913208,"31":0.5,"32":0.6228315830230713,"33":1.510136365890503,"34":3.9690451622009277,"35":0.018429169431328773,"36":0.15302962064743042,"37":0.04360133409500122}},"6":{"bias":-3.6557600498199463,"weights":{"0":-4.052457809448242,"1":0.2920195460319519,"2":-0.46250513195991516,"3":-1.449683666229248,"4":-0.3873053193092346,"5":-0.4630575180053711,"6":-1.2887850999832153,"7":2.0352916717529297,"8":2.1539459228515625,"9":2.0097057819366455,"10":2.8901755809783936,"11":3.022308111190796,"12":-0.05853569135069847,"13":1.693259835243225,"14":1.564239740371704,"15":1.5606358051300049,"16":1.6145527362823486,"17":-0.44589221477508545,"18":-1.2937207221984863,"19":-1.325232982635498,"20":-2.42253041267395,"21":-1.495281457901001,"22":-0.241178959608078,"23":0.04101121798157692,"24":-0.25,"25":-1.9374144077301025,"26":0.5,"27":0.5,"28":2.6517598628997803,"29":1.0496526956558228,"30":2.4380457401275635,"31":0.2602933645248413,"32":1.535162091255188,"33":2.350184679031372,"34":-1.1001120805740356,"35":0.07537674158811569,"36":-0.13531672954559326,"37":0.20110365748405457}},"7":{"bias":0.14319969713687897,"weights":{"0":-6.157257556915283,"1":-0.33945560455322266,"2":-2.9531333446502686,"3":5.2196831703186035,"4":0.13461284339427948,"5":0.03826001659035683,"6":-2.013368844985962,"7":-1.1722724437713623,"8":-1.1902210712432861,"9":-1.147175669670105,"10":-1.0265448093414307,"11":-1.2705013751983643,"12":-1.2953122854232788,"13":-1.083601474761963,"14":-1.039493441581726,"15":-1.197533130645752,"16":-1.0525407791137695,"17":-0.7051291465759277,"18":-2.2261908054351807,"19":-2.2192132472991943,"20":0.29895222187042236,"21":-0.10991249233484268,"22":0.6709187030792236,"23":0.8951473832130432,"24":1.2529151439666748,"25":1.452592134475708,"26":-1.625784993171692,"27":-1.6657037734985352,"28":-3.6254608631134033,"29":-0.024885179474949837,"30":1.0784251689910889,"31":0.42536261677742004,"32":1.005570650100708,"33":1.0601167678833008,"34":-3.4918692111968994,"35":-0.11869321018457413,"36":-2,"37":-0.10474302619695663}},"8":{"bias":-1.12857985496521,"weights":{"0":-5.071553707122803,"1":0.174521341919899,"2":-0.12803316116333008,"3":-0.7075985670089722,"4":-0.2756161391735077,"5":-0.23231498897075653,"6":-2.039663076400757,"7":1.732438325881958,"8":1.599773645401001,"9":1.7107813358306885,"10":-0.38632261753082275,"11":1.6406463384628296,"12":1,"13":0.5442730784416199,"14":0.8145836591720581,"15":0.687549889087677,"16":0.8104411363601685,"17":0.5465074181556702,"18":-0.5,"19":-0.4205124080181122,"20":-0.36355146765708923,"21":-0.02751954086124897,"22":-0.4676532447338104,"23":-0.07367584109306335,"24":-0.6257399916648865,"25":-1.8532578945159912,"26":-0.1841609627008438,"27":-0.4955545961856842,"28":-1.9999271631240845,"29":1,"30":2.5876054763793945,"31":0.510525643825531,"32":1.5785969495773315,"33":2.4140026569366455,"34":3.1531596183776855,"35":0.740324854850769,"36":3.704003095626831,"37":0.6735884547233582}},"9":{"bias":-1.2107652425765991,"weights":{"0":-3.4815523624420166,"1":-0.13088053464889526,"2":-1.3438644409179688,"3":4.398488521575928,"4":0.33913013339042664,"5":0.3895014524459839,"6":-4.68129301071167,"7":2,"8":2,"9":2,"10":-1.2356979846954346,"11":2,"12":3.8337454795837402,"13":-1.4558320045471191,"14":-1.40762460231781,"15":-1.3809242248535156,"16":-1.485466718673706,"17":-0.615555465221405,"18":3.502368211746216,"19":3.50008487701416,"20":2.780369997024536,"21":2.802544355392456,"22":0.07542385905981064,"23":-0.001431504264473915,"24":-0.04385090619325638,"25":-0.8210871815681458,"26":-0.41835054755210876,"27":-0.5396726727485657,"28":-0.36427661776542664,"29":0.3515278398990631,"30":0.5687954425811768,"31":0.09992720186710358,"32":0.2823241949081421,"33":0.6957213282585144,"34":-1.022445559501648,"35":-0.045522768050432205,"36":-0.08200722187757492,"37":0.09144102036952972}},"10":{"bias":-1.8361444473266602,"weights":{"0":-4.553047180175781,"1":-0.348129540681839,"2":-1.6123790740966797,"3":-1.0194642543792725,"4":-0.4245094656944275,"5":-0.5,"6":-2.0847177505493164,"7":0.8558359742164612,"8":0.5665053129196167,"9":0.5858544111251831,"10":1.1479270458221436,"11":0.4259827136993408,"12":-0.5982522964477539,"13":1.829276204109192,"14":1.7666232585906982,"15":2.0553483963012695,"16":2.008945941925049,"17":0.35617417097091675,"18":2,"19":2,"20":3.2546029090881348,"21":2.2185182571411133,"22":-0.4279797077178955,"23":-0.4076995849609375,"24":-0.6847623586654663,"25":2.314129114151001,"26":-0.693584144115448,"27":-0.6700692772865295,"28":-1.7173504829406738,"29":-0.5143675804138184,"30":-0.42700108885765076,"31":0.0634598582983017,"32":0.13979049026966095,"33":-0.18291981518268585,"34":1.9333738088607788,"35":0.22917881608009338,"36":2.322230815887451,"37":0.340198814868927}},"11":{"bias":-2.575310230255127,"weights":{"0":-4.0826544761657715,"1":0.6978976726531982,"2":3.04046893119812,"3":-0.25,"4":-0.15574589371681213,"5":-0.06707434356212616,"6":-1.6938602924346924,"7":2,"8":2.0042781829833984,"9":2,"10":1.308909296989441,"11":2.1943178176879883,"12":0.5880786776542664,"13":0.7350909113883972,"14":0.6973596215248108,"15":0.6010452508926392,"16":0.6500989198684692,"17":-0.3477669954299927,"18":0.46321868896484375,"19":0.42014968395233154,"20":-2.4504096508026123,"21":-1.633895993232727,"22":-0.1435888409614563,"23":-0.1432962566614151,"24":-0.30450060963630676,"25":0.1733102649450302,"26":-1.033795952796936,"27":-1.126380205154419,"28":3.4359049797058105,"29":0.37831005454063416,"30":-0.03168242797255516,"31":-0.08379064500331879,"32":-0.25,"33":-0.1205921322107315,"34":0.5099034309387207,"35":-0.0625,"36":-0.6284021735191345,"37":-0.1967606395483017}},"12":{"bias":-1.2216944694519043,"weights":{"0":-3.9998459815979004,"1":0.5160733461380005,"2":1.760903239250183,"3":5.6019816398620605,"4":0.5351814031600952,"5":0.5904862880706787,"6":-4,"7":2,"8":2.1051838397979736,"9":2,"10":-1.75607168674469,"11":2.1834957599639893,"12":2.371178150177002,"13":-0.9408208727836609,"14":-0.9609622955322266,"15":-1.114532232284546,"16":-1.093617558479309,"17":-0.5939801335334778,"18":-0.5,"19":-0.500170886516571,"20":2.2998859882354736,"21":2.444108009338379,"22":-0.28887590765953064,"23":-0.2309197336435318,"24":-0.2468978762626648,"25":0.9742081761360168,"26":1.2758400440216064,"27":1.3700683116912842,"28":0.2278902381658554,"29":-0.25,"30":-0.8582348227500916,"31":-0.2559560239315033,"32":-0.5309027433395386,"33":-0.725342333316803,"34":1.5497854948043823,"35":0.34102946519851685,"36":1.4762064218521118,"37":0.11625785380601883}},"13":{"bias":-1.6007931232452393,"weights":{"0":-2.476306438446045,"1":0.5056886076927185,"2":2.484346389770508,"3":4,"4":1.1838922500610352,"5":1.2564715147018433,"6":-4.938910961151123,"7":-1.7948839664459229,"8":-1.8829843997955322,"9":-1.8789104223251343,"10":-1.001059889793396,"11":-0.6677468419075012,"12":-1.638778567314148,"13":3.8755099773406982,"14":3.9230778217315674,"15":3.8823726177215576,"16":3.9436371326446533,"17":4.72467565536499,"18":0.49930012226104736,"19":0.5,"20":1.0595320463180542,"21":-0.5,"22":-0.4543077349662781,"23":-0.4548925757408142,"24":-0.7225387096405029,"25":3.045602321624756,"26":2.0682034492492676,"27":1.903289794921875,"28":1.4457135200500488,"29":0.5643483400344849,"30":1.0527102947235107,"31":0.25,"32":0.5568755865097046,"33":1.0674980878829956,"34":0.17340736091136932,"35":0.25,"36":1,"37":0.25}},"14":{"bias":0.22659695148468018,"weights":{"0":-4.451877117156982,"1":0.026210926473140717,"2":-0.10961545258760452,"3":0.5,"4":0.5,"5":0.5363706946372986,"6":-0.7191519737243652,"7":-1.6250982284545898,"8":-1.5190708637237549,"9":-1.6662434339523315,"10":-5.75255012512207,"11":-0.8664688467979431,"12":0.20830009877681732,"13":-1.4382275342941284,"14":-1.227948784828186,"15":-1.39976966381073,"16":-1.2986066341400146,"17":0.2821418344974518,"18":-1.5418165922164917,"19":-1.5271787643432617,"20":2,"21":-0.18675588071346283,"22":0.6523786783218384,"23":0.686552882194519,"24":0.9569479823112488,"25":2,"26":-1.4708316326141357,"27":-1.2908508777618408,"28":2,"29":0.24131402373313904,"30":-0.9279182553291321,"31":0.19711239635944366,"32":-1,"33":-1.0217002630233765,"34":-2.464933156967163,"35":0.07733672857284546,"36":-0.5592906475067139,"37":0.17407554388046265}},"15":{"bias":-1.401999592781067,"weights":{"0":-4.534241199493408,"1":-0.32341939210891724,"2":-1.4005459547042847,"3":-0.3095559775829315,"4":-0.25194740295410156,"5":-0.08765096217393875,"6":-0.7306796908378601,"7":0.43111011385917664,"8":0.29385337233543396,"9":0.6513933539390564,"10":-1.4832173585891724,"11":0.4779704809188843,"12":-0.08950195461511612,"13":1.334539771080017,"14":1.5566728115081787,"15":1.2908378839492798,"16":1.599703311920166,"17":0.9284312725067139,"18":2.1545355319976807,"19":2,"20":2,"21":1.6536157131195068,"22":-0.5240700840950012,"23":-0.5299844145774841,"24":-0.859359085559845,"25":2.6628732681274414,"26":0.7746821641921997,"27":0.9439675807952881,"28":3.0787460803985596,"29":0.34050053358078003,"30":-0.5998075008392334,"31":0.12895958125591278,"32":-0.589794933795929,"33":-0.5764522552490234,"34":-1.1770875453948975,"35":0.6823438405990601,"36":3.3063504695892334,"37":0.45640456676483154}},"16":{"bias":0.2396433800458908,"weights":{"0":-4.495674133300781,"1":0.4750794768333435,"2":2.205160617828369,"3":-0.2684819996356964,"4":0.5535448789596558,"5":0.2643062472343445,"6":-4.748508930206299,"7":-1.641329288482666,"8":-1.7828876972198486,"9":-1.7879464626312256,"10":-1.9999213218688965,"11":-0.9999999403953552,"12":-0.11220163106918335,"13":-0.1503574401140213,"14":-0.10513050854206085,"15":-0.16968637704849243,"16":0.16972126066684723,"17":2,"18":1.7184135913848877,"19":1.6730866432189941,"20":3.0036420822143555,"21":1.8621872663497925,"22":0.4815264046192169,"23":0.4027502238750458,"24":0.6029754281044006,"25":-2.107962131500244,"26":1.0790925025939941,"27":1.1031442880630493,"28":-1.5728744268417358,"29":0.9216168522834778,"30":2,"31":0.4156467616558075,"32":1.1984702348709106,"33":2,"34":-1.3001707792282104,"35":-0.3330385684967041,"36":-1.9145045280456543,"37":-0.29389646649360657}},"17":{"bias":-2.03493070602417,"weights":{"0":-3.9993817806243896,"1":0.8195076584815979,"2":2.296579599380493,"3":-0.5344268679618835,"4":-0.023890754207968712,"5":-0.1825772225856781,"6":-3.2081916332244873,"7":-0.5,"8":-0.5,"9":-0.5,"10":-1.9840010404586792,"11":-0.2499999850988388,"12":1.0723127126693726,"13":-1.383684515953064,"14":-1.3549612760543823,"15":-1.308526873588562,"16":-1.371161937713623,"17":-0.39318913221359253,"18":0.6664911508560181,"19":0.5757485628128052,"20":0.5,"21":-0.15011055767536163,"22":0.32956501841545105,"23":0.15400899946689606,"24":0.3814312815666199,"25":-2.0920557975769043,"26":1.2813465595245361,"27":1.5169519186019897,"28":1,"29":0.5363280773162842,"30":0.6470174789428711,"31":0.12911130487918854,"32":0.4774850904941559,"33":0.9338847994804382,"34":1.6774623394012451,"35":0.0625,"36":-0.846310555934906,"37":-0.2433709353208542}},"18":{"bias":-2.569232225418091,"weights":{"0":-3.999999761581421,"1":0.7423889636993408,"2":4.355592727661133,"3":-1.3358134031295776,"4":-0.20327173173427582,"5":-0.1785300374031067,"6":-3.254335880279541,"7":1.7123098373413086,"8":1.67414391040802,"9":1.6470208168029785,"10":-1.3965394496917725,"11":1.3261505365371704,"12":2.4185330867767334,"13":-0.912647008895874,"14":-0.7267003059387207,"15":-0.8027446866035461,"16":-0.7870422005653381,"17":-0.6593974232673645,"18":2.1657872200012207,"19":2.3934645652770996,"20":1.358978033065796,"21":2,"22":-0.1965479701757431,"23":-0.081523098051548,"24":-0.11441364139318466,"25":0.7026883959770203,"26":-0.9838928580284119,"27":-0.6518337726593018,"28":-1.1088509559631348,"29":-0.7891789078712463,"30":-1.1404985189437866,"31":-0.18473213911056519,"32":-0.6854961514472961,"33":-1.0877419710159302,"34":-1.7152152061462402,"35":-0.4020228087902069,"36":-1.6536928415298462,"37":-0.42380890250205994}},"19":{"bias":-1.5078926086425781,"weights":{"0":-3.5700762271881104,"1":0.41641318798065186,"2":-0.3850565552711487,"3":5.353512287139893,"4":0.271154522895813,"5":0.2450934499502182,"6":-1.78157639503479,"7":-0.5,"8":-0.5,"9":-0.5944943428039551,"10":-2.549755334854126,"11":-0.19621045887470245,"12":0.1119380071759224,"13":-0.7990061044692993,"14":-0.5968906879425049,"15":-0.6266964077949524,"16":-0.7582446932792664,"17":0.19428212940692902,"18":-1.1800678968429565,"19":-1.1676766872406006,"20":3.2062811851501465,"21":2.6005806922912598,"22":0.04805340617895126,"23":0.25,"24":0.27805963158607483,"25":-1.3955507278442383,"26":-0.9227800965309143,"27":-1.0178532600402832,"28":3.5098564624786377,"29":0.6929976940155029,"30":-0.30554699897766113,"31":-0.014111942611634731,"32":-0.5,"33":-0.367586225271225,"34":0.5266724228858948,"35":0.5056116580963135,"36":2.781308174133301,"37":0.5642476081848145}},"20":{"bias":-3.086130142211914,"weights":{"0":-0.8958038091659546,"1":0.45505020022392273,"2":1.555402398109436,"3":-2.4405412673950195,"4":-0.3811592757701874,"5":-0.21742697060108185,"6":-3.377556562423706,"7":0.29701733589172363,"8":0.3594859838485718,"9":0.3796199560165405,"10":-0.6680753231048584,"11":0.5179639458656311,"12":2,"13":-0.32860949635505676,"14":-0.5119261741638184,"15":-0.43839532136917114,"16":-0.5441792011260986,"17":-0.21395668387413025,"18":-0.0786483958363533,"19":0.09276267141103745,"20":-0.11930005997419357,"21":-0.1096683144569397,"22":0.19633883237838745,"23":0.33203497529029846,"24":0.41727057099342346,"25":-1.2111128568649292,"26":-0.5302197933197021,"27":-0.7071101069450378,"28":-1.3974040746688843,"29":-0.7863909602165222,"30":-1,"31":-0.04860794171690941,"32":-0.4049922823905945,"33":-0.9981374144554138,"34":-1.5549123287200928,"35":0.42460790276527405,"36":1.0149340629577637,"37":0.5}},"21":{"bias":-2.3885390758514404,"weights":{"0":-2.1805777549743652,"1":0.13020123541355133,"2":0.9161403179168701,"3":0.28049179911613464,"4":0.47458142042160034,"5":0.5,"6":-3.377703905105591,"7":-0.603216826915741,"8":-0.5536631345748901,"9":-0.5145494937896729,"10":-1.0000004768371582,"11":0.3909873366355896,"12":0.4301278591156006,"13":-0.27603986859321594,"14":-0.2864581346511841,"15":-0.3736780285835266,"16":0.09318550676107407,"17":0.8077518343925476,"18":-1.9066370725631714,"19":-1.9406224489212036,"20":2.3481478691101074,"21":2,"22":0.4748895466327667,"23":0.5,"24":0.8098629117012024,"25":2,"26":0.0119326775893569,"27":-0.3885251581668854,"28":-1.8633668422698975,"29":-0.797559916973114,"30":-0.9759803414344788,"31":0.0043150014244019985,"32":-0.38310593366622925,"33":-1.0326285362243652,"34":3.5930402278900146,"35":0.18502771854400635,"36":-0.012166709639132023,"37":0.10788775980472565}},"22":{"bias":-2.4327778816223145,"weights":{"0":-2.1203060150146484,"1":0.7463516592979431,"2":2.8249990940093994,"3":4.227349281311035,"4":0.8126963376998901,"5":0.6472192406654358,"6":3.9380977153778076,"7":0.14146670699119568,"8":0.1889811009168625,"9":0.06316348165273666,"10":-7.406493663787842,"11":-0.723842442035675,"12":0.11615271866321564,"13":1,"14":1.2541093826293945,"15":1,"16":1.3169238567352295,"17":0.6577157974243164,"18":3.0448997020721436,"19":3.0621273517608643,"20":-1.4464490413665771,"21":-1.6625242233276367,"22":-0.752277672290802,"23":-0.6535444259643555,"24":-1.105296015739441,"25":1.5265432596206665,"26":0.14169366657733917,"27":0.3532603979110718,"28":0.8032343983650208,"29":0.07004246115684509,"30":0.4886239469051361,"31":0.125,"32":0.1302386224269867,"33":0.23951756954193115,"34":1.8944785594940186,"35":0.5695586800575256,"36":2.0649755001068115,"37":0.5}},"23":{"bias":-1.0595066547393799,"weights":{"0":-3.4068355560302734,"1":0.1898404061794281,"2":2.3067994117736816,"3":-1.1891456842422485,"4":0.10184697061777115,"5":-0.02579757571220398,"6":-4.153979778289795,"7":0.3182419240474701,"8":0.31736689805984497,"9":0.41949692368507385,"10":-1.5205750465393066,"11":0.45868968963623047,"12":2.4116051197052,"13":-1.08620285987854,"14":-1.0307999849319458,"15":-1.0090861320495605,"16":-1.168351650238037,"17":-0.5224394202232361,"18":-1.1755671501159668,"19":-1.041915774345398,"20":-0.8381718397140503,"21":-0.7671753168106079,"22":0.07659320533275604,"23":0.24991413950920105,"24":0.1671781986951828,"25":2.508887529373169,"26":-0.8721921443939209,"27":-1.0232659578323364,"28":-0.8452040553092957,"29":1.122389793395996,"30":2.695387601852417,"31":0.42454639077186584,"32":1.7769089937210083,"33":2.676995038986206,"34":2.617455244064331,"35":-0.4596754312515259,"36":-2.1599364280700684,"37":-0.4450913369655609}},"24":{"bias":-3.2132089138031006,"weights":{"0":-1.9872130155563354,"1":0.15956175327301025,"2":0.9180357456207275,"3":-0.15863271057605743,"4":-0.14209580421447754,"5":-0.15501312911510468,"6":-2.048826217651367,"7":-0.3964083790779114,"8":-0.3164444863796234,"9":-0.2705463469028473,"10":-1.2698546648025513,"11":-0.22811384499073029,"12":-0.3504285514354706,"13":0.6256198287010193,"14":0.23007585108280182,"15":0.2916545271873474,"16":0.5848761796951294,"17":0.42170578241348267,"18":-0.125,"19":-0.2967555820941925,"20":-0.4313276708126068,"21":-0.8082708120346069,"22":0.20405720174312592,"23":0.24359102547168732,"24":-0.008985212072730064,"25":-0.13839426636695862,"26":-0.7408105134963989,"27":-0.8589686751365662,"28":-1.1739461421966553,"29":-0.6981750130653381,"30":-0.6442127823829651,"31":-0.20004203915596008,"32":-0.3547865152359009,"33":-0.7473891973495483,"34":0.8497505784034729,"35":0.697102963924408,"36":3.801356554031372,"37":0.6767303347587585}},"25":{"bias":-4.015094757080078,"weights":{"0":-4,"1":-0.38660284876823425,"2":-2.308166980743408,"3":4.727494716644287,"4":-0.8623015880584717,"5":-0.9569754004478455,"6":-0.12547840178012848,"7":1.7385780811309814,"8":1.980297327041626,"9":1.7844318151474,"10":2.0958809852600098,"11":1.2450922727584839,"12":-1,"13":2,"14":2,"15":1.8851317167282104,"16":1.9838978052139282,"17":-0.4677821695804596,"18":1.3048416376113892,"19":1.4862395524978638,"20":-0.175620436668396,"21":0.7478867173194885,"22":-0.17199578881263733,"23":-0.22352926433086395,"24":-0.47701266407966614,"25":0.16070406138896942,"26":1.6298069953918457,"27":1.7807261943817139,"28":-0.8898490071296692,"29":0.29499155282974243,"30":1.132681131362915,"31":0.028518425300717354,"32":0.6259011030197144,"33":1.2269796133041382,"34":2.1067750453948975,"35":-0.3170512914657593,"36":-1.028026819229126,"37":-0.02649030275642872}},"26":{"bias":-1.8990644216537476,"weights":{"0":-4.1310296058654785,"1":0.0077643441036343575,"2":0.5820180177688599,"3":0.04542934149503708,"4":-0.008137263357639313,"5":0.08439662307500839,"6":-3.1757287979125977,"7":1.233146071434021,"8":1.0700404644012451,"9":1.219147801399231,"10":0.8941318988800049,"11":1.3188047409057617,"12":0.6339545845985413,"13":0.31456902623176575,"14":0.5,"15":0.5235037207603455,"16":0.6322851777076721,"17":0.081466443836689,"18":-1.4674586057662964,"19":-1.517065167427063,"20":-2.175673246383667,"21":-1.3815752267837524,"22":0.7011235952377319,"23":0.9217424392700195,"24":1.5077320337295532,"25":-0.5984461903572083,"26":0.31966742873191833,"27":0.42300906777381897,"28":-1.5323117971420288,"29":-1.0522005558013916,"30":-1.9697346687316895,"31":-0.6068690419197083,"32":-1.1028436422348022,"33":-1.9596338272094727,"34":-1.996438980102539,"35":0.03125,"36":-1.2877554893493652,"37":-0.23765818774700165}},"27":{"bias":-2.6662285327911377,"weights":{"0":-3.670618772506714,"1":0.25,"2":0.2750277519226074,"3":7.2455010414123535,"4":0.560291051864624,"5":0.42350155115127563,"6":2.342698812484741,"7":-0.5845175385475159,"8":-0.25039201974868774,"9":-0.2083432525396347,"10":-2.4010214805603027,"11":-0.24962878227233887,"12":-1.0245569944381714,"13":1.935248851776123,"14":2,"15":1.9747331142425537,"16":2,"17":1.1976498365402222,"18":-0.7913820743560791,"19":-0.7069551348686218,"20":-0.0275051798671484,"21":-0.517188310623169,"22":0.8224630355834961,"23":0.40575525164604187,"24":0.8119744658470154,"25":-2.0571129322052,"26":0.25,"27":0.1456761658191681,"28":-0.25,"29":-0.5901228785514832,"30":-1.5072393417358398,"31":-0.42764824628829956,"32":-0.9850729703903198,"33":-1.525931715965271,"34":-1.8291517496109009,"35":-0.29345715045928955,"36":-2.061445713043213,"37":-0.4980918765068054}},"28":{"bias":-0.4751772880554199,"weights":{"0":-4.766458511352539,"1":-0.1320934295654297,"2":-1.7238044738769531,"3":1.4256079196929932,"4":-0.19046050310134888,"5":-0.22687165439128876,"6":-4.739335536956787,"7":0.4305766224861145,"8":0.3279167115688324,"9":0.3604966700077057,"10":-1.4994628429412842,"11":0.40145525336265564,"12":2.373610734939575,"13":-1.8061567544937134,"14":-1.811292290687561,"15":-1.7435559034347534,"16":-1.59743332862854,"17":-1,"18":-1.4755889177322388,"19":-1.5097711086273193,"20":-1.1976704597473145,"21":-1.1371533870697021,"22":0.6667318940162659,"23":0.7887516617774963,"24":1.201136589050293,"25":-2.3294472694396973,"26":1.603661298751831,"27":1.6150271892547607,"28":-0.823859453201294,"29":0.08856873959302902,"30":-0.31716495752334595,"31":0.25,"32":-0.23629622161388397,"33":-0.398398220539093,"34":-2.526205539703369,"35":0.5494571328163147,"36":2.222196102142334,"37":0.5217379927635193}},"29":{"bias":-0.8284528851509094,"weights":{"0":-4.503117084503174,"1":-0.2659260034561157,"2":-1.2236319780349731,"3":3.2848942279815674,"4":0.14194345474243164,"5":0.07265827059745789,"6":-4.735424518585205,"7":2,"8":2,"9":2,"10":-1.6125569343566895,"11":2.0428242683410645,"12":3.087960720062256,"13":-1.2453997135162354,"14":-1.255959153175354,"15":-1.2431141138076782,"16":-1.303387999534607,"17":-1.0855640172958374,"18":0.5,"19":0.5,"20":-2,"21":-1.0569134950637817,"22":0.39220088720321655,"23":0.3293689787387848,"24":0.5,"25":3.4524338245391846,"26":1.88688325881958,"27":1.671976923942566,"28":1.5789954662322998,"29":-0.3829527497291565,"30":-1.6151137351989746,"31":-0.4895275831222534,"32":-1.026092290878296,"33":-1.7274092435836792,"34":1.4854350090026855,"35":-0.10665658116340637,"36":-0.2204645872116089,"37":-0.04797635227441788}}},{"0":{"bias":-0.723418116569519,"weights":{"0":4.497349262237549,"1":-2.706148862838745,"2":-2.7819442749023438,"3":-0.4227149784564972,"4":-8,"5":0.08970563113689423,"6":-13.9940767288208,"7":-6.840004920959473,"8":-3.5109732151031494,"9":-0.3045893609523773,"10":-6.703063488006592,"11":-6.668444633483887,"12":-0.8739465475082397,"13":4.546218395233154,"14":3.4260106086730957,"15":-3.208280086517334,"16":2.647137403488159,"17":-2.8336284160614014,"18":-3.59554386138916,"19":-2.1013033390045166,"20":5.78590202331543,"21":2.9267349243164062,"22":0.8451474905014038,"23":3.217130184173584,"24":0.9473518133163452,"25":-12.37403392791748,"26":-1.0113688707351685,"27":-7.526463508605957,"28":-0.500505268573761,"29":-0.8327651023864746}},"1":{"bias":0.16372789442539215,"weights":{"0":4.444818496704102,"1":-3.1756129264831543,"2":-1.952335000038147,"3":0.7896450161933899,"4":-3.7046451568603516,"5":-0.028317496180534363,"6":-16,"7":-7.999837875366211,"8":-3.9999117851257324,"9":-0.37416359782218933,"10":-8,"11":-5.522352695465088,"12":-0.4441438913345337,"13":4.61767578125,"14":3.4621076583862305,"15":-4,"16":2.765872001647949,"17":-0.1303487867116928,"18":3.0973334312438965,"19":-1.9995858669281006,"20":5.766690254211426,"21":2.9197466373443604,"22":1.0634196996688843,"23":3.474691152572632,"24":1.0000017881393433,"25":-16,"26":-0.8910284042358398,"27":-8.000442504882812,"28":-0.573049008846283,"29":-0.8738808035850525}},"2":{"bias":-6.946526050567627,"weights":{"0":-3.1384828090667725,"1":-1.5501712560653687,"2":-1.2635393142700195,"3":-3.6470491886138916,"4":-2.3564951419830322,"5":4,"6":-3.989919424057007,"7":2.0495004653930664,"8":-2.337670087814331,"9":3.2857422828674316,"10":-2.8065378665924072,"11":-1.1226338148117065,"12":4,"13":2,"14":-1.4355685710906982,"15":-1.7713277339935303,"16":-2.3845250606536865,"17":-1.3423360586166382,"18":-2.0057601928710938,"19":4.108682632446289,"20":-3.968993663787842,"21":-1,"22":2.606471061706543,"23":-1.9285249710083008,"24":-1.0774520635604858,"25":1.373294472694397,"26":-0.743269145488739,"27":4,"28":-0.426322877407074,"29":1.176243782043457}},"3":{"bias":-6.821475505828857,"weights":{"0":-2.662381649017334,"1":5.58792781829834,"2":-1.3203821182250977,"3":3.2149665355682373,"4":4.853890895843506,"5":-1.9127084016799927,"6":-4.662891864776611,"7":0.6713986396789551,"8":-1.0182934999465942,"9":-2.1647822856903076,"10":-3.1152377128601074,"11":-2.497164487838745,"12":-1.627370834350586,"13":-3.663785219192505,"14":0.8563401699066162,"15":0.45617014169692993,"16":-1.6976022720336914,"17":-0.742351233959198,"18":-0.5,"19":-0.5,"20":-2.705500364303589,"21":-1.3728814125061035,"22":4,"23":-1.1613671779632568,"24":-1.143166422843933,"25":-2.108156204223633,"26":-3.9787416458129883,"27":3.3370018005371094,"28":-1.7661792039871216,"29":-2.0366408824920654}},"4":{"bias":-6.049794673919678,"weights":{"0":-1.6556001901626587,"1":-2.156951665878296,"2":-5.389246940612793,"3":-2.0000016689300537,"4":3.142195224761963,"5":-3.96913743019104,"6":16.169116973876953,"7":6.696926593780518,"8":3.4516594409942627,"9":-0.5632228851318359,"10":9.222711563110352,"11":8.422538757324219,"12":-0.5556458234786987,"13":-9.250628471374512,"14":-5.268518447875977,"15":3.2228786945343018,"16":-5.443718433380127,"17":-0.9131937026977539,"18":2.188727855682373,"19":-2.959228038787842,"20":-1.9792481660842896,"21":-2.9730374813079834,"22":-3.9937684535980225,"23":-2,"24":-0.9203881621360779,"25":18.18474769592285,"26":3.17793869972229,"27":9.09257984161377,"28":-0.2861477732658386,"29":3.7107527256011963}},"5":{"bias":-6.002484321594238,"weights":{"0":-2.0014915466308594,"1":-2.0763351917266846,"2":3.996239185333252,"3":-2.143523693084717,"4":3.1911842823028564,"5":-3.4837939739227295,"6":16.1770076751709,"7":6.703731536865234,"8":3.4604392051696777,"9":-6.452413558959961,"10":9.23474407196045,"11":8.411623001098633,"12":-5.120870113372803,"13":1.9565021991729736,"14":-5.706086158752441,"15":3.230508327484131,"16":-4.185482978820801,"17":-2.0583879947662354,"18":-1.602124810218811,"19":-2.4907619953155518,"20":-3.2483911514282227,"21":-3.0948445796966553,"22":-3.8160011768341064,"23":-4.114358901977539,"24":-0.9012613296508789,"25":18.192136764526367,"26":3.190946340560913,"27":9.10251522064209,"28":-3.9999494552612305,"29":-4.208523750305176}},"6":{"bias":-7.0410614013671875,"weights":{"0":-1.104053020477295,"1":2,"2":3.5200061798095703,"3":-4.0797624588012695,"4":1.9380214214324951,"5":2.5564591884613037,"6":-2.641373872756958,"7":-2.6157073974609375,"8":-1.5351723432540894,"9":4.194126605987549,"10":1.9653651714324951,"11":-0.8541427254676819,"12":-1.7452497482299805,"13":-2.3393733501434326,"14":-2.1778676509857178,"15":2,"16":2.3618807792663574,"17":1.606740117073059,"18":3.4169442653656006,"19":-2.639288902282715,"20":-0.974611222743988,"21":-4.3422932624816895,"22":2,"23":-2.0678014755249023,"24":-1.125870704650879,"25":-0.062499985098838806,"26":-3.2185604572296143,"27":-2.3060882091522217,"28":-2.18908953666687,"29":0.3614370822906494}},"7":{"bias":-6.925499439239502,"weights":{"0":-2.616025447845459,"1":-1.5943809747695923,"2":-2,"3":4.197208404541016,"4":-1.484320044517517,"5":-1.5820420980453491,"6":-2.7437140941619873,"7":1.2586734294891357,"8":-1.1733181476593018,"9":2.8286378383636475,"10":2.4930200576782227,"11":-3.419604539871216,"12":2.393172025680542,"13":-2.5035042762756348,"14":-0.25,"15":1.3081307411193848,"16":2.1960976123809814,"17":0.0987466499209404,"18":2.600968360900879,"19":3.5260753631591797,"20":-1.031420350074768,"21":2,"22":-4.968274116516113,"23":-1.3378205299377441,"24":-1.777971625328064,"25":-0.25,"26":-3.1431195735931396,"27":-2,"28":-1.4628254175186157,"29":-2.1089060306549072}},"8":{"bias":-6.860515117645264,"weights":{"0":-5.703812599182129,"1":-0.9999998807907104,"2":10.882940292358398,"3":-2.1835296154022217,"4":7.564461708068848,"5":-3.9979701042175293,"6":-2.449418544769287,"7":8,"8":-2.8291053771972656,"9":-1.2466177940368652,"10":-3.1202778816223145,"11":-1.8530604839324951,"12":-1.146714687347412,"13":-5.249833583831787,"14":4.882766246795654,"15":-3.799687147140503,"16":-0.9999997615814209,"17":3.1618452072143555,"18":-0.5917216539382935,"19":-0.7609485983848572,"20":0.1727984994649887,"21":-0.30933234095573425,"22":-5.027228355407715,"23":-0.528640866279602,"24":-0.5560079216957092,"25":-3.7921900749206543,"26":1.7997081279754639,"27":-1,"28":5.516153335571289,"29":-0.9321429133415222}},"9":{"bias":-6.933255195617676,"weights":{"0":-1.800890326499939,"1":3.203584909439087,"2":-1.285706877708435,"3":-1,"4":-1.8184309005737305,"5":-1.8987959623336792,"6":-2.640936851501465,"7":3.112619161605835,"8":-3.00555157661438,"9":-1.6026612520217896,"10":2,"11":-0.44852590560913086,"12":-0.24999994039535522,"13":0.38256484270095825,"14":2,"15":2,"16":-2.8609139919281006,"17":-2.0961859226226807,"18":0.8120413422584534,"19":-1.9243897199630737,"20":-2.422642707824707,"21":1,"22":-1.4968684911727905,"23":2.917703628540039,"24":-0.8429065942764282,"25":-0.4269227981567383,"26":-1.6409306526184082,"27":-4.072889804840088,"28":-2.878525733947754,"29":4.303574085235596}},"10":{"bias":-6.877340316772461,"weights":{"0":-3.450467586517334,"1":1.8200467824935913,"2":-1.753243088722229,"3":1.071914553642273,"4":1.7829698324203491,"5":-1.4321906566619873,"6":-0.5237177014350891,"7":-2.561105966567993,"8":-1.4768390655517578,"9":-1.9051461219787598,"10":-1.7760677337646484,"11":-2.533172369003296,"12":1.950350284576416,"13":2.250891923904419,"14":-3.3644192218780518,"15":0.071299709379673,"16":2,"17":2.97050404548645,"18":-1.4226425886154175,"19":-2.1023693084716797,"20":-1.9609729051589966,"21":-1.1484570503234863,"22":-2,"23":-1.8142038583755493,"24":-2.129716634750366,"25":-0.15007410943508148,"26":-1.0293408632278442,"27":-1.455414056777954,"28":3.231229305267334,"29":2.8227035999298096}},"11":{"bias":-6.906750202178955,"weights":{"0":-1.683432698249817,"1":-1.4322725534439087,"2":2.1739230155944824,"3":2,"4":0.4471953213214874,"5":1.9111130237579346,"6":3.1322343349456787,"7":-3.4848153591156006,"8":-3.2101852893829346,"9":-2,"10":-2.6987102031707764,"11":3.163125514984131,"12":-1,"13":-0.49999991059303284,"14":3.089282751083374,"15":2.7660529613494873,"16":-2,"17":1,"18":-1.1652237176895142,"19":4.648412227630615,"20":-2.5493249893188477,"21":-3.2025227546691895,"22":-1.6461856365203857,"23":-1.0903472900390625,"24":-2.0695531368255615,"25":-1.6947963237762451,"26":-2.800339937210083,"27":-1.81648588180542,"28":-0.5397688150405884,"29":1.3732789754867554}},"12":{"bias":-7.1436944007873535,"weights":{"0":2,"1":4,"2":-2.9662630558013916,"3":-0.38418474793434143,"4":-0.15793022513389587,"5":0.8281305432319641,"6":3.061678886413574,"7":3.822455883026123,"8":2.562804698944092,"9":0.1453491747379303,"10":-1.2807124853134155,"11":-0.9566559791564941,"12":-2.324427366256714,"13":-0.48977425694465637,"14":-2,"15":-2.5752758979797363,"16":3.2956998348236084,"17":1.4644782543182373,"18":-1.9236468076705933,"19":-0.9488855004310608,"20":-2.396531581878662,"21":-2.552450656890869,"22":-2.0294744968414307,"23":4.796504020690918,"24":-2.0506725311279297,"25":-0.0894702896475792,"26":-4.484043598175049,"27":-4.578335762023926,"28":0.18931405246257782,"29":-3.643921375274658}},"13":{"bias":-6.8815107345581055,"weights":{"0":-3.3614370822906494,"1":-1.6838467121124268,"2":2.8972511291503906,"3":-0.5927171111106873,"4":2.098468542098999,"5":2,"6":-1.8016875982284546,"7":-2.6411757469177246,"8":2.978067636489868,"9":-1.9837651252746582,"10":1.6845903396606445,"11":-0.2499999850988388,"12":1.1715021133422852,"13":-2.2194972038269043,"14":-3.3946690559387207,"15":-2.327197313308716,"16":-1.5826002359390259,"17":2.2507121562957764,"18":-1.762556552886963,"19":0.49504369497299194,"20":-2.6903719902038574,"21":3.844330310821533,"22":-0.34259217977523804,"23":3.2613112926483154,"24":0.29582837224006653,"25":1.251835823059082,"26":-3.0283894538879395,"27":-3.289896249771118,"28":-2.6916184425354004,"29":2}},"14":{"bias":-6.879726409912109,"weights":{"0":-3.555328369140625,"1":2.4664883613586426,"2":2,"3":-1.9903496503829956,"4":-1.5148769617080688,"5":-1.2736936807632446,"6":-0.9839356541633606,"7":-0.8376730680465698,"8":4,"9":-1.0321959257125854,"10":2,"11":-1.7395132780075073,"12":0.5720324516296387,"13":-1.3854955434799194,"14":-0.9999999403953552,"15":2.807363986968994,"16":-2.582916021347046,"17":-0.87864089012146,"18":-2.095639228820801,"19":2.819627046585083,"20":0.25793173909187317,"21":-1,"22":-0.7108790278434753,"23":-3.326925039291382,"24":2.779792308807373,"25":-1.9621878862380981,"26":-2.231968879699707,"27":-3.923379898071289,"28":3.0558829307556152,"29":-0.6597182750701904}}}],"outputLookup":false,"inputLookup":false,"activation":"sigmoid","trainOpts":{"iterations":10000000,"errorThresh":0.0005,"log":true,"logPeriod":100000,"learningRate":0.3,"momentum":0.1,"callbackPeriod":100000,"beta1":0.9,"beta2":0.999,"epsilon":1e-8}}