{"sizes":[29,19,10],"layers":[{"0":{},"1":{},"2":{},"3":{},"4":{},"5":{},"6":{},"7":{},"8":{},"9":{},"10":{},"11":{},"12":{},"13":{},"14":{},"15":{},"16":{},"17":{},"18":{},"19":{},"20":{},"21":{},"22":{},"23":{},"24":{},"25":{},"26":{},"27":{},"28":{}},{"0":{"bias":-1.1937867403030396,"weights":{"0":1.5032708644866943,"1":1.5575928688049316,"2":1.407413363456726,"3":-0.7051160931587219,"4":-0.8311547636985779,"5":1.4186409711837769,"6":0.39720651507377625,"7":0.4972672462463379,"8":0.45232629776000977,"9":0.534328281879425,"10":-0.35777291655540466,"11":-0.3599601984024048,"12":1.4236148595809937,"13":1.6765869855880737,"14":-0.10948042571544647,"15":-0.23743095993995667,"16":-0.22203785181045532,"17":2.427955150604248,"18":1.350740671157837,"19":1.9811145067214966,"20":0.22504602372646332,"21":1.0412644147872925,"22":2.0751328468322754,"23":-5.069239616394043,"24":-0.47999072074890137,"25":-2.3118784427642822,"26":-1.0924371480941772,"27":-0.5806042551994324,"28":-0.5844416618347168}},"1":{"bias":-3.815122365951538,"weights":{"0":3.7917556762695312,"1":3.780501127243042,"2":3.768993854522705,"3":0.9274188876152039,"4":0.7303017973899841,"5":3.903794050216675,"6":-1.003982663154602,"7":-1.0372613668441772,"8":-0.9357431530952454,"9":-1.155178189277649,"10":0.7222919464111328,"11":0.8021173477172852,"12":-1.88039231300354,"13":-0.32496753334999084,"14":-0.526005744934082,"15":-0.2612207531929016,"16":-0.6404925584793091,"17":-1.497267723083496,"18":0.4107002317905426,"19":1.372023344039917,"20":0.35316258668899536,"21":0.8025119304656982,"22":1.3248977661132812,"23":-2.5254125595092773,"24":0.04271513223648071,"25":0.048844002187252045,"26":4.600217342376709,"27":0.890903890132904,"28":0.9572888016700745}},"2":{"bias":-1.206068754196167,"weights":{"0":-0.21719211339950562,"1":-0.2320081740617752,"2":-0.11922964453697205,"3":-2.458385467529297,"4":-2.4857263565063477,"5":-0.10909754037857056,"6":-1.4710019826889038,"7":-1.4579198360443115,"8":-1.4233356714248657,"9":-1.4467374086380005,"10":-0.67055344581604,"11":-0.43469446897506714,"12":-0.7680923342704773,"13":-0.7413294315338135,"14":0.3950565755367279,"15":0.5488326549530029,"16":0.7078025341033936,"17":3.6893198490142822,"18":0.13277506828308105,"19":-1.1712225675582886,"20":-0.08696644008159637,"21":-1.145295262336731,"22":-1.162469744682312,"23":-3.223755121231079,"24":-0.2868973910808563,"25":-1.7168468236923218,"26":5.510942459106445,"27":0.5317921042442322,"28":0.3712652921676636}},"3":{"bias":-2.587303400039673,"weights":{"0":-0.41808879375457764,"1":-0.34241148829460144,"2":-0.17418619990348816,"3":-1.1594618558883667,"4":-1.2480751276016235,"5":-0.2224370390176773,"6":3.1316542625427246,"7":3.090543746948242,"8":3.1155307292938232,"9":3.2849299907684326,"10":2.084347724914551,"11":2.105227470397949,"12":2.0751607418060303,"13":0.5540537238121033,"14":-0.7929038405418396,"15":-0.9251933693885803,"16":-1.4943060874938965,"17":2.808393955230713,"18":2.1395602226257324,"19":4.243160724639893,"20":0.6538398265838623,"21":2.4197921752929688,"22":4.156613349914551,"23":-2.1096980571746826,"24":-0.29352012276649475,"25":-1.3298327922821045,"26":5.640115261077881,"27":0.8316335678100586,"28":0.8297097086906433}},"4":{"bias":-1.9867669343948364,"weights":{"0":2.2919304370880127,"1":2.277852773666382,"2":2.348222494125366,"3":-0.43204599618911743,"4":-0.11093129217624664,"5":2.4758336544036865,"6":1.2895302772521973,"7":1.470028042793274,"8":1.3533663749694824,"9":1.3323683738708496,"10":-1.8236874341964722,"11":-1.8143857717514038,"12":-3.4126200675964355,"13":-2.386530637741089,"14":-0.3394770920276642,"15":-0.22144824266433716,"16":-0.36158931255340576,"17":2.2151079177856445,"18":0.5538069009780884,"19":0.8928534984588623,"20":0.11814090609550476,"21":0.3778528571128845,"22":0.8438087701797485,"23":-5.032779216766357,"24":1.041674256324768,"25":4.113619804382324,"26":-1.2602567672729492,"27":-0.23623748123645782,"28":-0.24071991443634033}},"5":{"bias":0.7547822594642639,"weights":{"0":-2.382658004760742,"1":-2.3773624897003174,"2":-2.4029600620269775,"3":-4,"4":-3.7161238193511963,"5":-1.960080862045288,"6":-1.2028862237930298,"7":-1.1744747161865234,"8":-1.2381081581115723,"9":-0.9875840544700623,"10":-1.0203615427017212,"11":-1.0828676223754883,"12":3.090031623840332,"13":0.9207858443260193,"14":0.6519809365272522,"15":0.8021330237388611,"16":1.2252144813537598,"17":-0.8291131854057312,"18":-0.6280633807182312,"19":-2.2906222343444824,"20":-0.3156660497188568,"21":-1.5259926319122314,"22":-2.386461019515991,"23":-3.0657734870910645,"24":0.4705761969089508,"25":2.206226110458374,"26":1.4316121339797974,"27":0.007775674108415842,"28":0.12266913801431656}},"6":{"bias":-2.683894634246826,"weights":{"0":-0.27614617347717285,"1":-0.260383665561676,"2":-0.2913776636123657,"3":-2.336591958999634,"4":-2.418134927749634,"5":-0.32449889183044434,"6":4.316370487213135,"7":4.267902374267578,"8":4.284895420074463,"9":4.281463146209717,"10":-1.348386526107788,"11":-1.3910695314407349,"12":0.07479055225849152,"13":-0.6713018417358398,"14":-0.2838364839553833,"15":-0.6773828268051147,"16":-0.8312675356864929,"17":3.169163465499878,"18":0.4381766617298126,"19":-1.1847789287567139,"20":-0.19456972181797028,"21":-1.0924063920974731,"22":-1.2565451860427856,"23":-1.3119345903396606,"24":0.5704295039176941,"25":3.1034493446350098,"26":-0.40232202410697937,"27":0.49574732780456543,"28":0.37201669812202454}},"7":{"bias":-0.6075432300567627,"weights":{"0":1.9043054580688477,"1":1.9152685403823853,"2":1.9076554775238037,"3":-3.3706464767456055,"4":-3.2806410789489746,"5":1.746537208557129,"6":-1.8404754400253296,"7":-1.791882872581482,"8":-1.83958899974823,"9":-1.758697509765625,"10":3.553574800491333,"11":3.5875797271728516,"12":-1.514931559562683,"13":-1.1978492736816406,"14":0.1558782160282135,"15":0.034180887043476105,"16":0.11204741895198822,"17":2.346416711807251,"18":0.043117422610521317,"19":-0.9275652170181274,"20":-0.3659127652645111,"21":-0.8317280411720276,"22":-0.9118705987930298,"23":-5.165332794189453,"24":0.8034571409225464,"25":3.528062105178833,"26":-2.4531567096710205,"27":-0.6600102186203003,"28":-0.6150878667831421}},"8":{"bias":0.12335266917943954,"weights":{"0":1.4076197147369385,"1":1.3030650615692139,"2":1.454683542251587,"3":-1.180540919303894,"4":-1.5440953969955444,"5":1.667554497718811,"6":-1.487316370010376,"7":-1.464379072189331,"8":-1.469738245010376,"9":-1.3789098262786865,"10":-3.169844388961792,"11":-3.186501979827881,"12":1.0169053077697754,"13":1.2998524904251099,"14":0.562237024307251,"15":0.6962652206420898,"16":1.0390630960464478,"17":0.19116531312465668,"18":-0.9162951707839966,"19":-3.0552093982696533,"20":-0.5698651671409607,"21":-2,"22":-3.0586886405944824,"23":-6.127164363861084,"24":0.1397106945514679,"25":-2.2875304222106934,"26":4.518156051635742,"27":-0.1349327713251114,"28":-0.17861470580101013}},"9":{"bias":-1.8807625770568848,"weights":{"0":3.4697110652923584,"1":3.477052688598633,"2":3.4393796920776367,"3":-2.5928587913513184,"4":-2.498602867126465,"5":3.44606351852417,"6":-0.9089544415473938,"7":-0.9206863045692444,"8":-1.0395323038101196,"9":-0.9297918081283569,"10":4.1753339767456055,"11":4.209476947784424,"12":4,"13":3.952911376953125,"14":-0.8746070861816406,"15":-0.8962335586547852,"16":-1.3320767879486084,"17":0.36016663908958435,"18":0.10671031475067139,"19":-1.0687066316604614,"20":-0.4399380087852478,"21":-0.8141665458679199,"22":-1.0255229473114014,"23":-2.090658187866211,"24":1,"25":3.121800661087036,"26":4.930362701416016,"27":0.8301060795783997,"28":0.7303945422172546}},"10":{"bias":-1.0552713871002197,"weights":{"0":-2.8419809341430664,"1":-2.893860101699829,"2":-2.890465021133423,"3":-0.22635577619075775,"4":-0.1859341412782669,"5":-3.0910401344299316,"6":2.2847213745117188,"7":2.2321290969848633,"8":2.2174153327941895,"9":2.5322465896606445,"10":1.845144271850586,"11":1.7932467460632324,"12":-2.463514566421509,"13":-2.803459644317627,"14":0.5560359358787537,"15":0.6202049851417542,"16":0.9049663543701172,"17":-2.6573472023010254,"18":-1.357096552848816,"19":-2.422574281692505,"20":-0.27799180150032043,"21":-1.20099937915802,"22":-2.373307943344116,"23":-5.915739059448242,"24":0.17897437512874603,"25":-2.3726799488067627,"26":-1.8683944940567017,"27":-0.7203561663627625,"28":-0.7439993023872375}},"11":{"bias":-2.3899214267730713,"weights":{"0":1.4082268476486206,"1":1.5953234434127808,"2":1.4284133911132812,"3":-0.30441856384277344,"4":-0.30824702978134155,"5":1.6744846105575562,"6":1.1183006763458252,"7":1.0230170488357544,"8":0.9223318099975586,"9":1.3073132038116455,"10":-1.0926100015640259,"11":-1.2773325443267822,"12":-1.4807310104370117,"13":-0.7350795865058899,"14":0.12704965472221375,"15":0.08238721638917923,"16":0.0814928263425827,"17":0.12615340948104858,"18":-0.19070492684841156,"19":-1.1728551387786865,"20":-0.1330900639295578,"21":-0.9293418526649475,"22":-1.0847268104553223,"23":-3.0103583335876465,"24":0.19385087490081787,"25":-0.6288403868675232,"26":5.508106231689453,"27":0.38629046082496643,"28":0.3937830924987793}},"12":{"bias":-1.7723382711410522,"weights":{"0":-0.6645302772521973,"1":-0.7705469131469727,"2":-0.6209098696708679,"3":-2.3343358039855957,"4":-2.539914608001709,"5":-0.2663768231868744,"6":2.4755868911743164,"7":2.3394081592559814,"8":2.383645534515381,"9":2.550773859024048,"10":0.2410055547952652,"11":0.1475190371274948,"12":4.090699672698975,"13":3.8383381366729736,"14":-0.6145270466804504,"15":-0.400388240814209,"16":-0.7904080152511597,"17":3.4769811630249023,"18":0.28935086727142334,"19":-0.4174363315105438,"20":-0.21801559627056122,"21":-0.46018311381340027,"22":-0.3060900866985321,"23":-3.1243538856506348,"24":0.7454153895378113,"25":3.51943039894104,"26":-2.005490303039551,"27":-0.4374404847621918,"28":-0.29591694474220276}},"13":{"bias":-1.4681304693222046,"weights":{"0":-0.40778619050979614,"1":-0.44453179836273193,"2":-0.3299790024757385,"3":-1.9217908382415771,"4":-2.0506138801574707,"5":0.030455421656370163,"6":-0.0869608148932457,"7":0.27373695373535156,"8":0.019528191536664963,"9":0.25638002157211304,"10":2.049494504928589,"11":2,"12":3.577542781829834,"13":3.1971662044525146,"14":-0.3216906785964966,"15":-0.4300396144390106,"16":-0.6310224533081055,"17":-1,"18":1.0608843564987183,"19":3.2309608459472656,"20":0.7419971823692322,"21":2.2362637519836426,"22":3.181267738342285,"23":-2.8946452140808105,"24":0.20860224962234497,"25":-0.779384970664978,"26":-0.868738055229187,"27":-0.09133173525333405,"28":-0.1073562502861023}},"14":{"bias":-0.15445181727409363,"weights":{"0":-1.8983880281448364,"1":-1.946105718612671,"2":-1.933214783668518,"3":-3.3928442001342773,"4":-3.395627498626709,"5":-2.1333439350128174,"6":1.536022663116455,"7":1.7093424797058105,"8":1.6234157085418701,"9":1.9372106790542603,"10":2.185072660446167,"11":2.1721012592315674,"12":-1.6066635847091675,"13":-1.9626630544662476,"14":0.4321179687976837,"15":0.33714160323143005,"16":0.818842351436615,"17":-1.372597098350525,"18":-0.022866232320666313,"19":-0.2172139585018158,"20":0.24493393301963806,"21":-0.13220657408237457,"22":-0.27891644835472107,"23":-3.6325714588165283,"24":-0.17415659129619598,"25":-1.1346718072891235,"26":4.230477333068848,"27":0.53727787733078,"28":0.5944690704345703}},"15":{"bias":0.20686055719852448,"weights":{"0":-0.6205423474311829,"1":-0.3683552145957947,"2":-0.5358137488365173,"3":-3.1416473388671875,"4":-2.955258369445801,"5":-0.1517924666404724,"6":-0.26163166761398315,"7":-0.2380634844303131,"8":-0.31784218549728394,"9":-0.10632732510566711,"10":-0.4878302812576294,"11":-0.1886191964149475,"12":0.3983743190765381,"13":0.13546057045459747,"14":0.2948760390281677,"15":0.49825799465179443,"16":0.6243648529052734,"17":-3.453479290008545,"18":-0.140130877494812,"19":0.7367217540740967,"20":0.33811724185943604,"21":0.975344181060791,"22":0.7666370868682861,"23":-3.9305644035339355,"24":0.1994420737028122,"25":1.3497933149337769,"26":-2.0725889205932617,"27":-0.5655518770217896,"28":-0.5572991371154785}},"16":{"bias":-0.2736586034297943,"weights":{"0":1.6399507522583008,"1":1.5553109645843506,"2":1.6427372694015503,"3":-3.3956165313720703,"4":-3.525179386138916,"5":1.622280478477478,"6":-1.7443872690200806,"7":-1.8000768423080444,"8":-1.763066053390503,"9":-1.708666205406189,"10":-2.3851730823516846,"11":-2.478302478790283,"12":-1.5452910661697388,"13":-1.116302728652954,"14":0.4409295916557312,"15":0.5497679114341736,"16":0.7464772462844849,"17":-2.949835777282715,"18":-0.2725723087787628,"19":0.36830130219459534,"20":0.18952995538711548,"21":0.8366535902023315,"22":0.33119624853134155,"23":-4.744507789611816,"24":0.48170265555381775,"25":0.3894699513912201,"26":1.1045749187469482,"27":-0.1990603357553482,"28":-0.2150740623474121}},"17":{"bias":-3.20497727394104,"weights":{"0":-0.33277347683906555,"1":-0.3290749192237854,"2":-0.38639286160469055,"3":-2.2794077396392822,"4":-2.054389715194702,"5":-0.6623655557632446,"6":-1.1663663387298584,"7":-1.0248162746429443,"8":-1.0714080333709717,"9":-1.1936450004577637,"10":-1.804132103919983,"11":-1.8868019580841064,"12":-1.0395989418029785,"13":-1.3555409908294678,"14":0.3893330693244934,"15":0.5739628076553345,"16":0.6404514908790588,"17":0.3253668546676636,"18":0.5040062069892883,"19":0.24944652616977692,"20":0.3141999840736389,"21":0.010159529745578766,"22":0.1858932226896286,"23":0.9014216065406799,"24":0.35856395959854126,"25":2.6362552642822266,"26":-1.9710720777511597,"27":-0.027309898287057877,"28":0.003987439908087254}},"18":{"bias":1.2952898740768433,"weights":{"0":-1.6660288572311401,"1":-1.6749763488769531,"2":-1.7137765884399414,"3":-3.674283266067505,"4":-3.644355535507202,"5":-1.7543880939483643,"6":-2.3087549209594727,"7":-2.3596444129943848,"8":-2.362743616104126,"9":-2.3541500568389893,"10":-0.6032284498214722,"11":-0.7176763415336609,"12":0.09353265166282654,"13":-1.2680550813674927,"14":0.6456543207168579,"15":0.7031669616699219,"16":1.069408655166626,"17":1.6830097436904907,"18":1.1226814985275269,"19":2.189291477203369,"20":0.5678611993789673,"21":1.303792953491211,"22":2.152463674545288,"23":-5.400905132293701,"24":0.6135897636413574,"25":-1.094618797302246,"26":3.4573190212249756,"27":0.2567512094974518,"28":0.17409482598304749}}},{"0":{"bias":-4.0926408767700195,"weights":{"0":2.9684720039367676,"1":7.107255935668945,"2":-1.5558348894119263,"3":-1.4543393850326538,"4":6.795011520385742,"5":-8,"6":-5.172522068023682,"7":1.428955316543579,"8":3.9387853145599365,"9":0.5581463575363159,"10":12.167628288269043,"11":3.3877954483032227,"12":-3.6333930492401123,"13":-2.3846378326416016,"14":-5.797972679138184,"15":-2.0296216011047363,"16":3.5503134727478027,"17":-5.732009410858154,"18":-4.269814491271973}},"1":{"bias":-4.05948543548584,"weights":{"0":2.973863363265991,"1":7.11237907409668,"2":-3.3424856662750244,"3":-0.32544443011283875,"4":6.797774791717529,"5":-8,"6":5.044884204864502,"7":-5.150577068328857,"8":3.924213409423828,"9":-5.494166374206543,"10":12.178428649902344,"11":3.4034883975982666,"12":1.273065447807312,"13":-2.2259440422058105,"14":0.16236244142055511,"15":-2.0184133052825928,"16":-4,"17":-6.785146236419678,"18":-4.94805908203125}},"2":{"bias":-6.948929309844971,"weights":{"0":-0.8986157774925232,"1":-3.9265077114105225,"2":-0.9828808307647705,"3":-1.5165619850158691,"4":-2.941270589828491,"5":-1.4328895807266235,"6":-4.06137752532959,"7":7.098609447479248,"8":-4.927280426025391,"9":4,"10":2.9503939151763916,"11":-3.096531391143799,"12":-1.2754958868026733,"13":1.6342906951904297,"14":3.582054853439331,"15":-0.1765875220298767,"16":-2.8113009929656982,"17":-4.350557327270508,"18":0.4999997019767761}},"3":{"bias":-6.788439750671387,"weights":{"0":1.8296211957931519,"1":-2.976840019226074,"2":-1.1709908246994019,"3":-1.9482686519622803,"4":-4.496984481811523,"5":1.9999998807907104,"6":-3.0715866088867188,"7":-2.359556198120117,"8":3.5140457153320312,"9":3.592266321182251,"10":-2.8480241298675537,"11":-1.9777888059616089,"12":4.860328197479248,"13":4,"14":-3.884070634841919,"15":0.09148816764354706,"16":-1.4295299053192139,"17":-3.948505401611328,"18":-0.8606556057929993}},"4":{"bias":-7.403949737548828,"weights":{"0":-2,"1":-7.411404132843018,"2":2.2490713596343994,"3":-8.504488945007324,"4":-1.6766504049301147,"5":4.905210018157959,"6":-4.8398308753967285,"7":-0.8327860236167908,"8":5.755616664886475,"9":-7.5513105392456055,"10":5.8651018142700195,"11":-1.0866646766662598,"12":-3.834738254547119,"13":-3.4049623012542725,"14":1.1375467777252197,"15":3.304447889328003,"16":5.1331400871276855,"17":-0.32359740138053894,"18":6.748645782470703}},"5":{"bias":-6.675364017486572,"weights":{"0":2.9113736152648926,"1":-3.655184507369995,"2":4.7304182052612305,"3":-0.11322520673274994,"4":2.313061237335205,"5":-1.5023967027664185,"6":0.6968078017234802,"7":2.7278239727020264,"8":0.5210365653038025,"9":-2.58522629737854,"10":-2.2589359283447266,"11":-1.041649341583252,"12":2.822469711303711,"13":-1.552108883857727,"14":-2.696232557296753,"15":-5.290046691894531,"16":-3.65067458152771,"17":-0.9616462588310242,"18":3.1762616634368896}},"6":{"bias":-6.472232341766357,"weights":{"0":3.22176194190979,"1":-0.7253866195678711,"2":-2.323829174041748,"3":3.095484972000122,"4":0.7590062618255615,"5":-4.231808185577393,"6":-4.940459251403809,"7":-1.9535151720046997,"8":-4.09370231628418,"9":-4.226449012756348,"10":-2.647449493408203,"11":-2.552888870239258,"12":-2.3750622272491455,"13":4.4895920753479,"14":-0.7179642915725708,"15":2,"16":2.26051664352417,"17":-1.593947172164917,"18":5.167167663574219}},"7":{"bias":-1.662322759628296,"weights":{"0":-3.712752103805542,"1":-5.321130752563477,"2":-1.6344666481018066,"3":-2.5843608379364014,"4":-7.81309175491333,"5":5.173462390899658,"6":2.229606866836548,"7":-2.37376070022583,"8":-5.204067230224609,"9":-1.037631869316101,"10":-11.089126586914062,"11":-2.8562750816345215,"12":-0.9115897417068481,"13":-1.1239734888076782,"14":-0.0024154901038855314,"15":0.7277019619941711,"16":-1.3906968832015991,"17":6.765714168548584,"18":-2.7856485843658447}},"8":{"bias":-0.24887564778327942,"weights":{"0":-6.868612766265869,"1":-8.47407054901123,"2":-1.6860994100570679,"3":-2.760408878326416,"4":-1.2611560821533203,"5":5.200045108795166,"6":2.4745407104492188,"7":2.638103485107422,"8":-6.414480209350586,"9":-0.787361741065979,"10":-16.328125,"11":-3.4147286415100098,"12":0.6295477747917175,"13":-1.075857162475586,"14":0.05781267583370209,"15":0.9366117119789124,"16":-0.33125507831573486,"17":6.784792900085449,"18":-2.4319465160369873}},"9":{"bias":-6.803765296936035,"weights":{"0":-2.7171413898468018,"1":0.9995068907737732,"2":5.002924919128418,"3":3.166759967803955,"4":-2.562488555908203,"5":0.13158640265464783,"6":-2,"7":-4.242867469787598,"8":0.639732301235199,"9":4.712741851806641,"10":-4.036072731018066,"11":2.854645013809204,"12":-3.468231201171875,"13":-2.478973865509033,"14":3.618939161300659,"15":-3.7698872089385986,"16":-0.264987587928772,"17":-3.469602346420288,"18":1.3948084115982056}}}],"outputLookup":false,"inputLookup":false,"activation":"sigmoid","trainOpts":{"iterations":2000000,"errorThresh":0.00005,"log":true,"logPeriod":5000,"learningRate":0.3,"momentum":0.1,"callbackPeriod":10,"beta1":0.9,"beta2":0.999,"epsilon":1e-8}}